-0.021381,-0.066217,0.034310,0.002829,-0.029922,-0.051000,-0.079974,-0.023503,-0.044359,0.025583,-0.036190,-0.048531,-0.018931,-0.007673,0.042527,-0.023214,-0.052323,-0.065192,0.056421,0.090423,-0.045578,-0.030806,-0.015499,0.019789,0.044781,-0.064180,0.003657,0.059548,0.101731,0.067459,-0.063551,-0.054695,-0.088451,0.033136,0.008084,-0.073893,-0.010590,-0.047555,0.120947,0.065988,-0.062508,-0.051903,0.035045,0.097232,0.030206,0.007614,-0.001905,0.078859,-0.006840,-0.097650,-0.023300,0.056664,0.044706,0.064446,-0.010665,-0.045955,0.045388,0.046575,-0.002943,-0.105107,-0.074402,-0.049483,-0.068924,0.032889,-0.030046,-0.031638,-0.069510,-0.064525,-0.046667,0.047510,-0.057635,-0.057454,-0.013917,-0.006503,-0.007894,-0.024182,-0.091432,-0.044448,-0.076239,-0.012843,-0.000956,0.012472,-0.048339,0.028240,-0.073505,0.012538,0.019292,0.033160,-0.062163,-0.014099,0.022691,0.006072,-0.008406,-0.067080,0.003529,-0.015747,0.013102,-0.049397,0.049671,0.037040,-0.030933,-0.026085,0.038781,-0.004776,0.040274,-0.024759,-0.000006,0.021943,0.035987,-0.003687,0.015485,-0.073927,-0.010806,0.064919,0.039478,0.020943,0.032972,0.006124,0.026926,-0.001548,-0.040015,0.015641,0.030645,-0.003180,-0.056431,0.024570,-0.056383,-0.069670,-0.009363,-0.019185,0.023328,0.004945,0.049167,-0.028873,0.021738,0.032582,-0.009288,0.000772,-0.006332,0.005698,0.020168,-0.076119,-0.018143,-0.012405,-0.027352,-0.018510,-0.004795,-0.084792,-0.024941,-0.024337,0.078637,-0.033208,-0.061414,-0.009986,0.063767,0.045275,0.047729,-0.079078,-0.043569,-0.041750,0.017152,-0.021818,-0.112526,-0.070851,-0.007060,-0.049136,-0.058789,0.002460,-0.006639,0.066682,-0.042592,-0.094752,-0.030536,0.047596,0.084822,-0.046103,0.005029,0.077062,0.034538,0.019143,-0.056778,0.042762,-0.041104,-0.046117,-0.046400,-0.031392,-0.006750,-0.075895,-0.033728,0.014155,-0.014472,-0.060779,-0.016945,-0.039723,-0.009506,0.004588,0.015663,0.016639,0.048984,0.026716,-0.007110,-0.090264,-0.069449,0.035348,-0.077237,-0.057007,0.046258,0.008108,0.038420,0.054386,-0.003301,0.060226,0.089331,0.012547,-0.065819,0.018984,0.084766,0.041455,-0.074949,-0.071578,0.049224,0.024065,-0.042148,-0.030200,0.003278,0.010806,-0.041354,-0.040869,0.015688,0.023850,-0.008494,-0.014753,0.035550,-0.051355,-0.014711,-0.027223,-0.033051,-0.017753,-0.095139,-0.007285,-0.034442,-0.019965,0.027630,-0.044742,0.048930,-0.033912,-0.057665,-0.054961,0.045058,-0.008885,-0.041498,0.022455,-0.023106,0.037893,0.028503,0.012180,0.010568,0.023468,0.017270,-0.032347,-0.019020,0.006534,-0.068309,-0.059088,-0.041581,-0.054341,-0.000966,-0.048763,0.014306,-0.065827,-0.068793,0.005435,0.016202,0.011378,-0.048718,0.025254,-0.014876,-0.072778,-0.093182,0.027862,0.016816,0.012719,-0.065478,-0.096354,0.013590,0.073859,0.025048,-0.078999,0.024168,0.032682,-0.054171,-0.004282,-0.089528,0.066600,0.060191,0.012482,-0.045817,-0.044064,0.055220,-0.046533,0.000740,-0.098556,-0.015189,-0.033529,0.056579,-0.061633,-0.083124,-0.000109,-0.052388,0.030593,-0.032878,-0.073678,0.010896,-0.076260,0.034574,-0.042024,-0.017353,-0.059489,-0.022590,0.065130,0.033408,0.019394,-0.010496,0.014301,0.087105,-0.004985,-0.040505,-0.056066,0.006891,0.001158,0.013831,-0.037195,-0.058609,-0.034112,-0.016665,0.016928,0.044748,0.005403,-0.017360,-0.030338,-0.059378,-0.007720,-0.008363,0.035289,-0.010750,-0.036779,0.004795,-0.024719,-0.033923,0.062289,0.024163,0.023090,-0.026821,-0.021893,-0.022150,-0.011124,0.001858,0.053154,0.026127,0.004874,-0.025904,0.071670,0.014436,0.012559,-0.052605,0.044947,0.000475,-0.069469,-0.005585,0.023033,0.004496,-0.053922,-0.012972,-0.018737,-0.060602,0.015341,0.013172,-0.061700,0.014926,0.026281,0.016343,0.070919,0.031649,-0.006721,-0.038799,0.005220,-0.005008,-0.037804,-0.046362,-0.041549,0.093455,0.004874,-0.093597,-0.020653,0.007971,-0.018633,-0.024587,-0.104665,-0.044714,0.024493,-0.010757,0.030887,0.064534,0.045842,-0.007310,0.008042,-0.012670,0.028210,-0.051463,-0.119178,0.014715,0.026699,-0.060356,-0.065286,-0.077565,-0.017427,-0.061648,-0.021817,-0.089108,-0.047680,-0.080832,0.003564,-0.048520,0.014729,-0.056732,0.008183,0.079524,0.025389,-0.062109,-0.048310,-0.016062,0.042659,0.019017,-0.007560,-0.004271,0.019443,0.060669,0.083390,-0.013455,-0.068198,-0.003592,-0.000048,-0.028092,-0.032590,0.003637,0.011566,0.051491,-0.045662,-0.059834,0.034451,-0.036022,0.108250,0.071309,-0.002328,-0.032783,-0.018308,0.023771,0.086459,0.003783,-0.048096,-0.017521,0.058058,0.059586,0.010376,-0.110276,0.014397,-0.018899,-0.013340,-0.072412,-0.078072,-0.016987,-0.027790,-0.102314,-0.054232,-0.011040,-0.011657,-0.026925,0.007577,0.013498,-0.028726,-0.024020,-0.050294,0.022157,-0.039416,-0.014992,0.007836,-0.000083,-0.036090,0.083997,0.039110,0.039025,0.014250,0.002995,0.060371,-0.061360,0.059757,0.092671,0.001312,-0.052087,-0.014487
0.004607,-0.036341,0.005399,0.020047,0.036807,0.027491,-0.040976,0.029174,0.065494,0.001704,0.051231,-0.067081,-0.088622,-0.059029,0.017567,-0.018270,-0.011196,-0.009251,-0.026598,-0.001312,0.015704,-0.028124,-0.003035,0.041665,-0.012017,-0.051861,0.028977,-0.059046,0.021927,-0.011302,-0.056603,0.020774,-0.060513,-0.006853,-0.011334,-0.085457,0.010192,-0.046116,-0.023362,0.040964,-0.080766,-0.023096,-0.014106,-0.075457,-0.033058,0.034870,-0.077588,0.028266,0.057025,0.039234,-0.035227,0.056202,-0.013110,-0.033592,-0.050445,-0.046801,-0.002422,0.063239,0.074265,0.022508,-0.018309,-0.024506,-0.023666,0.065213,0.142017,-0.007364,0.017216,0.004829,-0.031297,-0.007901,-0.057687,-0.015224,0.057797,0.015152,0.018758,-0.074548,-0.069969,0.051513,0.029865,-0.051940,-0.008415,-0.001879,-0.010683,0.032830,-0.039373,0.032899,-0.056118,-0.019370,-0.063771,-0.060539,-0.041070,-0.033073,0.009877,0.017828,-0.043710,-0.099355,-0.038960,0.054146,0.005895,-0.030357,0.030984,-0.042291,-0.008694,0.003523,0.056020,-0.037869,-0.034237,0.052376,-0.021169,0.016744,-0.034691,0.003357,-0.007485,0.028776,-0.008998,-0.011277,0.008280,-0.044174,-0.061062,0.011120,-0.006772,0.026048,0.046694,-0.026995,0.046221,-0.055860,-0.049148,0.050522,-0.025875,0.018098,-0.053679,0.048016,0.024398,-0.042802,-0.047596,-0.005377,-0.028414,0.059217,0.078385,-0.047232,-0.008712,-0.056513,0.066551,0.092110,0.106316,0.047636,-0.024676,-0.052447,-0.054567,0.028363,-0.026693,0.027081,-0.059613,0.009541,-0.003953,0.036018,0.032310,0.045786,-0.081346,-0.112869,0.016981,0.023096,0.088032,0.022973,-0.084510,-0.014023,0.003567,0.057971,-0.025774,0.009263,-0.024687,0.019200,0.022319,0.020256,-0.014972,0.031700,0.053247,-0.023554,-0.012876,-0.022776,0.013228,-0.047816,0.044124,0.034834,-0.008072,-0.050170,-0.038513,-0.036074,0.018752,0.114034,-0.005301,0.040960,-0.025895,-0.083093,0.049432,0.024605,0.013773,0.019048,0.032329,-0.067040,0.023751,-0.014683,-0.007890,0.065266,0.098916,-0.002941,-0.060375,-0.030011,-0.053164,0.082604,0.003288,0.047824,0.043679,-0.085616,-0.034976,-0.041702,-0.011001,0.137406,0.019619,-0.034856,-0.001148,-0.007744,-0.009790,0.047298,0.043778,0.035270,-0.015632,0.047853,0.051432,-0.011091,-0.000448,0.027067,0.009953,-0.063929,0.039879,0.041530,0.067534,0.007178,0.012931,-0.006536,-0.063389,-0.020795,0.054172,0.056224,-0.025430,-0.041362,0.001808,-0.013502,-0.044375,-0.020931,0.006583,-0.006801,-0.066614,-0.049846,-0.053952,-0.018053,-0.015518,-0.016084,-0.054927,-0.032918,-0.057649,0.016924,0.039445,0.050762,0.011012,-0.022146,-0.026552,0.001328,-0.003283,0.039549,0.022014,0.036979,-0.001106,-0.011682,-0.027752,0.001639,-0.001745,-0.042529,-0.006677,-0.018364,0.038612,-0.006602,-0.063326,-0.073790,-0.076912,-0.051022,0.061786,0.001376,-0.072305,-0.093356,0.042125,-0.015767,0.064322,0.068897,0.007153,0.043830,-0.000555,-0.018979,0.012458,0.075814,-0.034856,-0.055436,-0.010532,-0.014886,0.040519,-0.053450,-0.047770,0.032448,0.019493,-0.007659,-0.049659,-0.015594,-0.002358,-0.039767,-0.040365,-0.003115,0.054139,0.008316,0.003256,-0.084997,-0.052395,-0.059969,-0.018917,0.053170,-0.016589,0.003643,0.021010,-0.004131,-0.014528,-0.045474,0.012382,0.007625,0.043194,-0.049762,-0.027493,-0.009110,0.062467,0.084942,0.003323,-0.039747,-0.039628,0.021224,0.040714,0.051783,0.034792,-0.017503,0.005283,0.036351,-0.045286,-0.001313,-0.014617,0.050243,0.005172,0.025733,-0.023012,-0.031832,0.016196,0.016487,-0.048145,-0.000493,0.043436,0.036973,0.013743,0.012161,-0.053977,0.008484,0.009314,-0.020549,-0.018534,0.060143,-0.044857,-0.050783,-0.013180,0.057379,-0.038920,-0.056997,0.017583,0.021177,-0.017019,0.065331,-0.027167,-0.001027,0.004722,-0.047147,-0.017612,0.029328,0.018583,0.034844,-0.026852,-0.023833,-0.046226,-0.033389,0.010283,0.064989,-0.042529,0.013706,0.045822,0.009433,-0.039466,-0.026389,-0.009437,-0.052270,0.011485,-0.063145,-0.050328,-0.022951,0.006930,0.078063,0.016972,0.045080,-0.042371,-0.031007,0.078827,0.154947,0.162046,0.038866,-0.021815,-0.067177,0.015418,0.108081,-0.035578,0.004376,-0.006306,0.036133,-0.044605,-0.043998,0.015583,0.023758,-0.040851,0.025543,-0.000027,-0.045014,0.042172,0.012440,-0.058000,0.044344,0.026831,0.035104,-0.014411,0.057818,0.007742,-0.008151,-0.087613,0.019765,0.043854,0.005399,0.019971,0.050060,-0.027782,0.035652,-0.067721,-0.056804,0.023250,-0.021251,0.009698,-0.067482,-0.084683,-0.029973,0.023315,0.043844,0.022879,0.003640,-0.018110,-0.041838,0.024167,-0.051827,0.034563,0.031633,-0.044381,0.059908,0.018562,-0.027678,0.039419,-0.015519,-0.021876,-0.046038,0.019804,-0.034642,-0.030814,-0.007389,0.011845,-0.044093,0.045205,0.019463,-0.015230,-0.065045,-0.004395,-0.033385,-0.034056,-0.045419,-0.018998,-0.037527,-0.078465,0.005808,0.015257,-0.049753,0.003241,0.052845,-0.044067,-0.023283
0.001428,0.064101,0.065135,-0.057328,0.025359,0.025002,0.064639,0.040529,0.012224,0.055868,0.027081,0.050233,-0.064685,-0.063348,-0.029110,-0.013393,-0.050824,-0.046840,-0.060658,0.015869,0.016868,-0.027220,-0.066957,-0.086004,-0.007173,0.057925,-0.032105,-0.028575,-0.041564,0.053836,0.053263,0.018582,-0.042327,-0.027981,-0.005383,0.094034,-0.079569,-0.099791,-0.007561,0.096590,-0.025993,-0.018408,-0.055076,0.047609,0.100460,-0.015216,-0.010190,-0.084439,0.012261,0.019846,-0.046564,0.013456,0.017042,-0.073513,-0.039577,-0.043697,-0.055969,-0.020590,0.032006,0.036885,0.023403,-0.101264,-0.003155,0.003285,-0.090930,-0.012799,-0.086943,0.053289,0.031659,-0.063886,-0.064060,0.009730,-0.033604,-0.045288,0.049094,-0.053325,-0.035504,-0.008917,0.075505,-0.001446,-0.104315,-0.011091,0.076718,-0.056963,0.004097,0.009299,0.035509,-0.061653,0.008090,-0.033431,0.032440,-0.055147,-0.094739,0.017230,0.021208,-0.001119,-0.000487,-0.049767,-0.095258,-0.012334,-0.003949,-0.037246,-0.063516,-0.005630,-0.055683,0.043257,0.003670,-0.041324,-0.005142,-0.034539,0.006616,-0.010691,-0.058253,0.041173,-0.002693,0.000015,-0.061482,-0.044605,-0.007762,0.001433,-0.013287,-0.015057,-0.009599,-0.028512,0.024050,-0.048965,0.007627,0.004766,-0.077384,-0.055551,0.038294,0.030337,0.011853,-0.012741,-0.046094,-0.053658,0.029767,-0.058202,-0.024225,0.065658,0.017128,-0.029436,0.002146,0.012227,-0.008205,0.011139,0.038567,-0.042019,-0.026777,-0.008353,-0.011432,-0.023443,-0.031111,-0.024389,0.003702,-0.031714,0.053621,0.012481,-0.068231,0.038904,-0.012040,0.017380,-0.032842,-0.055852,-0.030374,0.055520,0.034174,0.040259,-0.061588,0.027022,0.043117,0.075775,-0.045423,-0.064292,0.009981,0.021413,0.035069,0.019722,-0.002986,-0.052818,-0.058030,-0.071463,0.017525,0.005290,-0.045464,0.036834,-0.084946,0.008865,-0.016619,-0.013110,-0.050234,-0.047909,-0.073063,0.042504,-0.020014,-0.086840,-0.002694,-0.057674,-0.045046,-0.051156,-0.030427,-0.078430,0.033126,-0.009369,0.038795,-0.018639,-0.019004,0.060878,0.004117,-0.036413,-0.039078,-0.036529,-0.072852,-0.005641,0.010106,-0.085133,-0.003815,0.000866,-0.023736,0.021755,-0.044172,0.047489,0.026346,-0.025971,0.011603,0.023421,0.037250,0.079722,-0.055401,0.013749,-0.030007,0.067025,0.007249,0.015318,0.033971,-0.026279,0.059844,0.026732,0.006952,0.057577,-0.011177,-0.002883,-0.019888,-0.071432,-0.054774,0.013086,-0.040293,-0.029134,-0.021765,-0.046254,0.013527,-0.016480,-0.057456,-0.012327,-0.009370,0.027201,0.010863,0.040430,0.057838,-0.025081,-0.027526,-0.034812,0.000966,0.017118,-0.002689,-0.075207,0.030527,0.031086,0.020862,0.006322,-0.017795,-0.015471,0.041515,0.036383,0.016807,0.015878,0.081213,-0.022118,-0.050085,0.051202,0.064985,0.081482,-0.018255,-0.006475,0.076397,0.063283,0.033742,-0.068457,-0.019752,0.018661,0.040031,0.030955,-0.049167,-0.097378,0.055471,0.061703,0.006590,0.005095,-0.089875,-0.017711,0.014010,-0.032451,0.014542,0.000886,-0.030584,-0.067342,0.072660,0.003110,-0.054392,-0.035030,0.033220,0.062696,0.024129,-0.028887,0.018659,-0.033309,0.036563,-0.025101,-0.069307,0.030414,-0.044431,-0.035711,-0.074060,-0.014633,0.027042,-0.034490,0.055328,0.035906,0.017483,0.012130,0.036997,0.029253,-0.037622,-0.029360,0.037297,-0.061994,-0.010941,0.032800,-0.071138,-0.008639,-0.023957,0.042276,-0.010821,-0.045878,-0.014677,0.014311,-0.023410,0.016303,-0.006178,0.002729,-0.036903,0.026857,0.027290,0.025841,-0.053264,0.014717,0.024462,0.023810,-0.025512,-0.000739,-0.056607,-0.048782,-0.025887,-0.004739,-0.042617,-0.044183,-0.016779,-0.037593,-0.052701,-0.050364,0.009571,-0.024408,-0.035121,-0.018970,-0.049524,0.002981,-0.047142,0.058773,-0.008455,-0.012540,0.019562,0.030423,-0.028175,0.027026,0.054785,-0.036934,0.021503,-0.073479,-0.067468,-0.027054,0.002268,0.018448,-0.041437,-0.066095,0.010336,0.002973,0.032486,0.031564,-0.053295,0.004854,-0.061488,0.033490,0.002947,-0.065265,-0.049970,-0.016113,-0.064210,0.057742,-0.060496,-0.075418,-0.016230,0.011620,0.076145,-0.023119,-0.056920,-0.059339,-0.027398,0.096012,0.009160,-0.018608,-0.004788,0.050043,0.027399,0.032922,0.013956,-0.043023,-0.085055,0.030497,0.004997,0.000607,-0.011473,-0.038308,0.019663,0.029771,-0.036458,-0.021181,-0.004050,0.046043,0.053919,-0.011001,-0.068993,0.032157,0.089748,0.048764,-0.030509,0.026110,0.057649,0.060232,0.021807,-0.057822,-0.074215,-0.057437,0.063046,0.025855,-0.038395,-0.105909,0.006793,0.048588,0.039829,-0.022159,-0.060391,-0.047148,0.083842,-0.007363,-0.101067,-0.111003,-0.011721,0.065373,-0.023619,-0.016085,-0.028549,-0.010327,-0.008785,-0.051049,-0.017360,0.065327,0.041386,-0.030476,-0.054595,0.084183,0.055664,-0.063927,-0.050675,-0.010180,0.038177,-0.040897,-0.046967,0.027671,-0.031414,-0.065322,-0.025307,-0.053762,0.004473,-0.033740,-0.020571,0.012346,-0.069979,-0.081690,0.018015,0.015619
-0.034558,0.003685,-0.034641,0.020969,0.039537,0.006330,0.013556,-0.023345,0.022802,0.001956,-0.026343,-0.007114,0.085974,-0.017799,-0.097014,0.093436,0.059825,-0.018064,-0.042436,0.011198,-0.001694,-0.015845,-0.036999,0.028948,0.005090,0.033720,-0.081538,0.014310,0.026525,-0.086615,0.057677,-0.046129,-0.026555,-0.030780,-0.109554,0.007492,-0.018055,-0.047527,-0.105121,-0.009000,-0.071938,0.001451,-0.026155,-0.031588,0.068542,-0.076528,-0.057085,-0.034720,0.060106,0.031955,-0.022028,-0.006615,-0.014851,-0.013499,0.033415,-0.024583,0.024143,0.022461,0.012249,0.011608,0.028808,0.048720,0.003331,-0.062878,-0.094246,0.005711,-0.030891,-0.030120,-0.018282,0.026110,-0.017511,0.012964,-0.015288,-0.026080,0.017028,0.017416,-0.042877,-0.013101,-0.050904,-0.009111,-0.066125,-0.066911,-0.073057,0.081713,0.121817,-0.070473,-0.007890,0.060712,0.106530,0.002355,-0.033247,0.036376,0.086950,-0.042452,-0.023655,0.003031,-0.011507,-0.056103,-0.072726,-0.073348,0.042201,-0.016529,0.025501,-0.010624,-0.049736,0.006234,-0.029582,-0.013947,-0.046335,-0.007483,-0.006622,0.014398,0.026366,-0.071992,0.005290,0.064421,-0.006435,-0.017951,-0.016428,0.007449,0.019421,-0.004865,0.061746,0.052706,0.049767,-0.054614,-0.056704,-0.046919,0.056400,0.028405,0.009704,0.005168,-0.005953,-0.008899,-0.025353,-0.038945,-0.030953,0.032535,-0.085012,-0.081484,-0.075380,-0.051986,-0.029427,-0.006242,0.032484,-0.038080,-0.018725,-0.013090,0.035226,0.008546,-0.018356,-0.030933,0.010450,-0.006501,0.051179,0.001810,-0.013805,0.025651,0.012110,-0.010214,0.011455,0.068851,-0.006652,0.028307,-0.006646,0.032081,0.055494,0.003710,-0.057394,-0.124325,0.056425,-0.037959,-0.050734,-0.050483,-0.013893,0.004950,-0.074798,0.001177,0.016888,-0.053686,-0.059681,-0.000986,0.007526,0.021281,-0.127568,0.043935,0.036365,-0.025422,-0.108541,-0.048945,0.058314,-0.040665,-0.069674,0.004667,-0.002310,-0.037140,-0.009561,-0.053311,-0.054817,-0.044654,0.051735,0.014871,0.018744,-0.083949,-0.005647,0.017532,-0.030283,-0.048137,0.053297,0.064437,-0.038854,-0.041366,-0.023268,0.055148,0.025423,0.017137,0.043279,0.083770,0.094719,-0.010641,0.016121,0.085306,0.044021,0.008212,0.023009,0.001577,-0.033186,-0.034586,0.028023,0.047038,0.033784,-0.084792,0.020447,0.031196,0.019983,-0.042670,0.027479,0.045786,-0.034504,0.003905,0.054100,0.009730,-0.018659,-0.054001,0.026876,-0.010230,-0.039170,-0.019651,0.022318,0.000727,0.005305,-0.021299,0.045833,-0.030177,-0.005936,-0.019596,-0.052808,-0.010010,-0.051284,0.003164,-0.039979,0.020842,-0.069275,-0.000086,0.045969,-0.053341,0.029633,-0.032937,-0.045624,-0.065854,-0.042752,-0.042696,0.046052,-0.037838,-0.061607,-0.006966,-0.065178,-0.029190,0.013269,0.033993,-0.073953,-0.028718,0.014135,0.069056,-0.054165,0.040459,0.010999,-0.012663,-0.085135,-0.091000,0.049155,-0.002015,-0.068742,0.015634,-0.044592,-0.046074,-0.023138,0.011296,-0.019476,-0.062883,-0.010471,-0.008603,0.028668,-0.079359,-0.031250,0.011216,0.013276,-0.078844,0.071197,0.038929,-0.026622,-0.025733,0.044358,0.044296,-0.066886,0.048827,0.078049,0.007095,0.010836,0.018137,0.077514,0.062733,-0.003511,-0.004607,0.005095,-0.027200,-0.003687,0.024324,-0.016014,-0.002809,-0.029703,-0.069155,-0.005495,-0.024867,0.017383,0.046102,-0.009032,0.027414,-0.028737,0.045536,-0.008731,-0.041145,0.003449,-0.003521,-0.065011,0.012921,0.002001,-0.044659,0.000510,0.010131,-0.046412,0.011393,-0.006191,-0.008087,0.053586,0.005659,-0.058758,-0.005855,0.070542,-0.016987,0.031335,0.039494,0.061432,0.030980,-0.056955,-0.017917,-0.002756,-0.019201,-0.010213,-0.041018,0.023311,0.044645,0.048571,0.026601,-0.002731,-0.054695,-0.019520,-0.041402,-0.017075,-0.001319,-0.063270,-0.100381,-0.033081,0.045228,-0.005898,-0.072298,-0.049231,0.048541,0.072618,0.002494,0.041566,0.106181,0.015020,-0.031792,-0.031473,0.018772,0.035798,-0.025899,-0.056105,-0.097562,-0.020537,-0.007396,0.016683,0.034091,0.045155,-0.020708,-0.024509,-0.013908,0.034690,0.003731,-0.039533,-0.026477,-0.020700,-0.031260,-0.035696,0.007313,-0.014769,0.015079,-0.041372,-0.006417,-0.084976,0.007410,-0.026136,0.034820,-0.009648,-0.054226,-0.059379,0.033985,-0.049435,-0.016337,-0.055080,-0.039942,-0.045116,-0.025196,0.078787,-0.001295,-0.042693,0.000872,0.111088,0.025949,-0.018271,-0.004368,0.054092,0.061297,0.034400,0.044452,0.042682,0.013463,-0.042449,-0.005730,-0.063804,-0.020468,-0.035483,-0.044687,-0.013560,-0.045924,-0.074228,-0.053769,0.052060,-0.002960,-0.126920,-0.053637,0.056790,0.063657,0.024755,0.017965,-0.042322,0.034533,0.022477,-0.074157,0.012288,0.003710,-0.056250,0.026661,-0.015067,0.009359,-0.049960,-0.004450,0.010756,-0.012829,-0.001172,0.077364,0.090577,-0.061324,-0.002467,0.037167,-0.002483,-0.005411,-0.057152,0.020072,0.028393,0.029080,0.059818,-0.023519,0.084132,-0.047108,-0.025268,-0.021251,0.029867,0.011636
-0.026135,-0.032709,-0.010521,0.053499,-0.052238,-0.072156,-0.009329,0.063861,-0.071473,0.021127,0.051209,0.000387,-0.016504,-0.058775,0.029658,0.026484,-0.016742,0.008542,0.078112,0.068333,-0.039699,-0.077630,0.120222,0.114917,-0.022152,-0.037106,0.042712,-0.037359,-0.057386,0.040237,-0.023596,-0.029247,-0.023135,0.016916,0.028571,-0.014104,-0.074661,-0.024707,-0.016762,-0.069774,-0.009688,0.011081,0.054888,0.038660,-0.061858,-0.041055,0.022989,-0.046401,-0.099337,-0.091984,0.004610,-0.047891,-0.027202,-0.012786,-0.030849,0.029064,0.051297,0.001704,-0.033372,-0.009127,-0.052752,-0.031373,-0.038361,0.029831,0.081017,-0.010378,-0.036445,0.034861,-0.005553,0.015129,-0.030205,0.009915,0.074435,0.070632,-0.046398,0.035903,0.052322,0.016987,-0.006233,0.009191,0.017386,-0.013646,-0.001499,-0.014375,-0.040831,-0.045275,0.066634,0.063862,-0.077196,-0.033157,-0.000191,-0.019654,-0.023864,-0.000771,0.012818,0.023814,-0.034849,0.008372,0.050433,0.090671,0.022895,0.041034,0.033289,-0.021361,0.022146,0.011414,-0.010451,0.035417,0.011335,0.018483,0.016232,0.000197,-0.052973,-0.043402,-0.045377,-0.020018,-0.000035,-0.036518,0.024139,0.026950,0.024701,-0.023649,0.001548,-0.048193,0.001054,0.006696,0.032469,-0.035673,-0.070211,-0.011739,0.002365,-0.052282,0.039505,-0.044108,-0.024125,0.012017,-0.045541,-0.032580,-0.051402,0.023833,-0.001499,0.019585,-0.060311,-0.005054,-0.040742,0.022507,-0.064940,-0.018542,-0.005126,0.004244,0.058084,0.050205,-0.072575,-0.069294,-0.025444,-0.012976,-0.012563,0.036314,0.012569,-0.097985,0.005792,0.019521,-0.039708,0.036377,-0.042959,-0.041224,-0.031846,-0.053759,-0.016674,0.056071,-0.034184,-0.028951,0.030925,0.057586,0.001757,0.037735,0.019008,0.016258,0.015260,-0.021896,-0.022038,0.055874,0.012502,-0.033778,-0.015707,0.037746,-0.035004,-0.009524,-0.010323,-0.015827,-0.004099,-0.066411,0.086263,0.064561,-0.073745,-0.051381,0.071209,0.063732,0.012205,-0.002065,0.065822,0.006886,-0.040442,0.022928,0.059646,0.049222,-0.030217,0.033679,-0.018342,-0.039183,-0.029291,0.008787,0.009867,-0.038149,-0.028599,-0.009705,0.007132,-0.006526,-0.061049,0.013933,0.070131,-0.076654,-0.131692,0.018649,-0.026125,-0.037050,0.001030,-0.052438,-0.033112,-0.045121,-0.017853,-0.017355,0.050736,-0.035373,-0.059666,-0.017048,-0.024349,0.007116,-0.060987,0.018980,0.047400,0.013724,0.033308,0.087985,-0.010570,0.040878,0.023738,-0.003390,0.024621,-0.044797,0.014795,0.024904,-0.030263,-0.018090,-0.029863,0.026237,0.014056,-0.004789,0.015537,-0.004821,-0.022712,0.016569,-0.000497,0.045756,-0.032803,0.019940,-0.025581,0.052168,-0.060708,0.025519,0.017788,0.008089,0.038699,0.008788,-0.001641,0.052665,0.015570,-0.019933,-0.013186,-0.074638,0.015057,0.003440,-0.063850,-0.074172,0.009596,0.043840,-0.036013,-0.071737,0.009141,0.041695,0.052610,0.007992,0.019629,0.102212,-0.058266,-0.022213,0.045861,0.082252,-0.031619,-0.014477,-0.035056,0.020642,0.032173,-0.006444,-0.059448,-0.066183,-0.060474,0.020159,-0.017204,-0.067553,0.000181,-0.005234,0.012286,-0.050524,0.034263,0.051209,0.047366,-0.029104,0.029720,0.075323,-0.032184,-0.063017,0.029455,0.100861,-0.028421,-0.011891,0.038420,-0.021957,0.015188,-0.066619,-0.045241,-0.006305,0.028851,0.021450,0.014909,-0.024844,-0.062977,-0.030825,-0.004340,-0.011827,-0.000078,-0.048596,0.014190,-0.049651,-0.005962,-0.012394,0.015918,0.046176,-0.042875,-0.018595,0.044541,-0.049289,0.045255,-0.047233,-0.001259,0.021673,-0.016473,-0.044633,-0.026922,-0.062572,0.057781,0.057114,-0.020733,-0.038155,0.012412,0.057416,-0.051468,-0.052081,0.031415,0.003421,0.031514,-0.031157,0.040071,-0.018636,0.022299,0.076012,-0.012712,-0.027625,-0.052823,-0.003222,-0.015401,0.027108,-0.058779,-0.060190,-0.101903,-0.009113,0.024743,0.018712,-0.061060,-0.061935,-0.008482,0.045908,-0.076112,-0.003737,-0.009498,0.031763,-0.079667,-0.014192,0.062299,-0.010469,0.002302,0.005419,-0.031189,-0.033156,-0.072015,-0.055596,-0.010940,0.053219,0.055569,0.063477,0.038725,-0.008633,-0.057265,-0.030509,0.083400,-0.046594,-0.028097,0.022866,0.005206,0.020164,-0.026943,0.011254,0.044788,0.013397,0.046972,0.072629,0.012142,-0.041354,-0.021161,-0.060537,-0.029874,-0.001962,-0.050378,0.028026,-0.041299,0.037172,0.038041,-0.033943,-0.067946,0.043838,-0.044346,-0.003987,-0.044238,-0.075558,0.035399,0.069661,0.018213,-0.017851,0.016323,0.033648,0.044146,0.008510,-0.027054,0.037205,-0.053748,-0.035544,0.056747,0.000398,-0.077056,-0.027736,-0.019704,0.032605,-0.059629,-0.118931,-0.015580,-0.040567,-0.018079,-0.067043,-0.071382,-0.027283,-0.016629,-0.050073,-0.080680,0.058477,0.079391,-0.008988,0.011346,0.044525,-0.018504,-0.033921,0.056547,-0.034904,0.001008,0.002422,0.004387,0.045327,0.012931,0.016084,0.044281,-0.026076,-0.033395,-0.006747,0.046287,-0.017777,-0.080026,-0.000574,0.082582,0.062765,-0.028284,-0.038535
-0.055496,0.041699,-0.048226,-0.006899,0.002118,0.064775,-0.012033,-0.089859,0.028931,-0.018452,-0.050953,-0.031656,-0.054668,0.039790,-0.015524,-0.077879,-0.040256,0.000440,0.034828,0.040768,-0.022395,-0.038824,-0.066343,0.066235,0.008831,0.036940,-0.056472,-0.053439,0.039155,0.017611,-0.019164,-0.050684,0.053456,0.046975,0.013566,0.011567,-0.032257,0.018233,0.093875,0.035756,0.018538,-0.024826,-0.008219,0.020437,-0.004672,0.002521,-0.025474,0.012315,0.014193,0.029166,0.027994,-0.058505,-0.054655,-0.045766,0.003350,-0.040474,-0.043813,0.007497,0.009543,-0.082415,0.006606,0.047453,0.029279,-0.049967,-0.040403,-0.068083,0.063603,0.085004,0.020829,0.019828,-0.031359,-0.005610,0.034607,0.012665,-0.025157,-0.037582,-0.023848,-0.053699,-0.059465,0.035412,-0.011544,0.005376,-0.058868,0.008633,0.046884,0.024184,-0.060674,-0.057188,-0.011494,-0.004075,-0.018702,-0.092454,-0.086040,0.012790,0.023387,0.040761,-0.025372,-0.015733,-0.020312,0.013631,-0.014090,-0.021776,-0.055627,0.041861,0.036696,0.025705,-0.036762,0.022675,0.004537,-0.057260,-0.045689,-0.041897,-0.028421,-0.035281,-0.017430,-0.000899,-0.032324,-0.017020,0.048087,-0.028893,0.020296,0.045257,0.037314,-0.043328,-0.040289,-0.013925,-0.017471,-0.033303,-0.008667,-0.060457,-0.023286,-0.010020,-0.003878,-0.012009,-0.040669,0.003951,-0.061404,-0.022091,-0.052144,0.036806,-0.025385,0.032920,0.003729,-0.024390,0.014256,0.020410,-0.012719,0.031067,0.056707,-0.045587,0.012617,0.004303,0.004714,0.007092,0.004108,0.024593,-0.046210,0.009916,-0.020325,-0.023316,-0.010184,-0.006662,-0.066951,-0.081364,-0.021271,-0.030564,-0.031975,-0.036357,-0.009181,0.002934,-0.016687,0.020838,0.018433,0.011394,0.045788,0.027623,-0.049626,-0.041530,0.030861,-0.043277,-0.071503,-0.083843,-0.093393,-0.076791,0.001439,-0.034768,-0.021518,-0.034153,-0.031245,-0.002863,-0.037825,0.039013,0.066270,0.100175,0.058766,-0.061011,0.045619,0.040256,0.031379,0.050841,0.019091,-0.047253,-0.013784,-0.057480,0.016657,-0.017911,0.056437,0.038030,0.075001,-0.014031,-0.041275,0.002171,-0.023164,-0.005611,-0.004199,-0.049720,0.034842,-0.027934,-0.075257,-0.085838,-0.018919,0.056654,0.028641,-0.044300,-0.042517,0.038813,-0.020850,0.001314,-0.019307,0.001044,-0.024537,-0.011997,-0.017783,-0.022853,-0.019412,-0.052012,-0.007903,-0.040901,-0.065886,-0.055356,0.039819,0.007237,-0.010271,-0.023367,-0.048688,-0.020055,-0.031216,-0.031041,-0.007878,0.051298,-0.000814,-0.056953,0.031384,-0.056404,-0.033647,0.000071,-0.055524,-0.011993,0.008281,-0.010099,-0.019375,-0.015803,0.009963,-0.012902,-0.028082,0.074437,-0.015703,-0.027700,-0.054768,0.001339,0.025713,0.028150,0.036867,-0.001663,0.028543,0.041382,0.057086,-0.009473,-0.008147,0.034360,0.006944,-0.066902,-0.032414,-0.061655,-0.057016,-0.018331,-0.009166,-0.045912,-0.055785,-0.034581,-0.033895,-0.051077,-0.046341,0.015415,-0.067441,-0.008254,0.026028,-0.016886,0.081361,-0.084870,-0.058919,0.034755,-0.004893,-0.018335,0.047711,0.035101,0.039435,-0.080760,0.041666,0.055637,0.062642,0.040436,-0.003232,-0.041732,0.029716,0.032293,0.003359,0.032681,0.018896,-0.041396,-0.049373,0.035185,-0.051521,0.025202,-0.040365,-0.032828,-0.055558,0.012777,-0.016588,0.003214,-0.015312,-0.032196,-0.063224,0.010591,-0.058994,-0.031401,-0.020402,-0.060515,-0.052959,-0.054622,0.005663,-0.013056,0.013666,0.030381,-0.041751,-0.021600,0.024061,-0.030112,0.005761,0.041699,0.048516,0.022125,0.037469,-0.046466,-0.054164,0.048800,0.045054,-0.044285,-0.056000,-0.004419,-0.018097,-0.058798,0.026114,-0.007098,-0.063362,0.041334,-0.000500,-0.007318,-0.040504,-0.032106,0.010298,0.005535,0.006891,0.049075,-0.049755,0.012923,0.033395,-0.048113,-0.076455,0.007861,0.051831,0.045094,-0.066463,-0.038504,0.031137,0.022689,-0.018088,-0.032604,-0.001462,-0.025117,0.024585,-0.037058,-0.034386,-0.045265,0.016538,0.041676,0.049048,0.015462,0.047353,0.048077,-0.069755,-0.065196,-0.019559,0.004335,-0.030480,-0.051655,-0.057618,-0.041170,-0.083740,-0.027060,0.039656,-0.007968,-0.037984,-0.007714,-0.000575,0.012352,0.063191,0.009879,0.063270,0.072475,0.005153,0.049110,-0.011537,0.023090,0.000118,-0.045335,-0.035249,0.014622,0.028616,0.031125,0.010001,0.020721,0.065311,-0.030385,-0.059987,0.057996,0.023104,0.038700,-0.072871,-0.020613,0.014129,-0.028174,0.035529,-0.038681,-0.055736,-0.009918,-0.002108,-0.014135,0.040151,0.050400,-0.027383,-0.011922,0.089859,-0.072149,-0.070037,0.066360,0.066706,0.005558,-0.093759,-0.066111,-0.023497,0.037285,0.021476,-0.028264,0.019477,0.017891,-0.028804,0.026865,-0.086775,0.044907,-0.036133,-0.004060,0.061840,0.017879,0.093295,0.049542,-0.037660,-0.016177,0.052644,-0.073447,-0.068689,-0.086738,-0.072653,-0.043292,-0.026686,0.015411,-0.018979,-0.003675,0.052899,0.038432,-0.025891,0.037244,-0.047622,-0.023492,-0.047238,-0.043252,0.017833,-0.024105,-0.011866,0.004521
-0.021123,0.052272,0.080515,-0.036116,-0.052235,0.021081,0.039263,0.036165,0.050602,-0.047717,-0.054640,-0.025977,0.031200,0.076229,0.034913,0.028815,-0.031032,0.026857,0.085833,-0.011932,0.022519,-0.044076,-0.060223,0.006197,-0.052489,0.042238,0.013354,-0.039337,-0.047900,0.038876,-0.039146,-0.059470,-0.041319,-0.039774,-0.011181,0.030736,-0.028048,-0.013501,-0.013011,0.025162,-0.011488,-0.007772,-0.059984,-0.023692,-0.058195,0.030611,-0.010042,-0.050354,0.034153,-0.036526,-0.026058,-0.011964,-0.002638,-0.006822,-0.007146,0.046446,-0.030910,-0.000025,-0.042982,0.034473,-0.029747,0.000867,0.009386,0.039664,0.017883,-0.019298,-0.052483,0.078010,-0.016351,-0.032897,-0.017939,-0.046581,-0.048312,0.019885,0.061243,0.013553,0.038913,0.046806,-0.006168,-0.037963,0.047164,0.003125,0.026730,-0.069494,-0.066725,0.023510,0.014181,-0.019653,-0.036458,0.003769,-0.031789,-0.024508,-0.010697,0.062965,0.039845,0.049522,-0.004383,-0.007377,-0.047534,-0.008973,0.010538,-0.008427,-0.035042,0.065830,0.029449,0.005554,0.012373,0.036279,0.026894,-0.000735,-0.022081,0.009225,-0.002531,0.052424,0.005560,0.006313,0.022928,0.079781,-0.013017,0.040633,-0.014391,-0.001093,-0.028258,0.023700,-0.008844,-0.031053,0.003869,-0.025906,-0.005185,0.040285,0.050955,-0.041548,-0.051059,-0.005109,-0.029815,0.077426,-0.015107,-0.059057,0.038725,-0.001571,0.001334,0.079549,0.043034,-0.058881,-0.014427,0.015463,-0.016654,0.107889,-0.004019,0.048640,-0.052730,0.029903,0.033093,-0.022081,-0.000236,-0.004279,0.049311,-0.020629,0.015462,-0.024781,0.044559,0.021070,-0.043073,-0.041058,-0.066592,0.021029,0.010429,0.031983,0.011716,0.006179,-0.025988,-0.068533,-0.071507,-0.008631,-0.072676,0.012540,-0.015590,0.008683,-0.061747,-0.009892,0.050593,0.022418,-0.018772,-0.057275,-0.011663,0.004878,0.045942,0.065599,-0.016854,-0.014697,-0.052500,0.000475,0.070616,0.021299,0.015916,0.023745,-0.060751,-0.024879,0.034355,0.016046,0.021276,-0.011151,0.022063,-0.026366,-0.046820,0.025280,0.032712,0.026150,-0.050848,-0.008802,0.007710,0.051386,0.005156,0.027763,0.024953,0.022099,0.046578,-0.014550,0.047571,-0.002184,0.090847,0.123993,0.065111,0.005323,0.013468,-0.014678,0.025426,0.032239,0.033506,-0.017054,0.020348,0.010568,0.037778,-0.044301,0.033899,-0.036817,0.018121,0.022287,0.047325,0.044498,0.022586,-0.016791,-0.026830,-0.036443,0.003202,0.043535,0.057264,0.015699,-0.019542,-0.035441,0.015061,0.031810,-0.024143,-0.039812,-0.021722,0.045935,0.031378,0.007448,0.043196,0.034185,-0.014418,0.049419,0.057404,0.041655,-0.011108,0.027359,-0.030889,-0.002280,-0.060044,0.021814,-0.046545,-0.022732,-0.022588,0.014308,-0.028927,0.006540,0.001248,-0.046203,0.000798,-0.036623,0.007161,-0.001554,-0.051517,0.012209,-0.006989,0.036198,0.006376,-0.013264,0.042313,-0.041309,0.034969,0.017883,-0.046789,-0.012354,0.001449,-0.092478,0.038026,0.029910,0.017708,-0.034545,-0.008017,0.041883,-0.024766,-0.000298,-0.054092,-0.029939,0.089797,-0.007075,-0.035953,-0.033314,0.008559,0.074567,0.032340,0.040473,0.024323,-0.054481,-0.020707,0.052898,0.088998,0.060501,-0.006935,-0.020385,0.011721,0.013369,-0.044519,0.034451,0.016713,0.039746,0.025494,-0.052171,-0.022067,0.024915,0.046541,-0.059443,0.007744,-0.028718,-0.013170,-0.000477,0.035203,-0.000925,-0.002118,-0.000146,0.004544,-0.023478,-0.033470,0.032109,-0.038791,0.029758,0.050562,-0.021773,-0.001595,0.024920,0.005117,-0.006883,-0.005172,0.005999,0.023752,-0.044117,-0.037036,0.055849,0.009461,-0.006562,-0.021869,0.013300,0.019642,0.048574,0.047725,0.001556,-0.044503,-0.027974,-0.032638,0.047533,-0.005914,0.048067,0.029437,-0.040387,-0.034854,-0.006526,0.050357,0.018701,-0.001203,0.032580,-0.034625,0.002476,-0.009585,-0.014695,0.018299,0.010951,0.045086,0.052404,-0.007732,0.051808,0.038574,0.075610,-0.004084,-0.033075,0.002007,0.075456,0.005995,-0.009856,-0.040502,0.025253,-0.011114,0.031241,0.104859,-0.024357,-0.026344,-0.014728,0.027263,0.027918,-0.042281,0.033284,0.032228,-0.034873,0.011771,-0.001406,0.069176,-0.004296,-0.049277,0.021850,0.032585,0.011032,-0.007553,0.003102,0.057143,-0.050026,0.008074,0.049151,-0.003071,0.074238,0.045473,-0.032744,0.006707,0.007148,0.019964,-0.041334,-0.001112,0.024862,-0.007459,0.024322,-0.040751,0.039292,-0.037932,0.011394,0.010080,-0.060686,-0.045667,-0.009872,0.023364,0.016727,0.020842,-0.012161,0.037136,-0.054753,-0.017845,-0.031484,0.061242,-0.053936,-0.014363,0.068832,0.004983,0.047977,0.000507,-0.058820,0.041164,-0.028260,-0.027785,-0.052361,-0.054687,-0.035492,-0.012009,-0.081977,-0.042342,-0.064111,-0.009371,0.072733,0.051272,0.028442,-0.017544,-0.006081,0.039431,0.022713,0.057547,-0.029120,0.026715,0.007233,0.022278,0.084420,-0.045482,-0.046388,0.021779,0.049487,-0.032869,-0.015219,-0.017923,-0.058150,-0.065065,0.021267,0.034985,-0.022210
-0.022005,0.043607,0.017598,-0.073069,-0.060671,0.040926,0.057972,-0.046392,0.003162,-0.046339,0.000262,-0.044675,-0.049425,0.010719,0.003705,0.029365,-0.032694,0.026009,0.025533,-0.033137,0.023363,0.058493,0.066666,-0.003404,-0.026171,-0.052079,-0.033080,0.024805,-0.046269,-0.010329,-0.048904,0.013335,0.093427,-0.017159,0.018426,-0.031918,-0.059659,0.030765,-0.034283,-0.069240,0.029502,0.032278,-0.004531,0.036804,-0.004209,0.026237,-0.025009,-0.056954,-0.038449,-0.038601,-0.048133,-0.004887,0.026188,-0.074639,-0.032013,0.082579,0.039875,0.035430,0.021185,0.037459,-0.027929,0.019266,0.061249,-0.008829,-0.052343,-0.049534,-0.034660,-0.047859,-0.048895,0.045575,-0.052024,-0.026968,0.051281,0.036952,0.046319,0.017104,-0.005050,-0.008694,-0.011445,-0.022146,-0.071964,-0.063597,-0.024718,-0.054343,-0.041310,0.004387,0.006496,-0.057661,-0.003011,-0.009615,0.002943,0.015553,0.040004,0.017331,0.018015,0.001962,-0.049511,0.025481,0.001823,0.024553,0.030695,0.008466,0.016267,-0.059415,-0.019984,0.006878,0.040588,-0.021211,-0.020337,0.018491,0.057663,0.046037,-0.015949,-0.043467,0.026104,0.035874,-0.047666,0.029206,0.004126,-0.005095,0.011118,-0.025668,-0.058367,-0.016587,-0.003978,0.018924,-0.012352,-0.041624,-0.029123,0.040866,0.025334,0.032289,-0.035863,-0.006247,0.049424,-0.009168,0.062809,0.061831,0.023609,0.036434,-0.043300,-0.034559,0.022764,0.040145,0.019946,0.038531,0.020699,-0.002718,-0.016358,0.050353,-0.069148,-0.001825,0.059141,0.047633,-0.025147,-0.035838,0.030910,-0.017868,0.008320,-0.040614,-0.053779,-0.050090,0.045960,0.036893,-0.033693,0.037632,0.046109,-0.033260,-0.023869,0.006805,0.012163,0.048191,-0.026894,-0.014788,-0.039199,-0.002922,0.000543,-0.023714,-0.071253,0.003822,-0.003831,0.064016,0.065286,-0.031355,0.049080,-0.040680,-0.011730,0.034469,0.008394,0.004766,-0.035330,-0.039138,0.022976,-0.047578,-0.025253,-0.051891,-0.054598,-0.026582,0.021233,0.027819,-0.000086,-0.020540,-0.009217,0.049926,-0.002185,-0.045533,-0.019688,0.016237,-0.073348,0.045189,0.057867,0.049271,-0.060323,0.041043,0.011595,0.042761,-0.014025,-0.025762,-0.009436,-0.001730,-0.052321,-0.071447,0.014914,-0.020067,-0.000907,-0.062012,-0.025213,-0.032688,0.030898,-0.015642,0.007308,-0.037984,-0.003305,0.045109,0.027583,-0.007538,-0.007187,0.013874,0.040674,0.042392,-0.019848,-0.019309,-0.019091,-0.009695,-0.030773,-0.030911,0.054296,0.030516,-0.047927,0.012768,-0.001286,-0.007436,0.022325,-0.056320,0.014089,-0.012697,-0.035433,0.044820,-0.018216,0.051753,-0.013978,0.037126,0.002993,0.041607,0.023691,0.044025,-0.028817,0.000686,0.046362,-0.002944,-0.019975,0.053592,0.050828,0.014678,0.045350,0.002128,-0.053337,0.040085,0.038831,-0.035726,-0.046503,-0.037070,-0.047890,-0.011250,-0.055872,-0.055758,-0.005670,-0.015954,0.036883,-0.052039,-0.045149,0.058692,0.020168,0.023187,-0.027493,0.003957,0.091185,0.077754,-0.039617,-0.035671,0.029172,-0.033312,0.010547,0.057676,-0.032336,-0.028369,0.052143,0.057455,-0.001841,0.006757,0.038769,0.017395,-0.067081,-0.025212,-0.033969,-0.005806,0.029332,0.054385,0.024955,0.018118,-0.000957,-0.011454,0.007780,-0.034368,-0.008535,0.012787,-0.017162,0.046191,-0.041871,0.011557,0.046948,-0.005376,-0.004198,-0.001951,-0.061614,-0.044183,-0.041209,-0.005023,0.027282,-0.058198,0.001470,-0.006933,-0.023712,0.045067,0.043088,-0.047931,-0.017138,-0.036997,-0.008180,0.039356,-0.058444,0.026600,-0.031250,-0.031788,0.008713,0.030249,-0.037892,0.004688,-0.016850,-0.042234,-0.024948,-0.024801,-0.036322,0.007920,0.054566,-0.018035,0.024178,0.007823,0.011784,-0.031876,0.017919,0.055551,-0.002311,-0.032540,-0.041048,-0.031415,-0.005186,0.006851,0.027192,-0.035375,-0.017238,-0.053205,-0.009979,-0.048217,-0.020248,0.004221,0.008245,0.000927,-0.023042,-0.027880,-0.028876,0.015103,-0.027778,-0.024433,-0.020620,0.009766,-0.032662,0.043519,0.019857,0.032435,-0.054090,-0.059056,-0.013096,0.012022,-0.015085,0.028152,0.057650,0.012745,0.005618,-0.011111,0.043172,-0.008070,0.004889,0.070954,0.067358,-0.041675,-0.031564,0.004461,0.045200,0.025649,-0.071107,0.019294,0.056051,0.024867,0.001946,0.006978,-0.013345,0.003078,-0.010615,0.037956,0.005164,-0.043515,-0.049623,0.022998,0.001817,0.034317,-0.043780,0.001089,0.047835,-0.008592,0.014266,0.011478,0.013830,-0.019322,0.012539,-0.019014,-0.027161,0.063993,-0.025397,0.036746,-0.041693,-0.017540,0.026839,-0.084846,0.071397,-0.008539,-0.013767,-0.033432,-0.070544,0.001493,-0.019596,-0.001877,-0.007473,0.015606,0.071950,-0.061037,-0.037416,-0.011349,-0.035730,-0.033436,-0.045252,-0.046584,0.054029,0.019929,0.018684,0.005515,-0.025433,-0.053288,-0.025695,0.003105,0.035284,-0.011384,0.044711,-0.060066,0.006198,0.030641,-0.030689,0.016348,0.019176,-0.010318,-0.007043,0.035736,0.012455,-0.024094,0.041779,0.030049,0.067608,-0.036097,-0.048019,0.006816
-0.023109,-0.000941,0.071187,0.079741,0.011322,-0.012393,0.017498,0.013902,0.013552,-0.000597,0.053726,-0.029176,-0.052455,0.054886,0.018424,-0.036626,-0.021968,-0.053400,-0.064421,-0.013248,0.004616,0.001151,0.012360,0.019087,-0.051191,0.014989,-0.047743,-0.006280,0.064619,-0.002641,0.016004,-0.030733,-0.037024,-0.017071,0.034194,0.086693,-0.001252,-0.008727,0.008261,0.043967,0.045447,-0.017405,-0.043906,-0.091265,0.006160,0.022733,0.017002,0.019470,-0.010902,0.036921,-0.050542,0.011040,0.028684,0.021589,-0.011402,-0.050410,0.046662,0.039210,0.049028,0.011420,0.022844,-0.028648,0.040440,0.054019,0.015875,0.019117,0.003995,0.042508,0.026811,0.074899,-0.049024,-0.004377,-0.039174,0.041788,0.026541,0.022389,-0.013156,0.003241,0.015438,-0.034772,-0.047175,0.039406,0.022501,-0.037947,0.031137,-0.073574,-0.025966,-0.033548,-0.010321,-0.019625,0.027581,-0.069670,0.025734,-0.003641,0.000295,-0.046829,-0.003093,0.013198,-0.037195,-0.029185,0.014403,-0.020060,0.063850,-0.002072,-0.020925,-0.043951,-0.054903,0.044899,-0.027311,0.058843,-0.028545,-0.013787,-0.023575,-0.024261,-0.024874,-0.023970,-0.075874,-0.041615,-0.056772,0.043464,0.032609,-0.023924,-0.053070,-0.011348,0.046653,-0.028573,0.031532,-0.035674,0.010319,-0.017729,-0.016599,0.031882,-0.067925,-0.051079,-0.044018,0.023186,0.022369,0.041628,-0.037400,-0.006949,-0.000111,0.031510,0.079184,-0.019757,0.044233,0.028310,-0.042132,0.043697,-0.014346,-0.045453,-0.017101,-0.054462,0.036295,-0.052270,0.023381,0.035437,-0.039177,-0.050072,-0.060924,-0.068174,-0.022626,0.075699,-0.010449,0.033790,0.006537,0.019079,-0.010750,-0.029445,-0.033193,0.008435,-0.045722,-0.011276,0.019366,0.012210,0.008313,0.006883,0.013364,-0.034749,-0.044977,0.028113,-0.042397,-0.018126,0.021286,-0.005144,0.025120,-0.070650,0.009594,0.080707,0.001129,-0.012344,-0.052570,-0.013760,0.018559,-0.019734,0.023457,-0.036377,0.021009,-0.019713,0.050916,0.001647,0.021009,-0.082653,-0.001396,0.037295,0.018520,0.018142,-0.055872,-0.052061,0.047350,0.002776,0.010069,-0.057727,-0.005975,-0.030642,-0.028788,-0.016111,0.076494,0.107059,0.011512,-0.037201,-0.000742,0.058656,-0.001140,0.003197,-0.016679,-0.045717,0.009889,0.021297,-0.001798,-0.023684,0.025953,-0.028636,-0.006226,0.029194,-0.034738,-0.002305,-0.009167,0.039487,-0.031969,-0.017780,0.007013,-0.023059,0.055026,-0.002562,0.028986,0.027785,-0.032462,0.018700,0.032974,0.041698,0.022754,-0.048160,0.041555,-0.008049,0.000787,-0.020921,-0.040318,0.048880,-0.054015,-0.047863,-0.024406,0.059225,0.049284,0.001664,-0.052629,0.020507,-0.023432,0.040421,0.004071,-0.019317,-0.019044,-0.037683,-0.038505,-0.020756,0.013822,0.013830,0.080291,-0.018908,-0.024364,0.030572,0.052335,0.010033,-0.016280,0.023163,0.014561,0.044483,0.027954,0.025264,-0.056348,-0.084674,-0.051252,0.045064,0.065512,-0.007126,-0.033187,0.011813,-0.027311,-0.010185,0.026581,-0.027893,-0.008399,0.043750,0.012561,0.037519,0.024286,0.024069,-0.009676,-0.003922,0.062088,0.005393,0.013522,0.048804,-0.040612,0.012128,-0.016583,-0.021393,-0.014540,-0.023158,-0.055952,-0.054489,-0.008229,0.041503,-0.017004,0.005945,-0.061422,-0.004527,0.032250,-0.040940,-0.027964,0.021605,-0.015229,-0.023479,-0.010136,-0.017652,0.037278,0.067747,0.033108,0.035800,-0.012113,-0.064603,0.052071,0.045451,0.067201,-0.025488,-0.055979,-0.018767,-0.036579,-0.052413,-0.031548,-0.059431,0.041593,0.057084,0.016428,0.010050,0.004993,-0.004428,0.030960,-0.017392,-0.011466,-0.013147,-0.042592,0.011522,-0.022469,-0.055348,0.027184,-0.030688,0.024122,0.039759,0.048549,-0.029625,0.018728,-0.052549,-0.020469,0.042407,0.026448,0.026183,-0.006694,-0.038081,0.009402,0.051800,0.024384,0.022038,-0.056333,-0.020741,0.024523,0.054682,0.023187,-0.015776,0.045972,-0.066004,0.005555,-0.038733,0.070009,0.057049,0.007296,-0.019979,-0.023847,-0.001052,-0.031347,-0.071037,0.006191,0.006668,0.011589,-0.031344,-0.012723,-0.082986,0.050329,0.001199,0.005282,-0.027703,-0.017860,-0.002595,0.070578,0.064115,0.055795,0.033815,0.041188,0.049004,0.068524,0.056276,-0.049577,-0.023369,-0.006954,-0.051899,-0.039584,0.029686,0.016832,0.037245,0.032195,0.025517,-0.053117,0.075596,0.037672,0.017688,-0.010256,-0.079290,-0.000223,0.004136,-0.001901,0.021671,-0.002414,-0.035856,-0.054052,0.022949,0.037650,-0.056346,0.000599,-0.040541,-0.052624,-0.046336,-0.014031,0.035904,0.047825,-0.058829,-0.033527,-0.093907,0.054936,0.090614,-0.007784,-0.018954,-0.052995,-0.058927,-0.015272,-0.071226,-0.014378,-0.069799,-0.023915,-0.023046,-0.028547,-0.015185,-0.091845,0.030164,-0.038858,-0.039770,-0.051055,0.025026,0.054426,0.034660,0.000619,0.007396,0.011143,-0.006288,-0.028227,0.049529,-0.023080,0.013881,0.007295,-0.049532,0.032330,0.011360,-0.016145,-0.031371,-0.053646,0.009057,0.018687,-0.052158,-0.009818,0.040415,0.019433,0.002692
-0.043558,0.045802,-0.015583,-0.020969,-0.008344,-0.047995,-0.072959,-0.028446,-0.045853,-0.059780,-0.045094,-0.063277,-0.056940,-0.053836,-0.020580,0.071529,0.021498,0.013716,-0.002336,-0.003426,0.026911,0.072696,0.064826,0.033300,0.004656,-0.086886,-0.031004,0.014707,-0.024998,0.003070,-0.060197,-0.052045,0.053445,0.060395,-0.005662,0.022147,-0.063478,0.003097,0.038095,-0.003746,0.081345,0.057855,-0.049900,-0.024063,0.000192,0.032517,0.071119,0.019843,-0.026023,0.063341,0.081697,0.074705,0.057321,-0.035362,0.014924,-0.031390,0.083043,-0.007799,0.015331,-0.020181,-0.043149,-0.011155,0.032911,-0.013211,-0.062459,0.050537,0.013610,-0.061864,-0.037271,0.038186,0.043803,-0.052414,0.016697,-0.056454,-0.024984,-0.041319,-0.018823,0.044175,-0.030422,-0.061015,-0.082797,-0.048096,0.016548,-0.038752,0.034751,-0.001185,-0.071590,-0.021923,0.002117,0.006362,0.027804,0.012570,-0.039698,-0.030859,-0.029712,-0.000754,-0.010906,0.001981,0.023231,-0.079403,-0.016072,0.051346,0.037099,0.023673,0.018760,-0.011307,0.025869,-0.028446,0.022612,0.029366,-0.046683,-0.070164,0.006787,-0.048117,0.006825,-0.005347,0.020129,0.021763,-0.032075,-0.011622,0.021629,-0.013734,0.010933,-0.018470,-0.034174,-0.015607,0.009265,0.020664,-0.026584,0.011593,0.104955,0.077668,-0.066675,-0.020095,-0.010814,-0.031260,0.099183,0.068717,0.021628,-0.046221,-0.023075,-0.027092,-0.031722,0.044235,-0.002273,0.031172,-0.001843,0.027964,-0.018675,-0.035273,0.000342,0.015162,-0.038047,0.020437,0.010818,0.001758,-0.023070,-0.041888,-0.013136,-0.044946,-0.007640,-0.014152,-0.018398,-0.004563,0.020132,-0.026274,-0.048092,0.011489,-0.005244,0.026712,-0.008006,-0.014787,-0.001236,-0.010265,-0.051107,0.082216,0.049193,-0.019146,-0.023468,0.003678,-0.023445,0.001835,0.073413,-0.004084,-0.060850,-0.046941,-0.088677,0.025362,0.051022,-0.012431,-0.004906,-0.055818,-0.038274,-0.018688,-0.050979,0.028432,0.034289,-0.068991,-0.083577,-0.060805,-0.022658,-0.046148,0.036506,0.016240,0.012080,0.057576,-0.036259,-0.089028,-0.000505,0.027207,0.036155,-0.003601,-0.041527,-0.056517,0.015040,0.047947,-0.005633,0.020882,0.010821,0.026600,0.019043,-0.003102,-0.048302,0.019210,0.018906,-0.065635,-0.069054,-0.027126,-0.000351,0.025182,-0.025218,0.002534,-0.029523,-0.037192,0.005061,0.060036,-0.003844,-0.010797,-0.010660,0.023083,0.023783,-0.039002,0.022114,0.012188,0.010553,-0.021980,-0.007312,-0.006668,-0.049829,-0.037696,-0.028788,0.000433,-0.050180,-0.005663,-0.007327,0.013181,0.005841,-0.025253,-0.004934,0.029069,-0.053604,0.070571,0.063520,0.020573,-0.037605,-0.014201,-0.015762,-0.046385,0.048126,0.047506,0.008774,-0.066311,-0.013707,0.043245,0.001798,-0.021176,-0.040174,-0.007364,-0.006920,0.023172,0.029212,0.021577,-0.051502,-0.000371,0.039968,0.021180,0.104338,0.073524,0.004728,0.035334,-0.084757,0.079751,0.024255,0.006476,-0.022746,-0.006616,0.015753,0.013013,-0.019987,-0.033084,-0.006453,-0.054512,0.009697,-0.000506,-0.034526,-0.012902,-0.019988,0.018033,0.044025,0.047731,0.042925,0.015761,-0.074126,-0.060498,0.013453,0.068608,0.028937,-0.010282,0.020699,-0.042530,-0.025937,-0.029014,0.039525,-0.038125,0.036202,0.055578,0.009477,-0.019243,-0.001811,-0.010641,0.067212,-0.004830,-0.063989,-0.003505,0.000557,0.033555,0.052414,0.029898,-0.009486,0.013469,0.010012,0.037444,-0.057039,-0.041528,-0.028646,-0.003524,-0.018404,0.012115,-0.030808,-0.044067,-0.063582,-0.036578,0.009803,0.003810,-0.006242,-0.033906,0.038470,-0.037885,-0.001830,-0.054990,0.001701,-0.007773,-0.015766,-0.031160,0.033603,-0.072221,-0.050496,0.013867,0.044289,0.032620,0.045358,-0.004863,0.062173,-0.021053,-0.026565,0.023695,-0.097626,-0.029497,-0.053430,0.033262,0.082769,-0.014842,-0.091840,-0.035873,-0.049961,-0.025920,0.056703,0.038595,-0.057429,-0.029443,-0.025860,-0.024593,0.038314,-0.070845,-0.037298,0.003472,-0.006938,0.036912,-0.021053,-0.054667,0.081419,0.092209,-0.004101,-0.003492,-0.011253,0.043573,0.111317,0.063743,-0.002415,-0.031427,-0.075194,0.007042,0.108666,0.043124,0.011955,-0.035871,-0.073835,0.021776,0.088308,-0.016012,-0.006735,0.003989,-0.073743,-0.003081,-0.061296,0.001011,0.031430,-0.000650,-0.070612,-0.034044,0.008847,0.001979,-0.046974,-0.047618,0.003698,-0.048952,0.022325,0.043429,0.035017,-0.064155,-0.008061,-0.024484,0.037897,0.075741,0.014980,0.011045,-0.048853,-0.031413,0.077508,-0.003343,0.015563,0.078116,0.048877,-0.062826,-0.055514,-0.071287,-0.008425,0.054040,-0.020913,0.005765,-0.056390,-0.081320,0.019731,0.057985,-0.039652,-0.013972,0.012901,-0.016436,0.093340,0.041361,-0.005522,0.031182,-0.050145,0.082327,-0.020107,-0.024490,0.007501,-0.039345,0.034259,0.006048,0.039313,-0.063521,-0.045583,-0.058511,-0.025732,-0.003803,-0.036789,-0.028448,-0.028424,0.014541,-0.005351,-0.056239,0.043544,0.007771,0.031630,0.062666,0.028229,-0.029945,-0.039965,-0.024495
0.051146,-0.040958,-0.018499,-0.028423,-0.046728,0.017050,-0.020540,0.063291,0.045470,-0.016915,-0.060240,-0.075126,-0.057111,-0.056019,-0.023028,0.010593,0.003420,-0.059652,-0.019880,-0.066437,-0.027619,0.051502,0.002639,0.037335,0.010767,-0.037088,0.031105,-0.009321,0.038545,-0.035898,0.002358,0.008686,0.002966,0.050226,-0.025201,0.006135,-0.010403,-0.112676,-0.100030,0.011130,0.002473,0.071765,0.040354,-0.070987,-0.024770,0.060186,-0.010214,0.034607,-0.046896,-0.014314,0.024941,0.035623,0.055608,0.057518,-0.003269,-0.029084,0.091636,0.116176,0.106216,0.010908,0.002748,-0.090670,-0.021968,0.076216,-0.036573,0.022224,-0.015722,-0.016039,-0.003231,0.008459,0.037126,-0.045677,-0.031830,-0.090881,-0.047123,-0.033783,-0.059687,-0.042809,-0.038268,-0.106516,-0.016906,-0.018769,-0.054568,-0.080494,-0.043613,0.038602,0.022215,-0.025714,-0.040526,0.022023,0.018240,0.052662,0.020789,-0.054886,-0.057695,-0.043827,0.021502,-0.020696,0.055348,-0.040166,0.018972,-0.023307,0.028611,0.050507,-0.024682,0.013583,0.076060,0.020520,0.078851,0.029425,-0.074089,0.030499,0.003997,-0.050102,-0.006185,0.017850,-0.039451,0.001367,-0.067901,-0.031853,0.059192,0.026607,0.032854,0.019711,0.022198,-0.026117,0.006561,0.006352,-0.060353,-0.000136,0.003188,0.033294,-0.048494,0.029409,0.007784,0.011434,0.111250,0.119418,0.022198,-0.025198,-0.031753,0.034013,-0.002499,0.062944,0.053331,-0.033677,0.008821,0.037293,-0.000719,0.016220,0.013470,-0.064842,-0.110758,-0.071020,-0.064185,0.075175,0.066032,0.039563,-0.004996,0.004693,-0.028272,0.018932,0.015842,0.022159,0.043717,-0.029157,-0.052145,0.014951,0.064892,-0.067340,0.013539,-0.017714,0.023783,0.042573,0.009760,0.020359,-0.004016,0.073720,0.020696,-0.035402,-0.038049,0.091721,0.113711,0.095878,-0.020403,-0.058124,-0.064492,-0.043496,0.051865,0.036089,0.033335,-0.023223,-0.052227,0.014065,-0.036383,0.013548,0.012517,-0.016219,-0.004474,-0.053643,0.015838,-0.035459,0.013577,0.079676,0.050258,0.012856,0.006738,-0.079689,-0.062632,0.051005,0.088154,0.138344,-0.019217,0.002846,-0.071909,0.059394,0.133791,0.045862,0.026861,-0.013654,-0.017586,0.065584,0.036666,0.004427,0.015466,0.015343,0.014540,-0.019883,-0.042711,-0.028197,0.008536,0.030844,-0.018035,0.019977,0.022984,0.036196,0.063008,0.019506,-0.031080,-0.010127,0.033674,0.052072,-0.030808,-0.017797,-0.024429,0.004263,-0.000249,0.055634,0.023650,0.035390,0.034381,-0.011042,-0.084888,-0.035298,-0.049210,0.005100,0.046258,-0.006563,0.008067,-0.024447,0.017364,-0.005610,0.055317,0.045985,-0.063312,-0.005430,0.004101,-0.028457,-0.009926,-0.014485,0.023389,0.012413,-0.056217,0.008775,0.007273,-0.012619,0.006292,-0.108394,-0.097834,-0.004750,0.038438,-0.051445,-0.091860,-0.111370,-0.026752,0.060096,0.066881,0.043019,-0.018551,-0.021695,0.009628,0.019124,0.110743,0.029902,0.026686,-0.036871,-0.051445,-0.043593,0.031606,-0.024413,0.059371,-0.011456,0.010608,-0.036539,0.009183,-0.006424,-0.020528,0.004817,0.006406,-0.007127,0.057035,-0.022563,-0.006141,-0.043941,-0.008578,-0.019360,0.039895,-0.032730,-0.067678,-0.017353,-0.041523,-0.002900,0.056047,0.009311,0.004856,0.015250,-0.067169,-0.020573,-0.044175,-0.031544,0.043106,0.085850,-0.029927,-0.005980,-0.020950,-0.038032,0.014638,0.080357,0.001987,0.021590,0.012995,-0.023986,0.040592,-0.048156,0.012634,-0.004565,0.005214,-0.024405,0.031494,-0.066205,-0.017007,0.052915,-0.051648,-0.058051,0.017577,0.049544,-0.049262,-0.023904,-0.006392,-0.004079,0.038999,0.021143,-0.011774,0.031106,0.013417,0.010420,-0.021532,-0.014100,0.015572,-0.009810,-0.030201,-0.016129,0.014935,-0.017860,0.023553,0.005070,-0.026202,-0.000850,-0.042607,-0.006211,0.000445,0.052359,0.004902,0.013359,0.009586,0.034826,0.110261,0.089311,0.003582,-0.089827,-0.022540,0.042261,0.052670,0.033936,-0.043683,0.006878,-0.001262,-0.038922,0.036327,-0.035248,-0.013399,-0.028584,0.019533,0.012370,-0.072230,0.028553,0.108240,0.088342,0.054774,-0.034958,-0.029715,-0.066390,0.063957,0.063651,0.080272,0.019602,0.021553,-0.083446,0.079079,0.017095,0.031754,-0.043171,0.001375,-0.000050,0.024221,-0.041645,-0.036086,-0.050919,-0.003351,-0.066846,0.025794,0.019204,0.017802,-0.065850,0.024422,-0.050010,-0.022289,-0.004584,-0.019760,-0.015290,-0.041385,-0.019485,-0.062622,0.020699,0.060046,-0.061448,-0.044655,-0.081010,-0.039504,0.050239,-0.004675,0.026478,-0.017736,-0.071746,-0.058054,-0.067764,-0.083288,-0.023714,-0.002567,-0.012609,0.000859,-0.034112,-0.016802,0.008341,0.047336,0.015144,-0.048687,-0.089440,-0.055115,-0.008484,-0.082229,-0.017618,-0.013308,-0.042390,0.031916,0.006507,0.068874,0.044995,0.012601,-0.055483,-0.021719,-0.016085,-0.036298,-0.005903,-0.004897,-0.020374,-0.010194,0.006982,-0.016365,-0.009978,-0.004168,-0.015582,-0.041304,0.041156,0.020899,-0.041804,-0.016398,0.003435,0.016628,-0.026188
0.013927,-0.004322,0.052899,-0.033891,0.018726,-0.064048,-0.036029,0.048496,-0.062189,0.025801,-0.027428,0.006134,0.006369,-0.067998,-0.026364,0.024430,-0.045921,-0.058018,0.013547,-0.052588,-0.007568,-0.077705,-0.044808,0.009554,0.005012,0.012068,0.027483,0.015449,-0.006422,0.027231,-0.015983,-0.023936,-0.058404,0.012979,-0.002272,0.066264,-0.056848,-0.001654,-0.030053,-0.045683,0.035602,-0.047028,-0.024810,-0.010159,-0.041872,0.079566,0.028347,-0.073356,-0.001715,-0.000431,-0.025095,-0.054441,0.000111,0.009989,-0.017384,-0.073788,-0.031716,-0.042252,0.068917,-0.048665,-0.070614,-0.030635,0.009928,-0.053924,-0.000009,-0.046516,-0.075629,0.060249,0.096283,-0.040235,-0.000434,-0.055841,-0.049597,0.007401,0.034908,-0.028802,0.025986,0.023379,0.006105,0.005791,0.013191,-0.038485,-0.056610,-0.059631,-0.062748,-0.038294,-0.000588,-0.011047,-0.031159,-0.009785,-0.071012,-0.078270,-0.034670,-0.033288,0.007086,-0.040723,-0.044381,0.000801,-0.020106,-0.032116,-0.000182,0.024465,0.042671,-0.041154,-0.016135,-0.049642,-0.061674,-0.036067,0.009148,0.025307,0.006824,0.023145,-0.074696,0.025004,0.002501,-0.022818,0.027409,0.041219,0.047369,0.059952,-0.039972,0.016970,-0.028731,0.017824,-0.032786,-0.021210,-0.002839,0.019421,-0.047607,-0.032082,-0.062323,-0.032746,-0.054742,0.001014,0.051409,0.040324,0.033954,-0.020893,-0.009995,-0.006057,-0.038733,0.040118,-0.028445,-0.028713,0.040089,-0.009758,0.101806,0.102174,0.079863,0.008466,0.019977,0.011190,-0.050820,-0.083527,-0.053686,-0.006229,0.006108,0.041410,0.039537,0.001987,-0.030679,0.066956,0.032725,-0.027235,0.015332,-0.014122,0.002564,0.057040,0.058183,0.019907,-0.058694,-0.030263,-0.001479,-0.024953,0.014052,0.016645,0.006541,0.002800,0.044569,0.029335,-0.079676,-0.039743,-0.015801,0.007620,-0.006338,-0.084438,-0.020215,0.003433,0.012731,0.007878,-0.086120,0.041219,0.066661,0.069355,0.003369,-0.064661,-0.046081,-0.059714,-0.042931,-0.000668,-0.045775,-0.056127,-0.000151,0.036784,-0.010806,-0.029344,-0.070681,-0.085660,-0.010696,0.009439,0.030379,-0.043214,0.035956,0.021237,0.013305,0.006477,-0.013171,-0.024585,-0.015537,-0.031677,0.023340,0.102800,0.093650,0.030054,-0.007109,-0.030893,-0.036861,-0.003777,0.003072,0.016503,-0.049135,-0.052015,0.041010,0.011273,0.014404,0.022473,0.058663,-0.012448,-0.045080,0.010758,-0.005258,-0.054902,-0.032773,-0.030971,-0.017617,0.024385,-0.025699,-0.028271,-0.000974,-0.034699,-0.037266,0.033310,-0.045391,-0.013494,0.013367,-0.038093,0.006897,0.042559,0.028423,-0.028502,0.045036,0.021008,-0.020809,0.053704,0.011028,0.045363,-0.008178,-0.023226,-0.010381,0.001556,-0.061890,-0.034879,-0.002361,0.011973,0.016194,-0.001408,0.016798,-0.051531,-0.096005,0.032844,-0.014119,0.101459,0.007206,-0.079162,-0.018834,0.068971,0.090942,-0.005176,0.029029,0.029436,0.031190,0.054031,0.013887,0.005152,-0.024038,0.009058,0.071860,-0.027543,0.011834,0.026119,-0.039319,-0.019327,-0.032783,-0.048419,-0.001153,-0.055856,0.030603,-0.029626,-0.033619,0.034077,0.012312,0.052596,0.048163,0.019824,-0.028288,-0.043727,0.013781,-0.001372,0.019647,0.030085,-0.035159,0.004643,-0.001508,-0.020554,-0.031088,-0.017213,-0.014942,-0.036744,-0.045666,-0.049228,0.036357,0.032888,-0.010540,0.010337,0.029528,-0.002473,-0.028792,0.002576,0.049171,0.021576,0.058459,0.018410,0.068078,-0.039685,-0.004007,-0.001717,0.002424,-0.028377,0.013535,0.044863,-0.050333,0.028150,0.057706,-0.021496,-0.011110,0.025364,0.052150,0.020835,-0.054032,0.029166,0.004905,0.027744,-0.005830,-0.039537,0.013542,-0.046199,-0.003483,0.018956,0.041759,0.015208,0.013933,0.002561,0.064052,-0.041768,-0.010801,0.048703,-0.050361,-0.012026,-0.056674,-0.041725,-0.036444,-0.032050,0.001836,-0.001442,0.031218,0.015334,0.051575,-0.055511,-0.049027,-0.024274,0.018843,0.027409,0.008117,0.031771,-0.035663,0.033559,0.027075,0.040663,0.027571,0.008030,0.032269,-0.033674,0.033200,0.016402,-0.024112,-0.039326,-0.038449,-0.037261,0.051332,0.000226,0.004839,-0.000201,-0.001922,0.048046,0.006437,-0.047759,0.018305,0.097100,-0.006708,0.022991,0.010991,-0.000568,0.069217,0.070692,-0.030905,0.034575,0.001635,-0.040678,-0.027364,-0.008998,0.024835,-0.012849,0.026108,-0.021474,-0.006393,-0.054297,-0.033198,0.029365,-0.044067,-0.036440,-0.070625,-0.003218,0.075878,0.006246,0.045895,-0.012791,-0.014062,0.061725,-0.038280,0.032851,-0.009583,-0.016445,0.061364,-0.027872,-0.067641,-0.032500,-0.027885,-0.004861,-0.024482,-0.063390,-0.077637,-0.051169,0.050511,0.001521,-0.048730,-0.098030,-0.007574,-0.001772,0.005152,0.009497,0.012402,-0.087640,-0.012539,0.021579,-0.035195,-0.015338,0.017666,-0.008151,-0.045783,0.029291,0.019493,-0.010468,-0.044515,-0.041184,-0.011117,0.009363,-0.012505,-0.010381,0.050924,0.056247,-0.022997,-0.045435,-0.041756,0.032296,0.003645,-0.063276,-0.058622,-0.058060,-0.057393,-0.018995
0.071780,-0.032056,0.005451,0.021714,0.053640,-0.058288,-0.013455,0.031753,0.028687,0.021499,0.009026,0.039851,-0.066588,-0.149480,-0.079989,-0.003569,-0.009865,-0.010417,0.013696,0.047855,-0.023398,0.046132,0.022297,-0.003269,-0.054228,0.031018,-0.056286,-0.071936,-0.058591,-0.012646,-0.072796,-0.038628,-0.025993,-0.083034,-0.073518,-0.046173,-0.066421,-0.094741,-0.102945,-0.075591,0.030683,-0.016951,0.028196,0.002679,0.016610,0.026061,0.038195,0.084850,0.038016,-0.055423,0.040263,0.012243,0.067164,0.064815,0.108622,0.031023,0.010234,0.057795,0.065689,-0.003271,0.008239,-0.068021,-0.053575,-0.097974,-0.061266,-0.050319,0.015186,0.024995,-0.028071,0.023136,0.004979,-0.017411,0.041115,-0.010784,-0.078855,-0.030577,-0.052454,-0.000496,-0.069941,-0.073134,-0.059009,-0.057962,-0.011059,0.037697,-0.015801,0.054659,0.046892,0.054747,0.090507,-0.067974,-0.040200,0.033606,-0.080316,0.001770,-0.049273,-0.097114,-0.055337,0.004317,-0.014973,-0.020556,0.034867,0.015250,0.040471,-0.014003,0.053994,-0.027184,0.003486,0.061871,0.047767,0.066397,-0.019041,-0.040914,-0.044361,0.027713,0.037611,0.012692,0.017424,0.024986,0.018257,0.002216,0.023938,0.018037,-0.018217,0.024159,-0.013614,0.000952,-0.067394,-0.061029,-0.014451,-0.023997,0.008287,0.026763,0.042794,0.041407,0.044400,0.080071,0.091922,0.056073,0.039060,-0.007796,-0.046173,-0.005582,-0.064088,-0.051891,-0.098869,-0.032483,-0.024538,-0.015175,-0.007955,-0.001956,-0.062480,-0.004767,0.066932,0.043637,-0.024025,0.025079,0.077549,0.132820,0.130125,0.099005,-0.033943,0.006008,-0.001618,-0.073827,-0.052977,-0.072969,-0.034225,-0.007589,-0.089673,0.023350,-0.069469,-0.008829,-0.017846,-0.022457,-0.089828,0.084337,0.081617,0.119493,0.170969,0.127368,0.052875,0.037387,0.009459,0.092887,0.014687,0.008387,-0.073560,-0.107318,0.031197,-0.063562,-0.013615,0.009042,0.032913,0.070615,0.006515,-0.052923,-0.012164,-0.003385,-0.003597,0.009118,-0.013859,-0.013209,-0.035269,0.014409,-0.017836,0.007955,-0.058413,0.060641,0.140139,0.015543,0.040078,0.148328,0.209749,0.248279,0.024390,0.068490,0.014836,0.019925,-0.039770,-0.021782,0.044261,-0.015310,0.014798,-0.019426,0.015485,-0.058608,-0.006759,-0.069487,-0.062466,0.041108,0.040137,0.042506,0.029284,0.006304,-0.004372,0.022027,0.058747,0.057983,0.027253,0.010046,-0.013456,-0.005360,0.011124,0.041737,0.002203,0.025779,-0.022658,0.019862,0.043274,-0.048999,-0.007596,0.021903,-0.077885,0.042383,-0.030374,-0.015636,0.012182,-0.028593,-0.002661,0.056967,-0.049818,0.012753,-0.055429,0.005863,0.044209,-0.019573,0.026730,-0.021402,-0.007848,-0.075697,-0.051718,-0.028092,-0.047150,0.003463,-0.065162,-0.030019,-0.057209,0.006061,-0.001072,-0.046740,-0.079911,-0.045485,-0.035671,-0.015308,-0.087345,-0.036346,0.025284,0.011369,0.040502,0.061753,-0.083533,-0.064811,-0.019641,0.055625,-0.019251,-0.048439,-0.066385,-0.066096,-0.026462,-0.055148,0.026831,0.042946,0.044284,0.042899,0.008024,-0.041947,-0.044234,0.025543,0.042245,-0.039738,0.028382,0.061613,0.054682,0.017089,0.010210,0.006054,-0.008881,-0.042946,0.010535,-0.002278,-0.053869,-0.032741,0.047926,0.028077,-0.023171,0.013631,-0.057051,-0.028403,-0.042406,0.020905,0.014651,0.054585,0.042400,0.054904,0.002007,0.000055,-0.004838,-0.034192,0.007306,0.051577,-0.012684,0.029928,0.039373,-0.056426,-0.027633,-0.058239,0.006190,0.021295,-0.009969,-0.046291,-0.040429,-0.070564,-0.063440,-0.012869,-0.034847,0.030052,0.033126,0.005251,-0.016016,-0.015095,0.024901,0.049699,0.069592,-0.009890,0.051037,0.016152,-0.017628,0.006294,-0.049708,-0.060683,0.000197,-0.016849,-0.060794,-0.036307,-0.004169,-0.054060,-0.050747,0.003580,-0.060777,0.059812,0.059195,0.060029,0.154010,0.161337,0.137206,0.065462,0.072276,0.120679,0.124175,-0.009134,0.009476,-0.024140,-0.123298,-0.089340,-0.046217,-0.088125,-0.036782,-0.051319,-0.015191,-0.028633,0.034323,0.017859,-0.047179,0.015588,0.058348,-0.024085,-0.042230,0.057125,0.042650,0.085394,-0.060638,-0.003624,-0.029025,-0.005778,-0.045672,0.023396,-0.015606,0.006657,-0.001195,-0.043084,-0.004060,-0.060367,0.010567,-0.059289,-0.079733,-0.060438,-0.058871,0.013199,-0.046009,0.006593,0.013396,-0.065060,0.005135,-0.033184,-0.009048,0.023842,0.018710,0.008166,-0.012029,0.001019,-0.029790,-0.035385,0.007450,0.000622,-0.044665,-0.031277,-0.078908,-0.039831,-0.069530,-0.053610,-0.098418,-0.104313,-0.045823,-0.026679,-0.018069,-0.045867,-0.051767,-0.055975,-0.022282,0.041462,0.018289,0.009120,-0.062848,-0.084314,-0.102114,-0.045853,-0.003396,-0.065435,-0.048296,-0.071018,-0.079689,-0.085039,-0.083502,-0.022302,-0.022796,-0.000575,0.035902,0.047432,0.152243,0.022609,-0.043149,0.026648,0.037230,-0.079831,-0.017231,0.001572,-0.084474,0.053233,0.102835,0.032261,-0.017897,0.024007,0.154399,0.058024,0.036088,-0.006408,0.054896,0.046377,-0.009479,-0.055828
0.011165,0.023822,-0.052032,0.014444,-0.066860,-0.031331,-0.055653,-0.042335,-0.014894,-0.047015,-0.010143,-0.103215,-0.085593,-0.093572,0.010683,-0.012282,-0.031324,-0.064047,-0.030206,-0.026712,-0.041659,-0.002710,-0.015260,0.016724,-0.010348,-0.022239,0.040787,0.042112,0.042503,0.030282,-0.031697,-0.055161,-0.052141,-0.054350,-0.039856,-0.070229,-0.055044,-0.044177,-0.064729,0.007545,-0.018680,-0.056233,0.027103,-0.021737,-0.014623,0.070894,0.020312,0.022720,0.057283,0.004296,0.039264,0.022661,-0.008630,-0.039775,0.027524,-0.044690,0.033469,-0.031662,-0.013049,-0.063037,-0.055942,0.005254,-0.027800,0.055442,0.033724,-0.019057,-0.015395,0.030229,-0.044634,0.034352,0.006344,0.015677,-0.047312,-0.030526,0.063206,-0.001993,0.003144,0.000506,0.030012,-0.048132,0.032732,-0.064993,-0.033183,0.039640,-0.028562,-0.074172,-0.051473,-0.081757,-0.048058,-0.022368,-0.038422,-0.026401,0.020318,-0.023211,-0.012041,0.012416,-0.007268,-0.045931,-0.033209,-0.078551,0.000058,0.018204,0.014423,0.009723,0.030564,0.032818,0.027227,-0.044999,0.006994,-0.013739,-0.002680,0.018127,-0.009469,0.036220,-0.027151,-0.028784,-0.026280,-0.062021,-0.027120,-0.073333,0.034495,-0.001033,-0.024713,-0.003729,0.039652,0.053016,0.024035,0.004324,-0.029110,-0.028050,0.005912,-0.031371,-0.033714,-0.018558,0.021523,0.048007,0.038644,0.065922,0.035366,-0.075063,0.024457,-0.010411,0.010934,0.097757,-0.017234,0.010056,-0.029152,0.057515,0.034911,-0.025735,0.037708,0.068883,0.030909,-0.009358,0.010596,0.002420,0.037719,0.056291,-0.067822,0.028080,-0.009001,0.036310,0.037990,-0.005855,0.000819,0.003021,-0.059165,0.029623,0.030549,-0.048138,-0.033149,-0.085349,-0.057469,-0.032391,-0.033764,0.018720,-0.025589,0.050028,-0.045851,0.036591,0.033273,0.021263,0.048959,-0.007501,0.021393,-0.054608,-0.027961,-0.050311,0.081359,-0.010876,-0.116525,-0.057481,-0.028026,-0.027557,-0.052752,0.035639,0.034971,-0.053347,-0.010556,-0.001205,-0.008413,-0.073346,0.006254,0.016241,-0.036893,-0.035529,-0.026956,-0.067383,0.035094,0.026762,-0.014164,-0.024381,-0.002447,-0.016462,-0.082254,0.020652,0.095071,0.034441,0.106169,0.085910,-0.026540,0.046642,0.016291,0.089261,0.020034,0.005488,0.039755,0.013508,-0.027344,-0.012806,-0.062222,-0.018492,0.027717,0.004892,0.051499,-0.040468,0.011042,-0.001089,0.024023,-0.018190,-0.061431,-0.007969,-0.013220,0.021674,-0.032505,0.030882,-0.050752,0.001916,-0.038935,-0.060701,0.015333,-0.040404,0.012603,0.026782,0.029756,0.056750,0.047977,0.014962,-0.028286,-0.031175,0.053058,-0.014418,0.053380,0.011937,0.009366,-0.014619,0.032249,-0.001496,-0.024596,-0.010292,-0.078616,-0.010406,-0.044721,-0.048469,0.020074,0.041073,-0.079163,-0.075952,0.002171,-0.016133,-0.013782,0.016401,-0.006027,-0.079634,-0.047110,0.009468,0.031052,0.002550,-0.047446,0.005106,-0.002895,0.042004,-0.008807,0.028704,-0.058722,0.020105,-0.042245,-0.009011,-0.033995,-0.017547,0.004284,0.032769,-0.014143,-0.000451,0.021655,-0.045499,-0.037919,-0.021214,-0.035827,-0.005214,0.032077,-0.058148,-0.020723,-0.051256,-0.062578,0.013136,-0.055712,0.011473,-0.058614,-0.000654,0.046492,0.051267,0.009941,-0.060266,-0.062506,0.003595,0.044694,-0.020085,-0.025613,0.027408,0.041070,0.018870,-0.060566,-0.048850,0.037814,0.012281,0.070132,0.031493,0.020704,0.007545,-0.037232,0.044168,0.051071,-0.018183,-0.005964,0.020785,-0.016433,0.001786,0.009923,-0.028063,0.048299,0.028661,0.006905,-0.010772,-0.004464,0.016388,-0.003016,-0.049323,-0.009331,-0.005448,-0.009213,0.045631,0.039769,-0.067374,0.015523,-0.046741,-0.007765,0.041969,0.009477,-0.054260,-0.055864,0.028722,-0.057035,-0.030498,-0.060747,-0.038247,-0.026755,-0.053853,-0.042722,0.001390,0.055191,0.044985,0.004424,-0.067702,-0.054444,0.025393,-0.014143,0.006850,0.008404,-0.000146,-0.025345,-0.015908,0.002709,0.092140,0.035261,-0.024930,-0.050539,0.015002,-0.042447,-0.042939,0.041979,0.019392,0.028757,0.011511,-0.018643,0.033705,0.056978,0.055688,0.031077,0.005081,0.026753,0.054161,0.054619,0.037711,-0.014557,-0.002758,-0.042108,-0.030677,0.040381,-0.015224,-0.056573,-0.085779,-0.033462,0.023347,-0.034788,0.064113,0.055663,-0.037944,0.009462,-0.046628,0.017377,-0.000759,-0.015388,0.023162,0.008213,-0.008404,0.008086,0.059744,-0.005002,0.013988,-0.068018,-0.014208,0.024020,-0.023739,-0.011820,-0.063084,0.013048,-0.041802,0.030634,-0.006265,-0.052759,0.072687,0.037441,-0.051703,-0.053905,-0.063011,0.068007,0.091162,-0.001108,-0.045127,0.011957,0.048844,0.017557,0.047974,0.012826,-0.078951,-0.002800,-0.021930,-0.057380,-0.053587,-0.020154,-0.082108,-0.063396,-0.015561,-0.001280,-0.048032,-0.053558,-0.045063,-0.054909,-0.004155,-0.034395,-0.001639,-0.045206,-0.036413,-0.070774,-0.063352,-0.022623,-0.000503,-0.008343,-0.035519,-0.084052,-0.027015,-0.058345,0.018336,-0.035506,0.023200,0.061553,0.023597,0.081950,0.058049
-0.038354,0.016693,-0.019498,0.037546,0.005610,0.007974,-0.010413,0.041736,-0.018683,-0.063593,-0.030422,0.003931,0.013026,-0.039839,0.000618,0.011307,0.051996,-0.090968,-0.109460,0.084251,-0.029581,-0.043802,-0.048506,-0.001335,0.035451,0.058234,-0.020979,-0.020379,-0.051484,0.111227,0.076860,0.078555,-0.112301,0.013255,0.075856,0.098979,0.020590,-0.138781,-0.043277,0.102551,-0.018359,-0.064964,-0.169387,0.028102,0.082638,-0.000247,-0.018161,-0.036484,0.052749,-0.015823,-0.039046,0.001002,-0.010393,-0.003209,0.001417,-0.030478,-0.033936,-0.034071,-0.006097,-0.080294,-0.004662,-0.027074,-0.093326,-0.041554,-0.030369,0.003877,-0.124899,-0.023888,0.068200,-0.024124,0.040838,-0.087415,-0.016957,0.015666,0.031583,-0.031214,-0.045384,-0.004514,0.017704,0.015617,0.034136,-0.040597,0.043039,0.028688,-0.101369,-0.026968,-0.044678,0.094590,-0.030551,-0.038657,-0.085781,0.080048,0.040235,-0.110778,-0.063141,0.025733,0.004110,-0.077224,-0.099594,0.040746,-0.033370,0.005234,-0.045282,0.030218,-0.003064,0.027242,0.020585,-0.007537,-0.000813,-0.032191,0.036715,-0.044440,-0.085072,-0.019814,-0.006318,0.043119,-0.006247,-0.086772,0.066164,0.026892,0.022311,-0.066078,-0.030399,0.040194,-0.022018,-0.020347,-0.080508,0.018019,-0.028012,-0.075004,-0.032972,-0.058035,-0.049693,-0.033901,-0.060896,-0.027094,-0.029822,0.020015,-0.054855,-0.026101,-0.068551,-0.007660,-0.080277,-0.057953,0.018966,0.004833,-0.088509,-0.047183,-0.028275,0.041332,-0.048416,-0.030781,-0.059096,-0.074257,0.057357,0.012962,0.044934,0.027306,-0.022378,-0.044995,0.032715,0.052314,0.004475,-0.105209,0.021926,0.013995,0.089771,-0.062452,-0.062946,0.002861,0.020871,0.003927,-0.070011,-0.015951,-0.007481,-0.022376,-0.045374,0.046993,-0.009108,-0.050079,-0.048280,0.006112,-0.012824,-0.070288,-0.086854,0.052544,-0.078103,-0.039907,-0.007855,-0.019541,0.038056,-0.036286,-0.112192,0.053717,-0.049535,-0.050260,-0.086647,0.041716,0.018562,-0.060722,0.020084,0.024414,-0.028802,0.039047,0.053458,-0.005930,-0.085651,-0.048540,0.026205,0.034484,-0.072002,-0.105631,-0.034007,-0.000269,-0.043295,-0.100405,-0.059885,-0.025578,0.014803,-0.008544,-0.093423,-0.010600,-0.021112,-0.024626,0.026108,-0.018988,-0.055219,0.031011,-0.038167,0.001877,-0.046088,-0.062437,-0.007996,-0.018040,0.029171,-0.000989,0.049248,0.065353,-0.073393,-0.008449,-0.044340,0.021622,-0.042062,-0.065693,0.005992,0.004197,0.039592,-0.019530,-0.006219,0.053996,-0.062902,0.016860,-0.050434,-0.011590,-0.032054,-0.049166,-0.006020,0.002203,-0.012105,0.076096,-0.005575,0.038813,0.021065,-0.024262,0.027390,-0.045798,-0.029029,0.053633,0.030545,-0.058302,-0.033841,-0.049957,0.028103,-0.004507,-0.052267,-0.058773,0.053775,0.023527,-0.086152,-0.072498,-0.022981,0.095239,0.041477,-0.067026,0.030575,-0.037105,0.121846,-0.021396,-0.105918,0.097258,0.005230,0.021464,-0.035252,-0.030129,-0.014361,0.017669,0.057304,-0.038048,-0.072791,-0.014249,0.000517,-0.063171,-0.029848,0.016268,-0.050252,-0.058800,0.003643,-0.015694,-0.035391,-0.053324,-0.018920,-0.044164,0.053577,-0.078563,0.037211,-0.032005,-0.015803,-0.030628,-0.040435,0.000419,0.026170,-0.032698,-0.068364,-0.047508,0.043037,0.033572,0.035639,-0.043687,-0.047188,-0.016651,0.042681,-0.039868,-0.044499,-0.053830,-0.035938,0.012658,-0.063584,0.015874,-0.055805,-0.003762,0.002868,0.031766,-0.004789,0.014779,-0.041539,-0.028244,-0.060093,0.011958,-0.056091,-0.016173,-0.040098,-0.051299,0.058934,-0.037111,-0.082681,-0.080726,-0.000429,0.042125,-0.013258,-0.018302,-0.069782,-0.016025,0.020043,0.004031,0.028968,-0.039652,0.036387,0.049290,-0.054712,-0.052994,-0.051944,0.014172,0.010940,0.005585,-0.044503,-0.066754,0.010226,-0.046261,-0.001602,0.009838,-0.012020,0.009269,-0.032255,-0.065351,-0.033734,-0.057010,-0.018596,-0.040975,-0.065567,-0.004649,-0.060493,0.077124,-0.054624,-0.070441,0.030723,0.022839,0.046698,-0.064345,-0.015802,0.021704,0.014638,-0.037787,-0.026155,0.037135,-0.019203,-0.007113,0.022617,0.036229,-0.013348,-0.123805,-0.071667,-0.085442,0.036470,0.048576,-0.071034,-0.087882,-0.050344,0.018129,0.039922,-0.073195,0.009856,-0.001003,0.046580,-0.034089,-0.078406,-0.076638,-0.019646,-0.018153,0.069294,0.013657,0.016886,-0.057454,0.024603,0.051128,-0.041563,-0.012405,-0.070931,0.103726,0.107694,-0.035923,-0.020846,0.019422,0.107206,0.069495,-0.063636,-0.041880,0.006082,0.037323,0.010078,-0.008679,-0.070507,-0.047597,-0.039606,0.071239,-0.000770,-0.050164,-0.079613,0.063597,0.156125,-0.094268,-0.064881,-0.111351,0.113815,0.122510,-0.084942,-0.003440,-0.087786,0.097091,0.061737,-0.116520,-0.023806,-0.068434,0.059429,-0.002589,-0.125511,-0.026082,0.042572,0.020481,-0.032643,-0.033936,-0.005996,0.052008,-0.026912,-0.007076,0.005471,0.005210,-0.046543,-0.067303,0.059466,0.049924,-0.008651,-0.077626,-0.060845,0.069187,-0.031543,-0.002625,-0.038128,0.041963,0.048127,-0.056879
-0.026399,0.045039,0.042611,-0.027866,-0.074376,0.003304,-0.071691,-0.004231,0.006333,0.013295,0.020022,0.042587,0.043373,0.025782,-0.052333,0.008877,0.062560,-0.028306,-0.069533,-0.009789,-0.037563,-0.032921,-0.057706,-0.059343,-0.033376,-0.045307,0.015789,0.007546,-0.070227,-0.042082,0.012412,-0.018215,0.040535,-0.035565,-0.057804,-0.003823,0.064528,0.033663,0.005407,0.018776,-0.020554,-0.041079,-0.043575,0.027602,-0.062575,-0.018863,0.048834,0.070081,-0.059137,-0.033785,0.053821,0.033029,-0.014027,-0.039363,0.061158,0.034355,-0.050230,-0.074790,0.000178,0.024932,-0.026859,0.027606,0.011363,-0.048673,-0.012583,-0.009987,-0.037594,-0.037602,-0.005608,0.018459,0.037248,0.007604,-0.077987,-0.051308,0.012111,-0.044452,-0.000791,-0.022855,-0.042073,0.007431,0.016021,0.018483,0.025248,-0.007951,-0.065987,-0.000092,0.007330,-0.037323,-0.028552,-0.067189,-0.054225,0.043080,0.051692,-0.034208,0.028319,0.015409,-0.006174,-0.012049,-0.027352,-0.006077,0.043860,0.078966,0.066735,-0.022673,-0.041776,-0.050065,-0.029441,0.034468,-0.003643,0.027171,0.069334,0.080439,0.073319,0.008125,0.026170,0.008327,-0.008164,0.018450,0.011168,-0.039541,-0.054531,-0.044357,0.041240,-0.061303,-0.033431,-0.021771,0.021482,-0.045229,0.035415,-0.032527,0.073209,-0.004252,0.030771,-0.019536,-0.053048,0.033787,-0.040040,-0.041733,0.014448,0.029118,0.042617,0.014892,0.033391,0.024913,0.018166,0.034834,0.034982,-0.020381,-0.057397,-0.021091,0.046350,0.040111,0.074995,0.031026,0.024713,0.007461,-0.071759,0.031118,0.010920,-0.062116,-0.064700,0.030583,-0.007429,-0.007581,-0.024035,-0.041238,-0.031079,0.039501,0.081380,-0.051138,-0.046320,-0.046549,-0.029873,0.029374,-0.017327,-0.006693,0.035463,-0.054955,-0.003514,0.012149,-0.008044,-0.054363,-0.077452,-0.016741,-0.036345,0.062257,0.020505,-0.008655,0.039693,0.027059,-0.000598,-0.009540,-0.031249,-0.014211,-0.021304,-0.058141,-0.015612,-0.064443,-0.060781,0.020595,-0.047820,-0.034725,0.009389,-0.076596,0.030502,0.112849,0.078293,0.039224,0.009917,-0.017829,-0.034102,-0.048024,-0.025293,-0.040055,0.010111,-0.036101,0.033026,0.033160,-0.021729,-0.010050,0.074090,0.021510,0.052784,-0.015886,0.008496,0.006417,0.009316,-0.044742,-0.049101,0.007960,0.056530,0.006807,-0.000663,-0.062952,-0.062390,-0.014130,0.014583,0.035021,0.008404,0.018399,0.017323,-0.009532,-0.014337,-0.023865,-0.012995,0.030494,-0.034188,0.008600,-0.015315,-0.039183,-0.023439,0.025955,0.049566,-0.055189,0.005420,0.019100,-0.057943,0.047350,0.055651,-0.013652,-0.029069,0.046711,0.049196,0.039584,-0.042244,0.017571,-0.061419,0.019111,-0.025274,-0.037715,-0.037360,-0.056497,0.043181,0.046334,0.008685,0.031585,0.009346,-0.039751,-0.053454,-0.056829,0.035378,0.016360,-0.000709,0.031816,-0.006858,-0.018946,0.010924,-0.001907,0.004936,-0.016017,0.037392,-0.008561,-0.044350,-0.000360,0.007074,-0.015058,-0.048452,0.021827,0.063873,-0.036291,-0.041407,0.047702,-0.031902,-0.039364,-0.006468,-0.002845,0.070471,-0.047351,-0.016937,-0.080397,0.027577,-0.043795,-0.047992,0.028746,0.026654,0.013933,0.042807,-0.040555,-0.009244,0.013067,-0.017168,-0.048589,0.010167,0.008675,0.024668,-0.022851,0.049305,0.038030,-0.048393,-0.049879,0.030714,0.010331,0.051631,0.044430,-0.026335,-0.018695,-0.045953,0.001239,0.008753,-0.078082,-0.048175,0.033369,-0.014699,0.019096,-0.043596,-0.042235,-0.011226,0.015127,0.016225,0.036483,-0.031156,-0.017097,0.023047,-0.007807,0.037636,0.050042,0.018858,0.029554,0.014008,0.031510,-0.048037,-0.028262,0.036086,0.054337,0.021470,0.003703,-0.031310,0.008733,-0.042302,0.062177,-0.048998,0.027341,-0.058197,-0.019870,0.009245,0.038627,0.044800,0.074612,0.047611,-0.052066,0.011224,0.021269,0.054783,0.007481,0.005045,-0.014511,-0.078774,-0.000070,0.031778,-0.066960,0.019036,-0.003981,-0.017470,0.010669,-0.006743,0.018591,0.026955,-0.005810,-0.031964,0.008396,0.043670,0.006373,-0.067020,-0.001282,-0.014431,-0.021966,-0.058054,-0.066786,-0.002196,-0.009138,0.013021,-0.029928,0.000148,-0.012101,0.035992,0.055089,0.041136,-0.044852,-0.007964,0.067048,-0.021129,-0.013647,-0.046083,-0.030306,0.061113,0.039992,0.010258,-0.042400,-0.015789,0.059483,-0.007494,0.015823,-0.003299,-0.001140,-0.005244,-0.003198,-0.061765,-0.071391,-0.023452,0.037781,-0.033638,0.028422,0.026507,-0.002261,0.027473,0.043917,-0.032542,0.027557,0.043425,0.032935,0.001632,0.031122,-0.056735,0.014617,0.042958,-0.041658,-0.063469,-0.042747,-0.027562,0.075853,-0.033370,-0.062131,-0.042375,0.033063,0.001987,-0.047398,-0.044770,-0.060508,-0.074357,0.081331,-0.009221,-0.008006,-0.053435,-0.073652,0.077247,-0.018850,0.041851,0.033826,-0.072238,-0.058912,-0.068545,0.000861,-0.007842,0.009200,-0.008343,0.090757,-0.009647,0.050238,-0.050557,-0.024147,-0.007058,-0.030733,-0.036070,0.014090,-0.031221,-0.012505,-0.050462,0.042797,-0.030276,0.013941
-0.014800,-0.031255,-0.053707,0.016652,0.013740,0.009057,0.024273,0.059529,0.069548,0.011067,0.008715,0.128082,0.102619,-0.025884,-0.066954,0.051484,0.030934,-0.053986,-0.018892,-0.013093,-0.116446,-0.050082,0.013031,0.001603,-0.054438,-0.007623,-0.015191,0.005329,-0.080113,-0.050851,-0.041004,-0.001821,-0.085054,-0.059465,-0.081287,0.001396,-0.038063,-0.103342,-0.134183,-0.028233,-0.085589,-0.113450,-0.101164,-0.062914,-0.077915,-0.080778,-0.088078,0.026266,-0.060808,-0.005792,0.014050,-0.066824,0.014246,0.031514,0.034332,-0.027278,0.014284,0.046796,0.058169,0.119225,-0.003613,0.053679,0.064860,-0.002143,-0.014116,0.013801,-0.032760,-0.095594,-0.023991,-0.073695,-0.020902,-0.059303,0.007076,-0.058726,-0.040308,-0.035009,-0.026803,0.010318,-0.025290,-0.095225,0.015825,-0.088581,-0.066507,-0.010696,-0.012922,-0.000762,-0.043023,0.012827,-0.004705,0.037203,0.069869,0.092518,-0.006806,0.018009,-0.044612,0.036104,-0.032774,-0.074351,-0.047827,-0.033308,-0.040963,0.044549,0.018254,-0.025820,-0.020903,-0.012773,0.011135,0.086362,0.042157,0.074225,0.031690,0.090406,0.076855,0.034234,0.011265,-0.032335,-0.016821,-0.032916,0.000293,-0.045396,0.001161,0.049573,0.025210,-0.024845,-0.030865,0.017410,0.047590,0.057758,-0.051710,-0.039778,-0.056837,0.013986,-0.028083,-0.058059,-0.004559,-0.031260,0.037349,-0.021863,-0.001889,-0.013126,0.012493,0.021413,0.035792,0.001416,-0.040423,0.014730,-0.006901,0.014541,-0.043749,-0.007212,-0.034347,-0.073293,-0.067072,-0.031146,-0.080208,-0.086602,-0.074017,0.038850,0.024054,0.081819,0.070862,0.060224,0.064296,0.091227,0.005255,0.091721,0.052453,0.053917,-0.003929,-0.024626,-0.022380,-0.010803,-0.031659,-0.006224,-0.059843,-0.062169,-0.003169,0.013054,-0.030636,0.022918,0.018964,0.056049,0.059201,0.101703,0.022437,0.091535,0.020882,0.043988,-0.006773,-0.003494,0.051436,0.029082,-0.004592,-0.000825,-0.059772,-0.025568,-0.043227,-0.066578,-0.011079,-0.069138,0.082584,0.080115,0.004452,0.004921,-0.029608,0.006504,-0.061018,-0.058448,-0.057156,-0.082834,-0.046598,-0.097223,0.006871,0.096221,0.021688,0.002257,0.046436,0.032340,0.080873,0.067699,0.102127,0.015663,0.081585,-0.023410,-0.015294,0.038103,0.040862,0.049797,-0.039538,-0.054755,-0.057978,-0.027644,-0.041654,-0.013254,0.031618,-0.010770,0.005368,0.076358,-0.010676,-0.016330,0.029340,0.081712,-0.001064,0.012325,-0.028596,-0.024001,-0.030310,0.000564,0.046995,0.008326,-0.020107,-0.057668,0.011389,-0.009941,0.010203,-0.031366,-0.069303,-0.012480,-0.066773,0.026198,0.014879,-0.003489,0.040963,-0.042055,0.011794,0.040828,0.039870,0.069240,-0.041173,-0.032478,0.070133,0.059993,-0.028306,-0.032661,-0.010215,0.002577,0.001728,-0.051835,-0.077442,-0.038859,-0.029068,-0.053058,-0.053404,-0.069504,-0.042191,0.016265,0.063384,-0.014519,-0.004679,0.033214,-0.023599,-0.064489,0.023032,0.063505,0.056522,-0.031527,-0.048721,0.038021,0.046197,-0.064052,-0.006228,0.011827,-0.038220,0.028472,-0.009007,0.044619,-0.035478,-0.019682,-0.056009,-0.000575,-0.008331,-0.031018,-0.053161,0.007531,-0.009701,0.034489,0.087535,0.025767,-0.026406,-0.066852,-0.035658,0.016889,-0.063358,-0.048765,0.007467,-0.007069,-0.050871,-0.064496,0.028123,-0.071057,0.029160,-0.039611,-0.020470,-0.006764,-0.041678,-0.031136,0.060710,0.019498,0.043519,0.051965,0.036984,-0.001645,0.030069,-0.027784,0.024220,0.001371,0.031486,0.025437,-0.042325,-0.056364,0.044795,0.026372,-0.039056,-0.021916,0.025775,-0.051479,-0.066177,0.028707,0.049252,0.026351,0.045867,-0.005431,0.001436,-0.003506,0.027937,0.022022,0.051002,0.044194,-0.026465,0.060571,0.026985,-0.014325,0.052989,0.032651,-0.033349,0.054168,0.047218,0.028728,-0.046310,-0.015123,0.000227,-0.050796,-0.039046,0.021648,0.008570,-0.056098,0.014341,0.043731,0.009090,0.055183,0.013902,0.055991,0.051542,-0.009944,0.072680,0.081300,0.033562,-0.034112,0.015530,-0.033601,-0.011401,-0.062837,-0.067429,-0.052872,-0.009016,-0.019072,0.016512,0.001486,0.041827,0.001573,0.041341,-0.039066,0.034198,-0.039698,-0.018639,-0.012403,0.007002,-0.042680,0.020958,0.019879,-0.022011,0.035885,-0.020389,-0.014008,0.017222,0.017648,0.001348,-0.055916,-0.059887,-0.054473,0.003051,-0.047191,-0.004042,-0.051061,-0.061416,-0.081042,-0.007293,-0.031894,0.020377,-0.028765,-0.025922,0.050665,0.000147,0.035965,0.041392,-0.010024,0.029536,0.035615,0.012744,0.004193,-0.077352,-0.078999,-0.102888,-0.147392,-0.063062,-0.046799,-0.151727,-0.125074,-0.047160,-0.033540,0.021094,-0.052455,0.001882,-0.050990,-0.030956,0.029768,-0.028704,0.019293,0.038429,-0.007706,0.017237,0.036664,0.053218,-0.056839,-0.017220,-0.043991,-0.037277,0.021003,0.073941,0.013045,0.086178,0.133702,0.130569,0.109935,0.047027,0.031911,0.011307,-0.018750,-0.066630,-0.009098,0.007658,0.004202,0.049063,-0.004632,0.045746,-0.014035,-0.082676,-0.026790,-0.065868,-0.055253
0.003154,-0.024807,-0.045087,0.016263,0.076216,0.002881,-0.067729,-0.060467,-0.005757,0.025073,0.037042,0.045910,0.029457,0.031004,-0.060486,0.000806,-0.021605,-0.041926,-0.000177,0.035368,-0.027481,0.046361,0.061384,-0.004669,-0.041078,0.005756,-0.006084,-0.008732,0.030229,0.059625,0.002001,-0.030892,-0.007812,-0.011446,-0.026583,0.034839,0.026268,-0.013769,-0.049932,0.028786,0.016810,-0.022124,-0.018082,-0.010400,0.018823,0.028444,-0.030376,-0.015629,-0.006951,-0.014641,-0.051991,0.025704,0.049566,-0.010407,0.013914,0.030927,-0.025163,-0.024443,0.056038,0.036986,0.009116,-0.003508,-0.034439,0.036740,0.054569,-0.062549,0.015873,0.048094,0.017204,0.042527,-0.015022,-0.004780,-0.043834,-0.008657,-0.038570,0.019426,0.005475,0.007045,-0.066709,-0.034880,-0.018586,-0.050206,0.014696,-0.037890,0.033045,0.020828,0.005715,-0.031346,0.036728,0.056452,0.004829,0.032448,-0.011663,0.038508,-0.000824,0.025087,-0.025574,-0.032390,-0.001216,0.006790,0.027879,0.021587,0.017325,-0.010232,-0.028599,-0.027653,0.025197,-0.055773,-0.054868,0.019883,0.024770,0.008618,0.030235,-0.047829,0.038901,-0.041840,0.056727,0.047247,0.046618,-0.010659,-0.036527,0.003849,-0.001340,0.000680,-0.019380,-0.029466,-0.022305,-0.040569,0.029414,-0.043380,0.056242,-0.000620,0.001481,0.053812,-0.053489,-0.021590,0.026039,0.008922,0.030802,-0.012356,0.036696,0.001451,-0.014910,0.017870,0.039551,-0.003125,0.022502,0.056658,-0.048295,-0.026014,-0.005311,0.004029,0.027896,-0.001021,-0.057432,-0.019129,0.030777,0.004428,-0.042878,-0.001356,-0.012693,-0.044979,-0.055096,-0.029118,0.034082,-0.029890,-0.040044,-0.023569,-0.017846,0.035899,0.005222,-0.028984,0.023187,-0.056002,0.031126,0.053185,0.033131,-0.039037,0.064100,-0.022495,-0.019586,-0.025725,0.021639,0.015773,0.030582,0.000968,-0.039940,0.010469,-0.060506,-0.007698,-0.037131,0.006169,-0.032917,0.004434,0.037963,0.007017,0.050819,-0.047790,0.040963,0.019315,0.000433,-0.072353,-0.061565,-0.033288,-0.044343,0.043789,0.009507,-0.015221,-0.025705,0.063086,0.039885,0.024222,0.021118,-0.037397,0.048086,0.031203,-0.001197,-0.035685,-0.028120,-0.008185,0.039855,-0.024168,0.043676,-0.022654,-0.004898,0.015775,-0.044565,-0.042399,0.022634,0.013362,0.005225,-0.025095,-0.011762,0.027661,-0.031809,-0.055311,0.025493,0.005757,0.030531,-0.028271,0.003597,-0.017084,0.025429,0.025599,0.017575,-0.040142,-0.057130,-0.021752,0.007656,0.070779,0.006557,0.036781,0.039695,-0.000771,-0.035756,0.039395,0.022490,0.010176,-0.016164,0.037133,-0.012403,0.011243,0.010414,-0.020942,-0.028498,-0.041897,0.010087,0.032435,-0.004354,-0.046990,0.000638,0.009667,-0.012004,-0.026138,0.014932,-0.023125,0.008456,-0.053460,0.057461,0.038121,0.051468,-0.042636,-0.041356,-0.020052,0.005771,-0.011407,0.016558,0.031025,-0.005676,-0.016538,-0.033268,-0.031714,-0.021818,-0.027349,0.047130,0.014082,0.031671,-0.014594,-0.022624,-0.017247,-0.054962,-0.027666,-0.049623,0.021779,0.049871,-0.022035,0.016160,0.030857,-0.007804,-0.014377,0.054798,-0.011058,-0.028198,0.033717,0.024160,-0.039779,-0.029757,-0.021102,0.071860,-0.031336,0.033375,0.022077,-0.022357,-0.011402,-0.021330,-0.039908,-0.017250,-0.011591,-0.032730,0.025906,0.044156,0.027116,0.015406,0.049568,0.037975,-0.016025,0.034267,0.041372,-0.023769,0.021730,-0.038353,-0.018365,-0.035354,-0.018078,-0.003517,-0.016936,0.024999,-0.028942,-0.022011,0.042533,-0.017695,-0.006326,-0.040643,0.025679,0.012834,0.000355,-0.010099,0.000906,0.022739,-0.049634,-0.031969,-0.005448,0.003939,0.018519,0.004080,0.019335,-0.015035,-0.029012,0.021689,0.057694,0.028868,0.008279,0.020425,0.047884,0.026019,0.043040,-0.003744,-0.065936,-0.052569,0.030211,-0.029918,0.052090,-0.054985,-0.018522,0.040220,0.053640,-0.013080,-0.045159,0.053804,-0.064813,0.045120,0.038151,-0.027722,-0.032975,-0.048180,0.024357,-0.042349,0.024769,-0.050927,0.060522,0.000222,-0.004436,-0.018388,0.015124,0.043283,0.009567,0.005977,0.005582,0.035183,-0.032812,0.017483,0.005572,-0.060121,-0.030638,-0.001396,-0.061462,-0.020717,0.048407,-0.067509,0.057662,0.040184,0.001059,-0.021536,-0.072798,0.025367,0.019678,-0.038548,-0.044153,-0.036519,-0.029805,-0.019465,0.052307,0.001505,-0.037676,-0.010521,0.003802,0.054959,0.028667,0.021580,-0.011234,0.014802,0.049627,0.041186,0.035176,-0.029399,-0.046217,-0.047236,0.035792,0.020057,-0.056154,-0.021094,-0.003513,0.043395,-0.039037,0.039493,0.007566,-0.020386,-0.026405,-0.013810,0.015066,0.018743,0.044460,-0.022523,0.009269,0.012436,0.043695,-0.036084,-0.057921,-0.007055,-0.042561,0.044127,-0.057478,-0.015966,-0.027530,-0.028287,-0.013693,0.028312,0.036405,-0.027665,0.039796,-0.010945,-0.074906,-0.036654,0.003822,0.015122,0.057662,0.052946,0.058803,-0.030169,0.065609,-0.028878,-0.011914,-0.023428,-0.030553,0.032943,-0.004661,0.016188,0.056011,0.002392,0.014732
-0.044681,0.010462,-0.036693,0.022753,0.028985,0.028401,-0.050951,0.000857,0.040431,0.027881,0.002207,-0.037385,-0.050320,-0.070381,-0.068978,-0.040480,-0.072429,-0.083709,-0.050190,0.029381,0.008510,0.009108,-0.080697,0.014713,0.016115,-0.089548,-0.048885,0.028683,-0.015535,-0.018943,-0.020657,-0.085508,-0.035210,0.017787,-0.038178,-0.033212,-0.065213,-0.063680,-0.064109,0.002116,0.069915,-0.011517,-0.065909,-0.041301,0.024136,0.028243,0.066123,-0.028463,-0.085164,-0.037085,-0.046822,-0.049087,0.021080,-0.017078,-0.037712,-0.021107,0.071036,0.033506,0.059794,0.034122,-0.101763,-0.000816,0.039361,0.003057,-0.077495,-0.049961,-0.101707,0.032606,0.075069,0.008722,-0.014347,0.015174,-0.080441,0.061651,0.046285,0.034892,-0.000278,0.019427,0.014952,-0.076671,-0.008291,-0.005340,-0.014212,-0.057354,0.050425,-0.053558,-0.064448,0.009107,0.027104,-0.016914,-0.001598,-0.032107,-0.026154,-0.004855,-0.068976,-0.038318,0.001529,-0.117443,-0.034310,0.012777,-0.038129,-0.015335,-0.037245,-0.000453,0.011779,-0.004201,0.027970,0.004834,0.083014,0.027323,-0.008295,0.029100,0.007598,0.033072,0.003084,-0.017513,-0.050596,-0.008820,0.077712,0.037023,-0.041264,0.002483,-0.027424,-0.017954,-0.032946,0.041211,-0.001082,0.008001,0.007937,-0.016983,-0.032752,-0.038882,-0.038872,0.045521,-0.026918,0.046294,0.043794,0.011175,-0.002277,0.065851,-0.011993,0.025392,-0.004500,0.025307,-0.011835,-0.009839,0.022630,0.027200,0.057699,-0.008335,0.010558,-0.033106,-0.033347,0.032771,-0.010177,0.039159,0.043530,0.044358,-0.009988,0.064285,0.056399,0.033427,-0.021208,0.002735,0.013237,-0.049586,0.018823,0.018759,-0.016520,-0.022116,-0.102876,-0.053166,0.027335,0.010220,0.031875,-0.049512,0.023370,-0.001155,0.032604,0.032746,-0.025168,0.001092,0.030457,0.052807,0.046485,-0.012723,-0.069016,0.032755,-0.003806,0.014118,-0.087763,-0.101269,0.002669,0.015680,0.054322,-0.057291,-0.034529,-0.054443,0.003504,-0.018894,0.007612,-0.047752,-0.003845,0.014147,0.001576,-0.016193,-0.003079,-0.042359,-0.052263,-0.000885,-0.023865,-0.045564,0.065874,0.045822,0.088844,0.048990,0.086965,0.013029,0.035110,-0.024355,0.076167,0.096242,-0.012944,0.047224,-0.002726,-0.016643,0.037953,0.051990,-0.006103,-0.022989,0.014570,0.040830,-0.000983,0.042830,-0.015860,0.013042,0.038954,-0.024986,0.019378,0.002984,0.001154,0.008961,-0.035582,-0.046822,0.000840,-0.002242,0.022830,0.007877,-0.010080,-0.021991,-0.039213,0.028133,-0.020295,-0.039913,0.000439,0.014242,0.023800,0.007799,0.043534,0.039941,-0.011702,-0.022850,-0.052258,-0.007557,-0.013551,-0.006481,0.065434,-0.037513,-0.027717,-0.036018,-0.010417,0.032507,-0.002644,-0.021541,0.026357,-0.018957,0.027862,0.028147,-0.054164,-0.000215,0.048334,-0.025748,-0.007305,0.032472,-0.039454,0.017604,0.041862,-0.044262,-0.006706,-0.044026,-0.011201,0.016719,-0.011751,0.041304,-0.035099,0.000983,0.004915,-0.000588,-0.017951,-0.028839,0.025569,-0.021241,-0.033725,0.009517,-0.042171,0.051837,0.005608,0.014872,-0.052055,-0.001798,-0.064803,-0.051143,0.050848,-0.014085,0.000231,-0.061917,-0.039557,-0.011417,-0.035408,-0.057596,-0.016735,0.048416,-0.068578,0.002104,-0.064628,-0.021288,0.009933,-0.032443,-0.003244,-0.029209,0.031988,-0.036128,0.006604,0.036614,0.059174,-0.029583,-0.019770,0.020063,0.026576,0.035094,0.033657,0.054270,0.020427,-0.052806,-0.037795,-0.061133,-0.039012,-0.010475,-0.032780,0.010892,-0.009738,-0.031484,0.032310,-0.008856,0.043308,0.026058,-0.046996,-0.027152,0.051393,0.008268,0.034837,0.019453,0.036632,0.058102,0.065530,0.036060,-0.039498,-0.054081,0.050201,-0.039965,-0.041844,0.009506,0.026957,-0.008410,-0.034675,0.029890,0.043209,-0.022165,0.036731,0.008721,0.045559,0.030342,0.014875,0.070483,0.087462,0.046760,0.053711,-0.019116,0.046030,-0.011526,0.000803,-0.010433,0.005579,-0.030426,0.009131,0.006664,0.001563,-0.045138,-0.043328,0.024905,0.017412,0.044525,0.029918,-0.055344,-0.010884,0.036133,0.025232,0.014253,0.000087,-0.010390,-0.084866,-0.031869,0.068870,-0.052696,-0.026964,-0.000397,-0.071795,0.024471,-0.006242,0.019486,-0.015375,-0.043481,-0.004983,0.039517,0.020643,0.027400,0.043375,-0.015145,0.009725,-0.031281,-0.008411,0.028913,0.028940,-0.039574,0.044798,-0.023447,0.012534,-0.011212,0.028470,0.039977,0.038907,0.019219,0.011734,0.028386,-0.056185,0.022204,-0.011255,-0.047108,0.009934,-0.029458,-0.040258,0.009240,0.002475,-0.042156,0.003055,-0.034046,-0.009610,0.049555,-0.017432,-0.051790,-0.056789,-0.047485,0.073495,0.044535,0.014107,-0.014211,-0.037146,-0.044985,0.044241,-0.027509,-0.042513,-0.053405,-0.066585,-0.010641,0.022224,0.018673,-0.015508,0.069043,0.050877,0.039158,-0.053135,0.048441,-0.001422,0.029271,0.018501,-0.035339,0.005635,0.008882,-0.050195,0.021519,-0.072523,0.008626,0.051005,0.035776,0.045383,0.037936,-0.064928,0.036970,-0.027685,-0.069044
0.002661,0.010893,0.057518,0.028575,-0.074651,0.016027,0.039440,-0.016237,0.031824,0.006250,-0.052759,-0.085130,0.016393,0.042823,0.027302,-0.008023,-0.054642,-0.041582,-0.043351,-0.000610,0.017537,-0.026459,0.030294,-0.031877,0.026662,-0.008471,-0.010171,-0.082278,-0.063585,0.013674,-0.006928,-0.046954,-0.043104,-0.069307,-0.068710,-0.078788,-0.020150,0.027481,-0.023530,-0.042801,-0.060258,-0.038165,0.046389,0.029128,0.010238,-0.042801,-0.004663,0.071692,0.043657,-0.048869,-0.003825,0.003735,0.031388,0.047661,-0.015232,-0.004525,0.040234,-0.023660,-0.031259,0.021407,-0.070690,-0.015416,0.024625,-0.039206,-0.019911,-0.043203,-0.027704,-0.052508,0.009557,0.015553,-0.088511,-0.014596,-0.004233,-0.056438,0.020053,0.039277,0.029327,-0.010312,0.091656,-0.018167,-0.046073,-0.000619,0.092947,0.003021,-0.042503,0.030142,-0.025449,-0.022054,-0.036721,0.051896,0.011097,-0.051148,-0.018913,-0.024520,-0.065645,-0.063857,-0.089338,-0.086592,0.023984,0.032018,0.009009,0.029774,-0.015195,0.036605,0.028690,0.022493,0.036328,-0.047486,0.037028,-0.020360,0.002094,-0.036761,-0.031576,0.000316,-0.037801,-0.062950,-0.064597,-0.030464,0.006575,0.026212,0.039502,-0.047230,0.043552,0.049443,0.045578,0.033271,0.062056,0.061883,0.008929,0.025336,0.036473,0.038562,0.021434,-0.006266,-0.004379,-0.031037,-0.043795,0.042259,0.045436,-0.003307,0.014074,-0.017915,0.026491,-0.022934,-0.035868,0.018481,-0.036050,-0.007920,0.046920,0.002827,-0.009027,-0.010122,-0.011202,-0.012252,0.009720,0.033865,0.030262,0.065932,0.000874,0.031209,0.047943,-0.043683,-0.054705,-0.055258,0.043315,-0.019287,-0.062202,-0.002228,-0.057986,-0.061589,0.020748,-0.074058,-0.010925,-0.016497,0.002428,0.030666,0.026574,0.024096,0.035543,-0.002548,0.001331,-0.039196,0.001111,-0.014356,-0.024491,-0.084280,-0.005465,-0.024012,-0.008746,0.019645,-0.049997,-0.028023,0.009599,0.028369,-0.048783,-0.089933,-0.024181,0.019051,-0.006076,-0.016872,-0.017595,-0.021913,0.002371,0.033565,-0.002165,-0.020601,0.076049,0.002810,-0.012234,-0.020948,0.045559,0.043608,-0.026342,-0.002043,0.046859,-0.045513,-0.009797,-0.022188,-0.024704,0.044902,0.017929,-0.009544,0.043232,-0.016688,-0.002120,0.002742,0.082084,0.041249,0.036055,-0.019907,-0.029241,0.053633,-0.033905,-0.025253,0.004534,-0.007289,-0.043474,0.042072,-0.039754,-0.009385,-0.054425,0.023943,0.004712,-0.046895,-0.001609,-0.019238,0.013381,0.030320,0.022270,-0.006674,-0.049149,0.015394,0.046799,-0.023909,0.055301,0.022536,0.033794,-0.007105,0.049237,-0.015299,0.015911,0.034365,0.054736,0.002499,0.003667,-0.003803,-0.056216,0.051856,-0.064897,-0.010830,0.020884,-0.028164,0.039526,-0.055133,-0.014870,0.045794,-0.029262,-0.006075,0.047947,-0.031824,-0.027458,-0.044751,-0.037059,0.063557,-0.017130,-0.043961,-0.002750,-0.021421,-0.055216,-0.028858,-0.017250,-0.008382,-0.038346,-0.051084,-0.009747,0.012750,0.006942,0.010115,0.035440,0.019164,0.027115,-0.019411,0.030230,0.050628,0.004114,0.019770,0.078997,0.069267,-0.042572,-0.040955,-0.036294,-0.013532,0.008535,-0.042891,0.043456,0.018430,-0.001871,0.038296,-0.023337,0.044542,-0.016846,0.016526,-0.046556,-0.032803,0.013076,0.048536,0.021727,-0.032253,-0.014736,-0.004607,0.010533,-0.037512,0.030004,-0.024882,0.025562,0.023346,-0.042534,-0.049376,0.001709,-0.009374,0.009204,-0.034182,-0.030217,-0.017008,-0.013978,-0.010560,0.024464,-0.042158,-0.054660,-0.047761,0.046980,0.057404,0.071562,0.009330,-0.007534,0.004586,0.055510,0.030249,-0.000142,0.010306,-0.032454,0.039867,0.054553,-0.040567,0.012042,0.010970,0.002941,0.013020,-0.031547,-0.021560,-0.044760,0.022623,-0.030552,-0.032466,-0.015669,-0.025255,-0.011056,0.069638,0.064234,0.001972,0.007516,0.065953,0.091862,0.023064,0.012583,0.004199,-0.034288,-0.024212,0.015705,-0.008983,-0.028301,-0.006304,-0.029843,0.014249,-0.017669,-0.010460,0.009634,-0.017062,-0.007859,-0.046311,-0.011338,0.047466,0.046446,0.030334,0.038981,0.004320,-0.040636,-0.016214,0.018256,-0.057997,-0.065941,-0.004337,0.033233,-0.000071,0.000142,-0.024343,-0.005197,-0.025796,-0.004638,0.049188,-0.023504,-0.008521,-0.061757,-0.045199,0.042871,-0.032762,-0.037492,0.041450,0.026995,0.034835,-0.026856,0.043191,0.056635,0.029397,-0.046859,0.024925,0.053348,-0.038848,-0.008819,0.011355,0.045045,0.030965,0.019513,-0.036214,-0.040687,0.034725,0.052983,-0.006328,-0.036576,-0.002715,-0.032128,0.035307,-0.005778,-0.011143,-0.021501,0.024819,0.061400,-0.016144,0.032433,0.004167,-0.046055,0.066292,0.018221,-0.077067,-0.058891,0.023404,0.033850,0.023677,-0.006497,-0.003563,-0.044830,-0.045091,-0.013117,-0.083745,0.014440,0.007442,0.086521,0.015779,0.046750,0.068862,-0.055466,-0.068487,0.006487,-0.011975,-0.020529,-0.003960,-0.049011,0.021542,0.042850,-0.054650,0.017012,0.007146,-0.038645,0.013833,-0.041534,-0.031556,0.011673,-0.030494,-0.008097,-0.003791
