0.001497
0.010735
-0.001454
-0.001810
-0.000123
0.004087
-0.009159
0.001838
0.003866
0.009062
-0.000174
-0.001891
-0.000040
0.006497
0.001727
-0.000730
0.007496
0.000864
-0.000580
-0.000156
0.002405
0.003110
0.002548
0.000563
0.001872
-0.001265
-0.005906
-0.003341
-0.006356
0.000249
0.008466
0.002367
0.004581
-0.001358
0.000927
-0.000629
0.002181
0.003179
0.000378
-0.009365
-0.004625
0.003532
0.000241
-0.001311
0.001899
0.004785
-0.003073
-0.004506
-0.004433
-0.003150
0.011658
0.001538
0.002239
0.007737
-0.003636
-0.005486
-0.003719
-0.004247
0.000513
-0.001093
-0.006203
0.000082
0.011277
-0.003200
-0.002405
0.007138
0.014443
0.000843
-0.004583
-0.001007
-0.001513
-0.007053
-0.004611
0.010530
-0.004064
-0.001812
-0.002800
0.000285
0.004758
0.001541
0.000721
0.000427
0.004337
0.004530
0.001957
0.001327
0.008074
0.000749
-0.001217
-0.004157
-0.012782
-0.004266
-0.000851
-0.000442
0.004810
0.001756
0.004269
0.013422
-0.001222
0.008134
-0.002844
-0.001860
0.003822
-0.000336
-0.002743
0.010904
0.002032
-0.000509
0.002211
-0.007800
0.000092
-0.007497
0.001550
0.002443
0.001951
0.006565
0.005552
0.001468
0.004746
0.001379
-0.004798
-0.003495
0.004535
-0.000114
0.000135
0.003729
0.005917
0.000078
0.000461
0.004429
0.006007
0.002106
0.005976
0.009551
-0.000189
-0.004603
-0.008041
-0.000009
0.000657
0.002537
0.008837
0.002038
0.004190
-0.002479
-0.000633
0.000081
0.013650
-0.001700
-0.004884
-0.001731
-0.004526
-0.001199
0.000859
0.003882
-0.000265
0.001579
-0.002224
0.007725
-0.000014
-0.000299
-0.009240
0.003152
0.002407
0.008627
-0.002023
0.001420
-0.004905
-0.001222
0.009732
0.001154
0.002408
0.001649
0.003150
-0.003684
-0.000669
-0.003668
-0.004873
0.007287
0.007938
-0.006758
-0.000742
-0.000890
0.004621
0.011049
0.001996
-0.002869
0.005003
-0.000409
-0.004782
-0.004734
0.002630
-0.000955
0.005273
0.001703
0.008710
-0.007213
0.000632
0.004101
-0.003697
-0.002574
0.005161
-0.003413
-0.003601
-0.000518
-0.002945
-0.004106
0.006570
0.005185
0.001845
-0.002488
-0.001192
-0.004041
0.001176
-0.004903
-0.001801
0.003869
0.002543
0.001364
0.001870
-0.007524
-0.010231
-0.003867
0.000950
0.006333
-0.002318
-0.002977
0.005220
-0.008115
-0.010102
-0.006659
0.006088
0.006148
-0.005248
0.000218
0.001654
0.008577
0.001407
-0.001909
-0.003514
-0.004215
-0.005596
0.001435
0.008935
-0.001331
0.001531
-0.001375
-0.002391
0.000643
-0.006273
0.004249
-0.004120
-0.000267
-0.005424
-0.002002
-0.000410
0.002782
0.001586
0.007702
-0.000614
0.007071
-0.005333
0.006314
-0.007865
0.003202
-0.001819
-0.002611
-0.000082
-0.000241
-0.007666
-0.003554
0.003555
-0.004632
0.002843
-0.002852
0.002528
0.006531
-0.001441
-0.004986
0.003993
-0.007092
-0.008865
0.001383
-0.004118
-0.001533
-0.006230
-0.000397
0.000272
-0.005464
0.007105
-0.007728
0.002280
-0.003107
0.003171
-0.005477
-0.001949
0.000207
-0.001486
0.005920
-0.002239
-0.003716
0.003797
-0.002452
-0.004040
0.011087
-0.001429
-0.004134
0.006591
-0.004826
0.003299
0.000921
0.004351
0.009021
0.003314
0.001102
0.004453
-0.000957
0.001214
0.004075
0.000765
0.015956
-0.000142
0.002374
0.004693
0.000029
-0.000473
0.002181
0.001336
-0.004658
0.017290
0.000046
-0.004982
-0.007735
0.000679
-0.005678
0.005004
0.000974
0.002992
-0.001425
-0.001620
0.008772
0.006208
0.004137
0.001500
0.003978
0.000894
0.003110
-0.004909
0.011304
-0.004133
-0.002190
0.002970
0.014656
-0.007190
0.009754
-0.002538
-0.003677
0.000534
0.014270
0.000511
0.000559
-0.005666
-0.007048
-0.017100
-0.006084
-0.001717
0.002599
0.003108
-0.005549
-0.001255
-0.007932
0.004334
-0.000244
-0.001093
0.004284
0.000091
-0.002577
-0.002923
-0.000081
-0.002265
0.001389
0.012013
-0.001705
-0.005142
-0.004566
-0.001767
-0.006911
-0.009733
-0.001487
-0.006040
-0.008761
0.008380
-0.000923
0.004081
-0.004529
0.005520
-0.001695
0.012962
-0.001789
-0.001660
0.002876
-0.008373
-0.007036
-0.005000
-0.012640
0.001186
-0.006037
-0.004212
-0.004375
-0.004012
-0.002667
0.010234
-0.001653
0.006171
0.003113
-0.000701
-0.003481
0.005017
-0.010844
0.000426
-0.003736
-0.001794
-0.001269
0.001691
0.001154
0.002536
0.001082
0.005607
-0.008201
-0.004593
0.000810
0.003351
-0.004068
-0.000707
-0.002060
0.007958
-0.003159
0.017661
0.003432
0.003947
0.000391
-0.004876
-0.004311
0.001766
-0.007024
0.002063
0.004074
0.002040
-0.002539
0.008373
0.002813
0.006185
0.001832
-0.001751
0.004097
0.012821
-0.003418
0.000609
-0.005380
0.011917
0.002148
0.000871
0.000644
-0.001120
-0.007316
-0.000748
0.001902
0.001110
0.001604
-0.001220
0.003509
0.006539
-0.005049
0.008441
0.002172
-0.009944
-0.004548
-0.001798
0.006263
0.000179
0.008524
0.005939
0.001361
0.002298
0.000105
0.005236
-0.001659
-0.010896
0.000002
0.001631
-0.001174
0.001294
-0.002361
0.010245
0.001956
-0.007076
0.003717
-0.002943
0.007367
0.006834
0.001177
