-0.042639,-0.018515,0.037635,-0.037174,0.088034,-0.041207,0.040485,0.062679,0.017208,0.109298,0.007041,0.038515,0.040449,-0.055096,-0.079614,0.023026,-0.056679,-0.002990,-0.076131,0.065344,-0.033060,-0.029345,0.044161,-0.041216,-0.063251,-0.013952,0.070980,0.012114,-0.031973,-0.062579,-0.016704,0.055742,-0.028565,0.029670,-0.055333,-0.073758,-0.013131,0.065965,-0.048577,-0.123201,-0.038572,-0.049618,-0.043757,-0.099062,0.016173,-0.029354,0.028018,-0.037066,0.018389,-0.031432,-0.094644,-0.030427,0.086364,-0.045189,-0.031240,0.134947,-0.051687,0.088996,-0.054132,0.027433,-0.015139,0.007049,0.038467,-0.082359,0.058497,-0.072397,-0.084707,0.011893,-0.086510,0.045146,-0.023551,-0.069290,-0.065636,-0.097393,0.058414,0.048234,-0.041051,0.096138,0.098106,0.066846,0.051628,0.023136,-0.057703,-0.018059,0.053342,0.057048,-0.011910,0.063289,-0.050199,-0.000204,0.040168,-0.108552,-0.047387,-0.013269,-0.065474,0.052523,0.067141,-0.008729,-0.034052,0.168666,-0.045634,-0.043915,-0.013805,-0.049748,0.014600,0.063399,0.054879,-0.038899,-0.006740,-0.015114,-0.009907,0.030303,0.065802,-0.048863,0.007417,0.103558,0.047921,-0.011676,0.033864,-0.005500,0.052864,0.005176,-0.003704,-0.023139,-0.055863,-0.008292,-0.027118,0.090622,-0.087913,-0.004048,0.042398,0.050427,0.004297,-0.084640,0.001243,0.044944,-0.042512,-0.023107,0.029853,-0.066572,-0.102543,0.102889,-0.077028,0.001085,-0.060279,0.127721,0.001802,0.038055,-0.032485,-0.000327,-0.002754,-0.048839,-0.125662,0.038493,0.041174,-0.081150,-0.086741,0.127471,-0.067912,0.062933,-0.090005,-0.000246,-0.030034,0.103139,-0.033215,0.052619,0.063882,0.099248,0.086132,0.006287,0.042075,-0.026807,0.007101,0.053277,-0.071823,-0.061230,-0.075010,-0.013291,0.128109,-0.081131,0.063972,-0.019887,-0.016081,0.090260,-0.032591,0.136580,0.123804,-0.010410,-0.056428,0.074626,0.051651,-0.017900,-0.093636,-0.025101,0.154248,-0.010137,0.011156,-0.006846,-0.032346,-0.013630,-0.011145,0.034796,-0.056409,-0.089983,0.050575,-0.016647,0.030908,-0.073017,-0.107356,-0.019810,0.007547,0.068464,-0.057051,0.009806,0.068667,0.084204,-0.009116,0.017181,0.008458,0.049229,-0.045825,0.096646,-0.004023,0.084316,-0.089937,0.076457,0.004680,-0.023813,-0.183005,-0.037289,-0.023758,-0.036416,-0.073978,0.056066,0.017809,0.061422,0.024681,0.025171,0.004248,-0.013286,-0.032901,0.025513,0.083335,-0.089643,-0.106962,0.081091,0.062571,-0.000172,0.028416,-0.027936,-0.025815,-0.016143,0.012063,-0.050327,-0.022824,-0.015705,0.075881,-0.060810,0.016527,-0.016371,0.030285,0.012353,-0.020241,-0.000470,-0.050502,-0.014722,0.066681,-0.018117,-0.006823,0.068217,-0.004046,0.097058,-0.037551,-0.065015,0.040155,-0.126308,0.127985,-0.033468,0.079492,0.088528,0.037372,0.107668,0.015154,-0.013932,0.091319,-0.022720,0.031248,0.013797,0.132354,-0.084288,-0.071537,-0.039992,0.092104,0.001676,-0.021737,-0.036048,0.041429,-0.025943,-0.066270,0.036858,-0.109860,0.124320,0.003219,0.048650,-0.049679,-0.042445,-0.017907,-0.024456,0.124128,0.021268,-0.005394,-0.063216,0.074606,-0.020676,-0.030962,0.013050,0.244648,-0.034066,-0.053240,0.010847,-0.137537,-0.065037,0.021416,-0.046817,0.132389,-0.002796,-0.030673,0.019029,0.039900,0.118852,-0.001933,-0.028570,-0.040468,-0.050530,-0.076908,-0.116873,-0.096798,-0.037931,0.081580,0.101951,-0.075147,-0.054583,-0.092708,-0.055190,0.052769,-0.028267,-0.072345,-0.114779,0.002945,0.055135,-0.045980,-0.044580,0.032828,-0.140032,-0.032769,0.078539,-0.065068,-0.063488,0.048346,0.018263,0.045130,-0.013250,-0.069408,0.039013,-0.036036,-0.077663,-0.012801,0.031479,-0.016109,0.023238,-0.061485,-0.028779,0.059401,-0.142487,-0.058730,0.062940,-0.081493,-0.089889,0.038256,0.064141,0.028481,-0.058338,0.026135,-0.044102,-0.026126,-0.023908,-0.061863,0.111773,0.109091,0.049201,0.058820,-0.077835,0.013404,-0.046296,-0.076130,0.021478,0.130568,0.096993,0.083045,0.097702,-0.037547,-0.029323,-0.072878,-0.055484,-0.032837,-0.070886,-0.078337,-0.063769,-0.035069,-0.009130,-0.070760,0.001353,-0.101153,0.033221,-0.023179,0.070067,-0.060717,-0.046651,-0.082558,-0.027033,-0.009040,0.018214,-0.028458,0.029921,0.000273,-0.074750,-0.034866,0.044444,0.006535,-0.068423,-0.028323,0.000859,-0.095194,0.006737,0.070958,0.002301,-0.078912,0.005601,0.043918,0.081071,-0.036365,-0.005440,0.076544,-0.096278,-0.003909,-0.033763,0.004009,0.005508,-0.008274,0.051820,0.082271,0.050084,0.045960,0.029504,0.082536,-0.035560,-0.048196,-0.110002,-0.152717,0.064532,0.017367,0.066177,0.001344,-0.004962,0.051884,0.036708,-0.054959,-0.031369,-0.050712,-0.054423,0.019605,0.021206,-0.124305,-0.041954,0.027798,0.082669,-0.020569,0.017521,-0.107927,-0.014797,0.029158,0.092254,-0.001873,-0.095236,-0.019551,0.033700,0.016720,-0.050439,-0.088292,-0.031594,0.087214,-0.039354,-0.033203,-0.055224,-0.025039,0.110970,-0.094974,0.080389,-0.043644,-0.013572
0.008249,0.066882,0.029570,-0.049689,-0.065868,-0.002641,-0.062415,0.036782,0.097997,-0.026700,-0.100767,0.173775,0.003572,0.069971,0.034514,0.066430,0.072588,-0.000491,0.014945,-0.046523,0.007733,0.128325,0.025169,0.007694,0.093833,0.001282,0.062555,-0.080818,-0.054982,0.024920,0.048890,-0.054922,-0.048106,-0.021551,-0.055190,-0.009156,-0.017663,0.008688,0.018863,0.027761,-0.030023,0.068186,0.030450,0.073912,0.005161,-0.044192,0.034606,-0.065580,-0.058044,-0.055255,0.071941,0.073082,-0.049519,0.023021,0.105924,0.012615,-0.031752,-0.141597,-0.020924,-0.066203,-0.025465,-0.074709,0.104542,0.077657,-0.002267,0.103530,-0.000460,-0.035334,0.003560,-0.041001,0.037064,0.010047,-0.034027,0.044318,-0.058089,0.052512,0.005113,-0.061062,-0.051360,-0.076301,0.068795,-0.070340,0.085978,0.083445,0.029822,0.015011,0.060945,0.026506,-0.034667,0.001006,-0.065986,0.050169,0.031681,-0.091719,0.041046,-0.051193,-0.046633,0.165277,0.037730,0.030118,-0.099397,0.072982,-0.078653,0.022524,-0.032837,-0.021080,0.015639,-0.096075,-0.001784,-0.058763,0.083773,0.091341,0.009199,-0.053176,-0.081865,-0.125132,-0.099478,0.042618,0.065417,0.018760,-0.006466,0.065950,-0.054356,0.024928,-0.057532,0.013313,0.054614,0.110739,0.110247,0.088426,0.118174,-0.055434,-0.126845,0.093230,0.003680,0.059493,-0.061384,0.119558,0.002172,-0.108456,0.054211,0.089418,0.016925,-0.018739,-0.001158,0.028262,0.043949,0.046872,0.003019,0.033033,0.077027,-0.027231,-0.043911,-0.087968,-0.050914,-0.012767,-0.032132,0.104494,-0.046325,0.074726,-0.067874,0.057838,0.130695,0.020610,0.169291,0.000838,-0.084342,-0.090619,-0.046081,0.053387,-0.091079,-0.001850,0.156336,-0.019672,0.081843,0.016420,-0.088372,-0.033070,0.151695,0.014958,0.143040,0.016672,0.010258,0.062134,-0.001260,0.093261,-0.062311,-0.079359,0.014863,-0.047394,-0.049758,0.045439,0.097135,-0.010070,-0.122434,-0.001303,-0.066386,-0.068170,0.008859,0.108640,0.053670,-0.011318,-0.037557,0.029758,-0.038023,0.034289,0.025308,-0.040655,-0.029738,0.084501,0.049480,0.049768,-0.012155,-0.098943,0.013089,0.013682,-0.023134,-0.048033,0.039266,-0.008630,0.074182,-0.066618,0.081786,-0.023393,0.008345,0.057728,0.049694,-0.131489,0.011822,-0.014067,0.040748,0.017765,0.077521,0.019272,-0.017255,-0.067780,-0.040794,-0.002846,0.103675,-0.015928,-0.077371,0.045928,0.035848,-0.068756,-0.055756,0.074208,0.005128,0.088967,-0.034647,0.148850,-0.001636,-0.039889,-0.009864,0.167165,-0.021581,-0.073910,-0.012340,-0.008499,-0.070919,0.062314,-0.052156,0.003884,-0.041387,0.101253,0.027069,0.030710,0.016487,0.004836,0.000775,-0.060195,-0.041955,-0.023547,0.035273,0.035663,-0.166499,-0.012987,0.025249,0.053611,-0.034776,0.055478,0.119628,-0.016706,-0.032141,-0.101846,-0.048454,-0.143585,-0.014383,-0.067482,-0.056720,-0.067377,-0.100185,0.074558,0.074209,0.047417,0.012619,-0.024293,0.012695,-0.037115,-0.101573,0.058160,0.049612,-0.036572,-0.057010,-0.117731,0.004529,-0.007199,0.001445,0.059233,0.094039,-0.011661,-0.097605,0.112970,0.039539,-0.040101,-0.008782,0.086809,-0.022814,0.016936,-0.071263,0.038968,0.021092,0.032968,-0.048533,-0.010667,-0.029107,0.014873,0.080256,0.067441,0.091170,0.003250,-0.018140,0.077302,-0.061077,-0.090670,-0.129693,-0.049573,-0.006261,0.027606,-0.069721,0.030476,-0.009185,0.137596,-0.067266,0.051224,-0.016526,0.069718,0.009517,0.064902,-0.071345,0.049706,-0.025220,-0.107268,-0.050590,0.133324,-0.014085,-0.044690,0.010070,-0.031236,-0.023411,0.095081,-0.029151,-0.005236,-0.046942,-0.047113,0.057021,0.030707,0.109019,-0.031627,0.099375,0.030870,0.055185,0.016573,0.016888,-0.056344,0.067786,-0.011077,-0.006459,0.012522,-0.044157,0.030458,0.111514,0.092127,-0.075997,-0.030222,-0.041880,-0.001912,-0.050948,-0.094333,0.023342,-0.038285,0.041823,0.010429,0.031440,0.000659,-0.083578,-0.133637,0.015443,0.006357,-0.081201,-0.047187,-0.025707,0.005605,0.047938,0.014075,0.064751,0.075023,0.113765,-0.067538,0.038726,0.133319,0.063121,-0.020125,-0.034500,-0.009601,-0.049287,-0.031568,-0.043428,-0.004168,-0.050711,-0.006056,0.049614,-0.002007,0.154914,-0.079776,-0.042552,-0.010892,0.068128,0.073696,0.008431,0.049307,-0.003521,-0.004802,-0.078231,0.031655,0.065483,0.056208,0.012617,-0.011114,0.039425,-0.059115,-0.061767,0.049919,-0.007601,-0.071153,-0.024880,0.015945,-0.107109,-0.037191,0.104060,-0.113855,0.043282,0.090133,0.035906,-0.028427,-0.027808,0.033854,0.059478,0.002405,0.108782,0.000298,-0.056253,-0.140313,-0.011986,0.000538,0.101452,-0.059252,-0.032253,0.043546,-0.052040,-0.039157,-0.043604,-0.008605,-0.008602,-0.027457,-0.033130,-0.015509,0.025879,0.043469,0.138009,-0.093058,-0.058355,-0.063602,-0.036049,0.055142,-0.047866,0.027853,-0.066768,0.050281,-0.038462,-0.022719,0.012668,0.046731,0.093747,0.035280,-0.075691,-0.070826,-0.013592,-0.036545,0.003562,-0.049532
-0.034955,0.052378,-0.045919,0.034942,0.050737,-0.020419,-0.002586,-0.027355,-0.050844,-0.010886,-0.011499,0.092989,-0.010353,0.039295,0.068073,0.065443,-0.049278,0.032077,-0.132769,-0.026199,0.052590,-0.043051,0.022499,-0.014926,0.045129,-0.072748,-0.078211,0.002035,0.039141,-0.029478,0.045231,-0.002578,0.156114,0.123810,-0.109248,0.080285,-0.008040,-0.029410,0.095266,-0.027539,-0.057872,0.035002,0.035968,-0.167831,-0.120264,0.125680,-0.022146,0.033710,-0.068996,0.014083,-0.040556,0.133704,0.018424,0.018154,-0.151761,-0.041545,0.070032,0.090197,-0.119733,0.017989,-0.055126,0.029829,0.089577,-0.022073,-0.033078,0.043084,-0.099332,0.030163,0.159068,0.067852,-0.037599,-0.117258,0.053216,0.008535,-0.072649,0.055828,0.019972,-0.032997,-0.062722,-0.072677,-0.041500,0.047191,0.076626,-0.021002,-0.063741,-0.074747,0.012191,-0.020963,0.022044,0.056494,0.068012,-0.071086,0.043166,0.050362,0.088897,-0.146999,0.123534,-0.034894,0.018311,0.092973,0.075815,-0.052519,-0.025778,-0.035980,0.051855,0.180336,0.059875,-0.124668,-0.035269,-0.105660,0.003799,-0.027244,-0.003292,-0.081153,-0.096144,-0.073702,-0.087444,-0.078655,0.024135,-0.047928,0.056960,-0.022548,0.128943,-0.063606,0.038187,0.016284,0.027558,-0.105669,-0.065671,0.025362,0.017171,0.104881,-0.120295,-0.006985,0.056230,-0.131689,0.184308,0.043252,0.031816,-0.087852,-0.009655,-0.174105,-0.185141,-0.006025,-0.031467,0.031746,-0.152235,0.070268,0.142735,0.057548,0.209011,0.032086,-0.036276,0.063967,0.070979,0.070555,0.048913,0.083668,-0.038033,-0.090673,-0.089040,-0.020876,-0.050917,-0.070720,-0.054040,0.066662,0.047070,0.009307,0.055079,-0.060722,0.153888,-0.109239,0.026851,0.073416,-0.070255,0.048193,-0.060493,0.109818,-0.073841,0.036668,-0.165636,-0.043707,-0.012953,0.089273,0.072970,0.064353,-0.024966,-0.078307,0.051857,0.058193,-0.027352,0.056047,-0.167503,-0.039934,-0.064190,-0.094510,0.141463,0.137279,-0.080374,-0.060631,0.131018,-0.039429,-0.025002,-0.102139,0.116192,0.038556,-0.100619,0.051432,-0.107626,0.065330,-0.006820,0.003394,-0.012639,0.090973,0.081693,0.038764,0.006055,0.015251,0.011819,-0.088139,-0.079317,0.059977,0.154705,-0.053441,-0.072801,-0.025139,-0.043280,-0.044742,-0.011938,-0.055735,0.084278,0.107314,0.068428,0.022211,0.071699,-0.042906,-0.047411,0.012541,0.060585,0.065011,0.066413,-0.019917,-0.082594,0.033132,-0.069563,0.109891,-0.030842,-0.035320,0.028656,-0.118634,0.029204,0.040296,0.001837,-0.014171,0.122352,-0.019061,0.024018,-0.067090,0.072387,0.101850,0.017815,0.046685,-0.038139,-0.075973,-0.036665,0.014914,0.044899,-0.040545,0.057100,0.060772,0.037888,0.049803,0.049685,-0.011848,-0.056287,-0.105456,0.088926,0.100646,-0.116111,0.090729,-0.066946,-0.030858,0.036142,-0.020095,-0.089479,-0.132318,-0.037304,-0.001967,-0.014997,-0.046427,0.114763,0.018028,0.120976,-0.148329,-0.011151,0.112776,-0.025575,-0.092613,0.041940,0.012283,-0.012275,0.006591,0.143628,0.073467,0.109261,0.124960,0.051689,0.126054,-0.077207,0.013666,0.077421,-0.079299,-0.014286,-0.005671,0.026773,0.061295,0.107176,0.044762,-0.066582,-0.019976,-0.085534,0.103859,-0.203391,-0.067072,-0.110315,-0.088916,-0.120076,0.055687,0.104683,0.111405,0.051948,-0.034158,0.013869,-0.056670,-0.038815,0.003423,0.106660,0.071214,-0.107587,0.091229,-0.053030,-0.033024,0.041230,0.022403,0.201057,0.008632,-0.024985,0.030701,-0.054162,0.021133,-0.075618,0.019175,0.032026,0.046188,0.050410,-0.049877,-0.117026,-0.086838,0.076063,-0.027076,0.007396,0.066243,-0.037285,0.045070,-0.049217,0.030012,0.085330,-0.082451,-0.023403,0.034735,0.123597,-0.088907,0.042953,-0.053652,-0.131522,0.072353,-0.002141,-0.123018,0.043637,-0.035615,0.165970,-0.158714,0.044821,0.130825,0.002688,-0.019319,0.072807,-0.023798,-0.031716,0.016186,0.171928,0.035263,-0.034679,-0.007431,0.071315,-0.039435,-0.077266,-0.002443,0.158452,-0.055393,0.041761,-0.056864,0.079828,-0.132913,0.046762,-0.022296,-0.076523,0.114286,0.090280,0.061107,0.071454,-0.009504,-0.079003,0.026077,0.140522,0.046463,-0.001589,0.058558,-0.055376,-0.042989,-0.059385,0.046949,-0.090570,-0.128299,-0.053510,-0.027200,0.055297,0.010589,0.125290,-0.038562,0.050110,0.075567,-0.075266,-0.015369,-0.096094,-0.074842,0.044421,0.065593,0.051162,-0.036721,-0.077998,-0.029520,0.197287,0.062354,-0.053249,0.024323,-0.001697,0.061651,-0.068613,-0.038689,-0.147915,-0.132389,-0.003879,0.000433,-0.035979,-0.029287,-0.049983,0.104539,-0.149301,-0.014317,0.056528,0.067608,0.120386,0.019215,0.139851,0.033185,0.077007,-0.096844,-0.022905,-0.056210,0.170432,0.095018,-0.021272,-0.058516,-0.009386,0.024284,-0.048245,0.122394,-0.039374,0.041088,-0.106284,0.047376,-0.091868,0.085730,-0.010064,-0.009238,-0.015260,0.093650,0.066463,-0.150946,-0.006940,-0.080170,-0.053681,-0.058247,-0.023702,-0.063105,0.142969,0.114485,-0.102799,0.076459
0.039595,-0.116081,-0.089304,-0.077635,0.055762,-0.036460,0.029918,-0.086100,-0.035713,0.075656,0.093992,-0.101828,0.002275,-0.088524,-0.115867,-0.082511,-0.151987,-0.077720,0.138417,-0.052022,0.225596,-0.084985,-0.027400,-0.015243,-0.067890,-0.047986,-0.029689,0.115309,0.001583,0.002821,-0.058426,-0.005705,-0.024794,0.070077,0.042282,-0.055621,-0.016744,0.108418,-0.132276,0.024236,-0.021896,0.115004,-0.071718,0.271138,0.046309,-0.123293,0.027203,0.088893,-0.016733,0.099340,0.079311,-0.053498,-0.068051,-0.097830,0.195250,-0.018962,-0.053358,0.064538,0.014798,0.131017,0.036251,0.078952,-0.080981,-0.040207,0.022468,-0.036353,-0.102395,-0.041394,0.085350,-0.005615,0.099957,-0.052609,0.046298,-0.136072,0.024145,0.042787,0.147271,0.013427,-0.091703,0.040994,0.059587,-0.086420,0.044353,-0.077279,0.056766,-0.039664,-0.029105,-0.002361,0.005782,0.058290,-0.032836,0.036848,0.040425,0.085558,0.015340,0.051357,-0.068935,0.039314,-0.041578,-0.039325,0.179781,0.030962,0.093266,0.009260,0.038267,0.033112,0.085339,0.092097,-0.016521,0.138003,-0.029513,-0.025980,-0.013321,0.087042,-0.029816,-0.029584,-0.042786,-0.159265,0.085958,-0.028598,0.036841,0.047936,-0.008067,0.052082,0.042790,-0.068902,-0.083679,0.011700,0.000460,0.078435,-0.052303,-0.050848,-0.045114,-0.097572,0.031546,0.042720,-0.025274,0.067877,0.025609,-0.006776,-0.145919,-0.031448,0.113810,0.025681,0.088610,0.066373,-0.034383,-0.042181,-0.102677,0.005351,0.001044,0.013062,-0.108055,0.053892,-0.027833,-0.024509,-0.001782,-0.142313,-0.054665,-0.054330,-0.025557,-0.021755,-0.039432,0.010192,0.014059,-0.013539,0.020216,0.017118,-0.004170,0.009246,-0.012779,-0.061339,-0.036792,-0.069939,0.134782,0.053942,-0.080612,0.067913,-0.018607,0.001352,-0.051074,0.021578,0.017027,-0.047418,0.093523,0.013836,-0.160182,0.119552,-0.103348,0.013467,-0.060696,-0.009139,-0.122302,-0.083286,-0.048527,-0.068620,-0.059784,0.026967,-0.026311,0.003897,-0.021348,-0.108148,-0.031624,-0.084665,0.060162,-0.057338,-0.168426,0.013286,-0.036334,0.139883,-0.059916,0.050362,0.086592,0.022299,0.081809,0.009549,0.053561,-0.041332,0.092920,0.031842,0.070211,-0.062376,0.084634,-0.074197,0.004166,0.026638,-0.100912,-0.024229,0.275026,-0.070414,-0.042982,-0.052059,0.057826,0.005353,-0.252622,0.025676,0.039286,-0.043629,-0.070553,0.041343,-0.057523,0.042018,-0.081248,-0.090276,0.018465,0.014345,0.051556,-0.068586,-0.107780,-0.069266,0.001726,0.058075,-0.026308,-0.067250,-0.007606,0.031454,-0.076612,-0.066259,0.153193,0.043809,-0.090111,0.068002,0.032799,0.109188,-0.051786,0.022375,0.052657,0.006186,-0.078060,-0.091900,-0.075233,0.086500,0.068645,0.050741,0.167483,-0.079323,-0.041918,-0.120788,0.002165,-0.025900,-0.097855,-0.098330,0.000813,0.116944,0.021041,0.056589,-0.136993,0.072964,-0.155014,0.077406,0.008067,0.037710,-0.118136,-0.081012,0.017910,0.003873,0.022413,0.059803,-0.036173,0.049326,0.071813,-0.072460,-0.111283,0.038113,-0.019305,-0.078584,-0.108535,0.033288,0.057963,-0.058056,0.000061,-0.053809,0.073307,-0.061506,-0.010670,-0.100963,-0.093877,-0.014264,-0.033734,0.067014,0.068134,-0.069617,-0.026216,-0.093462,0.033114,0.072292,-0.026160,-0.047042,-0.172219,0.050063,-0.029752,0.019999,0.068937,0.138734,0.165254,0.066487,0.103553,0.078542,-0.016878,-0.001804,0.035642,0.064533,0.093878,-0.031038,-0.046413,-0.003554,0.043780,-0.014155,0.030975,0.029390,-0.028276,0.086118,-0.064040,0.143024,-0.000544,-0.063676,0.060000,-0.018481,-0.155230,-0.015358,-0.060206,-0.009354,0.008771,0.000135,0.006596,-0.017881,-0.016129,0.132256,0.117090,0.030561,-0.017282,0.089625,0.032454,0.114187,-0.010333,-0.015647,0.075988,0.004133,-0.062080,-0.096701,0.090565,0.072791,-0.156902,0.006202,-0.001513,-0.034709,0.050506,0.015116,0.034352,-0.058101,-0.036452,0.065571,-0.097755,-0.030512,0.070979,0.023825,-0.060898,-0.027772,0.026600,-0.007450,0.068816,0.010195,0.124745,0.168022,-0.053882,0.012915,0.094901,0.015235,-0.042526,-0.094200,-0.137223,-0.059063,0.171534,-0.076346,-0.052780,-0.019555,0.140283,-0.028703,0.011782,0.005625,-0.041481,0.051371,-0.058835,-0.056931,-0.107337,-0.047339,-0.003083,0.064789,-0.007510,-0.110714,-0.003493,0.146935,0.161554,0.055399,-0.138756,0.055863,-0.105201,-0.071547,0.010729,-0.035877,-0.043430,0.016172,0.022018,0.030626,-0.102336,-0.115318,0.070348,0.006139,-0.077461,0.094354,-0.006444,-0.136300,0.117359,0.037465,-0.064254,0.025674,-0.050519,0.051718,0.102512,0.142065,0.014330,0.018547,0.002524,-0.056994,-0.032183,0.102801,-0.040785,-0.021118,0.042123,-0.053752,0.005756,-0.047103,-0.085211,0.043409,-0.037679,0.020762,-0.086397,0.054866,0.117981,0.097169,0.003294,-0.110892,-0.006881,0.040285,0.052387,0.038823,0.169469,-0.008632,-0.060193,-0.047787,0.164356,0.058708,0.114275,-0.047611,0.120983,-0.074648,-0.112253,-0.068020,0.007738,0.023297
-0.060940,0.011175,-0.002370,-0.032548,-0.101381,-0.014822,0.036433,0.023149,0.192829,-0.077874,-0.001194,-0.023566,-0.043054,-0.055123,0.037157,0.036637,0.161052,-0.043146,-0.010654,0.003239,-0.079878,0.014951,0.056043,0.036688,0.157337,0.002684,-0.067837,-0.091981,0.057342,0.013333,0.129615,0.041863,0.015793,0.111020,0.096203,0.008518,0.011970,-0.115545,-0.060142,0.080865,-0.045715,-0.070162,0.014382,-0.043176,0.029446,-0.066755,-0.002945,-0.025337,0.065499,-0.008711,-0.017297,0.062515,0.083404,0.036990,-0.081282,-0.099094,-0.021348,0.002803,0.020155,-0.061976,0.097060,0.053545,0.056887,0.175038,-0.059664,0.049827,-0.043536,0.013319,-0.089984,0.056964,0.063136,-0.010139,-0.074394,0.094597,-0.029496,0.004053,-0.010226,-0.127937,-0.098885,-0.044876,0.081641,0.173057,0.025036,0.041819,0.054187,0.056523,0.070704,-0.015529,0.061382,-0.021681,-0.072472,0.071139,-0.125522,0.061938,0.022017,0.077711,-0.071077,-0.063155,-0.014933,-0.006087,-0.198236,0.042894,-0.022915,0.044392,0.124720,-0.094581,-0.033876,-0.077527,-0.054667,-0.133876,-0.026845,0.107244,0.036683,0.026213,-0.089102,-0.114009,0.111745,0.110180,-0.019338,0.100712,-0.015853,-0.027367,-0.184361,-0.040169,-0.017559,-0.028456,0.154600,0.026032,0.124745,-0.088519,-0.024179,0.106686,0.035033,0.074645,-0.088172,-0.132458,-0.155420,0.002995,0.047050,0.113492,0.080089,-0.097085,0.143820,-0.013807,0.012446,-0.100194,-0.002279,-0.073995,-0.068232,0.053734,-0.021729,0.031668,0.101188,0.051546,0.010474,0.103912,0.024892,-0.051150,-0.021974,-0.009567,0.151940,0.132586,-0.101070,-0.011040,0.067324,-0.001460,-0.010037,-0.058232,0.055813,-0.010456,-0.057780,-0.043008,0.001823,0.005373,0.058025,0.004024,0.020710,0.051752,-0.068278,-0.028199,0.029639,-0.051577,0.035169,0.050324,-0.040096,0.026679,0.045455,-0.030143,-0.029576,0.043251,0.022530,0.049352,-0.087907,0.093623,-0.024475,-0.034609,0.046771,-0.074098,0.063651,-0.101124,0.063765,0.046579,0.004786,0.081455,-0.183145,0.005880,0.057353,-0.012278,0.128480,-0.121661,-0.024471,0.059505,-0.048896,0.093216,-0.186518,-0.049942,-0.076743,-0.020626,0.077209,-0.027674,-0.057542,-0.018644,-0.092255,-0.087172,-0.009527,0.010894,0.087203,0.049942,-0.069792,0.039130,-0.179022,0.039479,0.108786,0.041394,0.017916,0.073414,-0.061318,0.047907,0.016150,0.078088,0.128431,-0.091755,0.016048,0.030002,0.137139,-0.064821,-0.106688,0.053447,0.055329,0.089085,-0.036187,0.016302,0.014592,0.106294,0.000268,0.074041,-0.081920,-0.026615,-0.087885,0.059700,-0.013736,0.093917,-0.037643,0.035071,-0.048171,-0.020862,-0.032883,-0.030977,-0.056218,-0.061030,0.130634,0.058356,0.001284,-0.145834,-0.137860,0.033284,0.074044,0.007793,-0.193860,0.053281,-0.029428,0.010316,-0.031410,-0.112112,-0.137159,0.015773,-0.055995,-0.009390,0.006171,0.111333,-0.126296,0.041583,-0.127036,0.053991,0.024947,0.039068,-0.000557,0.104612,0.177830,-0.112759,-0.002242,-0.007207,0.104964,0.036207,0.042747,0.020902,-0.134757,-0.047066,-0.085067,-0.082684,0.112423,0.088398,-0.015603,-0.008481,0.035986,-0.042841,0.007017,0.035538,0.071847,0.043018,-0.063531,0.007875,0.018059,-0.081514,-0.063177,0.047577,-0.010438,0.039289,0.095449,-0.073703,0.042768,-0.014080,0.014712,-0.033832,-0.009188,-0.135268,-0.021646,-0.010405,0.036064,0.050385,0.084219,0.095715,-0.028493,0.006162,0.043338,-0.036631,-0.107394,0.021296,0.189356,0.048820,0.053251,-0.151585,0.024832,-0.125697,0.016567,0.076179,0.105896,0.042198,-0.025466,-0.027744,0.002463,-0.014886,-0.025296,-0.146933,0.033926,0.007967,0.070426,-0.064936,-0.129561,-0.045716,-0.042167,0.012099,-0.036971,0.030234,0.141018,-0.007603,-0.086242,0.054691,0.027999,0.036347,-0.003061,-0.026926,-0.033060,0.011435,0.011860,0.006347,-0.067493,-0.031354,-0.056005,-0.047530,-0.099133,-0.104747,-0.062728,0.055207,0.039220,0.117584,-0.092555,0.068679,-0.091852,-0.010669,0.012031,-0.095843,-0.015419,-0.056871,0.050761,-0.009109,0.127424,-0.020176,-0.043908,0.026957,0.088196,-0.066964,-0.047826,0.104045,0.118966,-0.024317,-0.042349,0.020061,0.025380,0.012425,0.065495,-0.144382,0.010787,0.111726,-0.095010,0.117326,-0.061135,-0.036291,-0.007161,-0.039153,-0.092719,-0.009353,0.022818,-0.009736,-0.077158,0.096369,-0.048188,0.047597,0.043359,-0.043408,-0.124135,0.053932,-0.070871,0.034541,0.136883,0.095913,-0.013455,-0.025541,0.069507,0.019227,-0.104678,0.023491,-0.166426,-0.073595,-0.094851,-0.054062,0.052128,-0.027908,0.039893,0.019925,-0.053030,-0.091175,-0.093739,-0.033395,0.019191,-0.062112,-0.028222,0.196582,-0.040836,-0.077219,-0.058970,0.045973,0.054787,0.061668,0.059376,0.006711,-0.015445,-0.183125,-0.075321,-0.156798,-0.009654,0.083066,-0.056622,0.092651,0.111340,0.060040,-0.095203,0.078953,-0.048715,0.051117,-0.065634,0.024757,0.015115,0.013176,-0.048458,0.035080,0.053258,0.017472,0.066224,0.004696
0.012949,-0.052900,-0.068664,0.031403,-0.165487,0.019054,-0.012553,0.074907,-0.001708,0.087481,0.187600,-0.063850,0.046909,0.014067,-0.050131,0.049334,-0.012596,-0.030731,0.075166,0.032193,-0.017494,-0.057871,0.012078,0.055775,-0.104144,-0.047535,-0.002459,-0.017973,-0.037281,-0.073199,-0.103877,0.087284,0.043632,-0.120219,0.067314,0.195786,0.068624,0.053214,-0.009779,0.009034,-0.035840,0.005232,-0.050784,0.138990,0.002253,-0.005272,0.083894,0.035176,0.133238,-0.080885,0.040823,-0.089541,0.045220,0.170731,-0.068059,-0.064964,0.005153,-0.117514,-0.070503,-0.008225,-0.005873,-0.071594,-0.097915,0.114347,-0.064371,0.060587,0.209238,-0.014066,-0.057727,-0.037740,-0.030847,0.035634,-0.043735,0.073113,-0.052512,-0.001300,-0.059724,0.083498,0.171677,-0.020946,-0.171347,-0.135902,0.076007,-0.094278,-0.042351,-0.081704,-0.139268,-0.170186,0.043379,-0.055559,-0.134154,-0.064520,0.019544,-0.056093,0.112158,0.117182,0.082890,-0.074081,0.013482,-0.044666,-0.097400,-0.048571,0.071911,0.083102,-0.091492,0.002298,-0.012855,0.052947,0.005874,0.171332,-0.036000,-0.052176,-0.123413,0.108686,0.142860,-0.034110,0.030375,-0.090388,0.013527,-0.003897,0.008256,0.039338,-0.062002,-0.025286,-0.034772,-0.014069,-0.069950,0.064562,0.058498,0.092519,0.065819,0.035177,0.101076,-0.037421,0.010681,0.112375,-0.016271,0.037119,0.001674,0.106699,0.047892,0.129379,-0.045708,-0.007946,-0.024872,-0.107097,0.190022,0.042828,-0.024583,0.064707,-0.164408,-0.032429,0.100043,0.045822,0.080114,-0.087658,-0.075503,0.072910,0.136865,-0.003832,-0.133161,-0.085743,-0.056838,0.123269,-0.040397,0.026959,-0.020994,-0.059606,0.030517,0.074242,0.047503,-0.009294,0.043472,0.003273,0.021123,-0.025796,0.157566,-0.129318,-0.022641,0.002391,0.061445,-0.015937,-0.069453,-0.125699,-0.071354,-0.175553,0.020445,-0.098376,0.070200,0.050120,0.021721,0.022570,0.033354,0.020942,0.078681,-0.045092,-0.048016,0.007428,-0.004591,0.062178,-0.051867,-0.064788,-0.030161,-0.020485,-0.094624,-0.045971,0.040124,-0.048136,0.080609,-0.102150,0.031581,-0.101017,0.026169,0.016288,-0.036802,-0.070093,0.031310,0.067945,-0.153292,-0.059172,-0.130045,-0.122596,-0.062511,-0.069274,-0.011134,-0.004185,-0.122316,0.030980,0.020456,-0.043211,-0.004304,-0.077003,-0.030090,-0.019774,-0.039860,-0.025667,0.064129,0.026282,-0.033209,0.043894,0.107114,-0.051583,0.106611,-0.036371,-0.028386,0.039527,0.152471,0.052544,0.053200,0.069929,-0.016818,-0.015789,0.007484,-0.001226,-0.023370,-0.039152,0.094462,0.081760,0.102465,0.107371,0.000553,0.058681,0.003933,-0.042018,-0.046457,0.039020,0.084637,0.052520,-0.020523,-0.134497,0.036579,-0.109592,-0.029350,-0.058677,0.056094,0.021230,-0.116345,0.041998,0.146604,-0.015886,-0.051142,0.001823,0.016059,0.214205,-0.020221,0.015969,0.011764,-0.022787,0.063926,-0.021385,0.044513,0.038439,0.009955,-0.030730,0.000277,0.048920,0.018936,0.006202,0.046543,0.041348,0.080665,-0.113114,0.052995,0.135316,0.049602,-0.024476,0.053757,-0.070745,0.063981,0.078102,0.037731,0.056444,0.062653,0.053184,-0.095451,0.020337,-0.221280,0.049905,0.084442,-0.033502,0.068473,0.015568,-0.089364,0.013230,-0.088578,-0.079044,0.022882,-0.005000,-0.097465,-0.021690,-0.019240,-0.017257,-0.032574,0.063431,0.044907,0.175834,0.135133,-0.061341,-0.018612,-0.138447,0.074635,-0.093512,0.066279,0.075237,-0.044397,0.080257,-0.020675,0.079465,-0.042521,-0.083999,0.087143,-0.041238,0.019559,0.003614,-0.039181,-0.015566,-0.067850,0.130163,0.034276,0.113039,-0.003057,-0.101139,-0.046914,-0.026659,-0.056435,0.093321,0.004902,0.063898,-0.082454,0.021074,0.031330,-0.067436,0.022502,0.029593,-0.040969,0.046153,0.108658,-0.042385,-0.079535,-0.015927,-0.153744,0.031576,0.009056,-0.107630,-0.107865,-0.002483,0.085820,0.020426,-0.105590,-0.004421,0.046354,-0.052872,0.063095,-0.011502,-0.004240,-0.015804,0.054008,0.008444,-0.023154,0.012935,-0.014745,-0.079804,0.006652,0.082535,-0.047774,-0.003764,-0.042776,0.057278,0.064543,0.016455,-0.019365,0.036215,-0.004593,0.082849,0.045675,-0.109218,0.017916,-0.050040,-0.069160,-0.020228,-0.029892,0.028531,0.044310,0.020127,-0.059009,-0.038100,0.087615,-0.079494,0.026951,0.014901,-0.039740,-0.077563,0.137943,-0.043707,0.090727,-0.098417,0.028464,0.045476,0.036574,0.056971,0.086227,-0.049616,-0.068864,0.030145,0.050309,-0.062550,0.083184,-0.094494,0.103502,-0.032823,0.034991,0.115631,0.094202,0.110063,0.082083,-0.064671,-0.113104,-0.035327,0.003195,0.017074,0.052882,-0.012587,-0.060511,0.054248,0.059287,0.102798,-0.143151,-0.057446,-0.068464,0.163273,-0.033427,0.024723,-0.044537,-0.045469,0.038296,0.023399,0.035527,-0.020870,0.134023,0.168392,0.106076,0.055065,0.123170,-0.217014,0.054273,-0.023100,0.031681,-0.034737,0.116340,0.030045,0.124328,0.125432,0.046431,0.059983,0.032813,-0.056672,0.058696,0.085546,-0.040589,-0.021722
0.109258,0.131480,0.054796,-0.065625,-0.133772,0.028988,0.004611,0.001987,0.060285,0.136145,-0.052133,0.002133,-0.033974,0.094629,-0.126198,-0.034197,-0.022074,0.068305,0.017836,0.120407,-0.113314,0.057020,0.003074,-0.029416,-0.017045,0.026214,-0.030023,-0.042476,0.055351,-0.022652,-0.058951,-0.073516,-0.078863,-0.013171,-0.059012,-0.100259,0.003873,0.032626,-0.012682,-0.053408,0.060565,-0.077156,0.012444,-0.123810,0.051188,0.068477,0.001696,0.040873,0.087549,-0.061029,0.008979,-0.063771,-0.050598,0.168495,-0.076404,-0.042067,0.108663,0.034511,0.033512,0.000678,-0.029609,-0.023457,-0.054212,0.044211,-0.027480,0.045927,-0.099324,0.029330,-0.021802,-0.000193,0.027493,0.021906,0.002664,-0.109086,0.008214,0.031556,-0.067530,-0.041234,0.145234,0.046877,-0.068744,-0.100696,0.003152,-0.067661,-0.029890,-0.008487,0.040308,0.070715,0.121878,0.036580,-0.102555,-0.035875,0.105122,-0.099034,0.060945,0.079655,-0.001399,0.059507,-0.037870,0.091388,-0.138201,0.022889,-0.092092,0.046359,-0.086214,0.036239,0.042560,0.104421,-0.047133,0.148040,0.004482,0.023827,-0.073267,0.003473,0.112766,0.044988,0.106041,-0.104576,-0.030784,-0.053693,0.057820,-0.095028,0.033279,0.034723,-0.032924,-0.049024,0.065961,0.054838,-0.043908,0.068411,-0.069937,-0.019951,0.135673,-0.060838,-0.038335,0.015603,0.047010,-0.116003,-0.058322,-0.105261,-0.009061,0.063292,-0.012514,-0.088922,0.127444,-0.008695,-0.058016,-0.084598,0.091743,-0.042854,-0.091841,0.159444,-0.077929,-0.073351,0.120440,0.063148,0.011293,-0.029731,0.027441,-0.068790,-0.039769,-0.009684,-0.008504,-0.043148,-0.002937,-0.014423,-0.067966,-0.097295,-0.114522,0.112425,0.031208,0.000925,-0.079906,-0.047488,-0.014973,0.019168,-0.152310,-0.044345,0.097622,-0.063045,0.113448,-0.037926,-0.112316,-0.147498,-0.001922,0.058401,0.090970,-0.106659,0.046094,-0.035163,-0.029689,-0.113365,0.156327,-0.079918,0.098003,-0.123042,-0.021043,-0.048342,-0.048752,0.063268,-0.022240,0.053124,-0.014450,0.029914,-0.026390,-0.053778,-0.015398,-0.007844,0.059204,-0.027414,-0.055252,0.107647,-0.169854,-0.132597,-0.014094,-0.124396,-0.028149,0.158970,0.066016,-0.004100,0.057785,0.009514,-0.033561,0.007636,-0.058446,-0.025898,-0.029351,0.032271,0.033952,0.001614,0.113580,-0.018197,0.045153,-0.011797,-0.012409,0.135578,-0.044324,-0.048777,-0.051771,0.006890,-0.007711,-0.023585,0.037380,0.031983,0.100531,-0.000998,-0.009937,0.021532,-0.052840,-0.038861,-0.052656,-0.097659,-0.011080,-0.033412,0.064294,-0.059425,-0.073399,0.013813,-0.050609,-0.029787,0.060974,-0.048293,-0.037910,-0.026472,-0.025695,-0.003788,-0.128181,0.009131,-0.078774,0.068185,0.001291,-0.105318,-0.031252,-0.017240,-0.064454,0.040319,-0.089735,-0.073925,-0.013628,-0.106229,-0.066920,-0.097796,-0.049193,-0.096269,0.065135,0.063563,0.249011,-0.085741,0.157007,-0.084117,0.096536,0.042582,0.028127,0.017609,0.021081,-0.004092,-0.003471,-0.090316,-0.056104,0.043634,-0.033458,0.055955,-0.003047,-0.043195,0.045486,0.077207,0.031258,-0.116176,0.048117,-0.029951,-0.069719,-0.042196,-0.078654,-0.081986,-0.121607,-0.017742,-0.032891,0.073795,-0.082126,-0.175623,-0.095315,0.041406,-0.156435,0.077603,0.035345,0.050072,0.014073,0.050841,-0.135884,-0.126457,-0.051688,0.020334,-0.177096,-0.004712,0.075226,0.057457,0.064037,0.081864,-0.003569,-0.028033,-0.124251,-0.067648,-0.073580,0.100252,0.141947,-0.055590,0.013609,0.070327,-0.032459,0.097514,-0.016716,-0.052723,0.010472,-0.082257,0.036320,0.076097,0.014491,-0.079996,-0.085885,-0.081729,0.024910,0.081858,-0.038103,0.116382,0.088103,0.015159,-0.059905,0.005113,-0.020470,-0.013737,-0.018401,0.003543,0.007672,0.003443,0.095722,-0.004812,0.055698,0.015961,-0.050670,0.031486,0.021313,0.001948,0.063218,0.096853,0.048884,-0.026563,0.102046,-0.047250,-0.011554,-0.007144,-0.027407,0.050829,-0.028647,0.003960,-0.026078,0.035064,0.009523,0.031825,-0.091913,0.041679,-0.005447,-0.041452,-0.006117,-0.023409,-0.045206,0.076050,-0.022734,0.020208,0.012574,-0.055653,-0.035977,0.132809,0.009200,-0.107110,-0.049702,0.059110,-0.006297,0.060558,-0.039834,0.011949,-0.006595,0.084820,-0.051520,0.017156,0.072980,0.077491,-0.055799,-0.029031,-0.033855,-0.014262,-0.037142,-0.010363,-0.107861,0.001990,0.097792,-0.068955,-0.013469,0.012757,0.006073,0.019522,0.052605,0.015268,-0.023464,-0.071595,-0.044561,0.008270,0.098815,-0.080478,-0.110127,0.161599,0.042866,0.086668,-0.074620,0.017749,0.010787,0.014570,-0.013092,-0.081285,-0.062314,-0.042775,0.012409,-0.030721,-0.030762,0.158034,-0.022864,-0.055809,0.094295,-0.180078,0.024150,-0.127054,-0.034954,0.009211,0.038312,-0.054403,-0.041115,-0.052103,-0.047314,-0.013024,0.024458,-0.057589,0.052476,-0.109718,0.105399,-0.032094,0.070710,-0.005776,-0.016527,0.121208,-0.109469,0.101486,-0.081885,0.010783,-0.073131,-0.033462,-0.084001,-0.091799,-0.068018,-0.030461,-0.113416,-0.055706
0.037169,0.053414,-0.078243,0.052696,-0.057503,0.101315,-0.037705,-0.006718,-0.060240,-0.134793,-0.001851,0.076092,-0.081079,0.006326,0.026351,0.030071,-0.050104,-0.013156,0.079790,-0.110786,-0.076099,0.018332,-0.020424,-0.029789,-0.009479,-0.043882,0.037179,0.076576,0.057987,-0.001212,0.084372,-0.011552,0.025087,-0.013777,0.032694,-0.017154,0.076701,0.020728,0.020694,-0.072666,0.160984,-0.018583,0.028191,0.087418,0.018745,-0.064717,0.059085,0.044634,-0.044512,0.028469,0.093006,0.075261,0.047464,-0.069495,0.094066,0.132079,-0.055005,-0.021592,0.068449,0.116266,-0.080692,-0.061791,-0.026294,-0.025381,0.020797,-0.087576,0.118212,-0.001706,0.091944,0.036007,-0.041722,0.129113,0.023863,0.013698,0.101663,-0.042783,0.097369,0.031500,0.025492,-0.018535,0.022116,0.060470,0.055541,-0.017311,0.115992,0.064164,0.034066,0.020693,0.012031,-0.050195,0.053688,-0.027992,0.026943,0.008732,0.035026,-0.099975,-0.025673,-0.048651,-0.067243,-0.041910,-0.033947,-0.052756,0.025289,-0.007073,0.000674,-0.113611,-0.027489,0.017854,0.030947,-0.130682,-0.038475,0.009092,-0.049834,0.027402,-0.066452,-0.068907,0.144351,0.001470,-0.048201,0.058869,-0.066938,-0.015064,-0.067087,-0.032798,0.082384,0.075205,-0.134903,0.008784,-0.070812,-0.053846,0.044112,-0.060834,-0.152599,-0.091577,0.062790,0.074329,-0.052946,0.030708,0.047509,0.104424,-0.097135,-0.008212,-0.048168,-0.025099,-0.102946,-0.040197,-0.067609,0.001086,-0.050594,-0.048607,0.107383,0.056306,-0.074238,0.094534,-0.119891,0.040800,-0.019515,-0.125655,0.124921,-0.002051,0.092473,-0.080043,0.039691,0.042688,-0.105204,0.022285,0.022166,-0.011110,0.056065,-0.024887,0.026698,0.087069,0.110263,-0.055910,0.056053,0.070715,-0.010373,-0.037201,0.155017,-0.074433,0.064412,-0.026344,0.072487,-0.060282,0.004984,-0.030839,0.084158,0.149698,0.013032,-0.091500,0.029703,-0.072968,0.019089,0.071616,-0.050321,0.138419,0.033052,-0.018846,-0.035779,0.020159,-0.018204,0.078314,-0.068832,0.019047,0.059071,0.069470,0.080861,-0.064029,0.025765,0.186826,0.028794,-0.020974,-0.011262,0.098485,0.079755,-0.061510,0.030207,-0.011765,0.079633,-0.034547,0.068794,-0.042714,-0.070340,0.087339,0.047684,0.038125,0.108418,-0.080079,-0.017094,0.032996,-0.072883,0.168316,-0.112592,-0.063102,0.114782,0.027602,0.033483,-0.087074,0.161240,0.047150,-0.003063,-0.018828,0.132751,0.148350,0.023306,-0.110682,-0.089102,0.033669,-0.057953,0.111999,0.016026,-0.135792,0.044617,-0.050244,0.137091,-0.030877,0.139299,0.108663,-0.129557,-0.063266,0.071165,0.051011,-0.048426,0.027726,0.065707,0.073191,0.020264,-0.007989,0.108187,-0.103440,0.024324,0.091778,0.064861,0.101984,-0.075294,0.115715,-0.054540,-0.014449,-0.000066,-0.019902,0.072522,-0.086522,-0.087225,-0.004820,0.079217,-0.078787,0.002132,-0.026252,-0.083244,0.074936,-0.001623,-0.060993,0.101247,0.009909,0.021391,-0.096847,-0.021224,0.065338,-0.226970,0.038819,-0.106701,-0.085774,-0.052216,-0.189836,-0.023535,-0.061423,-0.007746,0.120959,-0.029077,0.063454,-0.016287,0.055574,-0.117376,0.072100,0.088372,0.061605,-0.022543,-0.143086,0.132189,0.036901,-0.003190,0.076858,0.074557,0.003519,0.065502,0.081209,0.043178,-0.038188,0.031860,-0.038172,0.002108,0.018483,-0.056223,0.070393,-0.016341,-0.033909,0.041718,-0.028633,0.039276,0.110555,-0.104099,-0.065085,-0.086149,-0.059396,-0.206958,-0.021655,0.102369,0.026278,-0.039327,0.082377,-0.076713,0.003863,-0.039743,0.050701,0.001435,-0.034511,0.062070,0.028963,0.078809,-0.002487,-0.026471,-0.056730,0.098462,0.096936,-0.068206,-0.052279,-0.012548,-0.107915,0.220417,-0.071909,0.029824,0.132105,0.084656,-0.099563,-0.100522,0.009806,-0.080993,-0.048525,0.013420,0.051363,-0.098178,0.087146,-0.116935,0.031624,0.015086,0.024007,-0.025136,0.005134,0.056714,0.072775,-0.009717,0.070823,-0.005321,-0.006477,-0.028557,-0.031010,-0.095364,-0.035864,0.005167,0.053255,0.001637,0.179744,0.027661,-0.113634,0.111901,-0.029400,0.056046,-0.113278,0.043910,0.053418,0.146713,-0.034538,-0.065482,0.039716,0.087923,0.191704,-0.096134,0.046649,-0.003879,-0.023617,0.030854,-0.113906,0.008319,0.000656,-0.115950,-0.025580,-0.046066,0.032440,0.033639,-0.039157,0.044348,-0.048186,-0.032768,0.022333,0.051646,0.081856,0.061070,0.053909,-0.066561,0.063632,-0.090728,-0.018194,0.042309,-0.084363,-0.084605,0.091168,-0.079098,-0.038061,-0.001208,-0.096072,-0.020392,-0.010263,0.112919,-0.012489,-0.085561,-0.050245,-0.021431,0.033257,0.042801,0.066100,0.033096,0.029807,0.008352,-0.075304,0.043573,-0.038743,0.050434,-0.010007,0.075890,0.030131,-0.010078,-0.056250,0.113152,0.028555,-0.007518,0.089668,-0.035136,0.057133,0.021854,0.086219,-0.069958,0.064713,0.137579,0.139296,0.030814,0.051781,-0.078107,-0.101198,-0.092831,0.073595,-0.025816,-0.052333,-0.059592,0.035912,0.088608,-0.026863,-0.087842,-0.080177,-0.058072,0.002373
0.109206,0.138955,-0.049070,-0.077940,0.147637,-0.030109,-0.013851,-0.025908,-0.148475,0.027262,-0.024674,-0.109680,-0.009775,0.075510,0.049703,0.049285,0.053161,0.045740,0.048420,0.056357,-0.057718,-0.045557,0.039068,0.045304,0.004915,-0.029638,0.002779,0.083210,0.032234,-0.006494,-0.071493,0.021165,-0.148741,-0.017211,-0.000841,0.015503,-0.045336,-0.096989,0.205638,0.103240,0.010745,-0.015009,0.129485,-0.063062,-0.132788,0.016895,-0.033411,-0.037465,0.012855,-0.062296,-0.125314,-0.123826,0.012318,-0.129424,0.010135,0.011979,-0.057195,0.061996,-0.003167,-0.000051,-0.033231,0.078296,0.119180,-0.017001,0.014144,-0.118634,0.048849,0.062987,-0.113360,-0.040239,-0.086342,-0.062096,-0.087260,0.140966,-0.006997,-0.099941,-0.111349,-0.077785,-0.005995,-0.051480,-0.004194,-0.051527,0.006513,0.010044,-0.052270,0.021468,0.137127,-0.043710,0.033683,-0.019764,0.023506,0.178328,-0.003455,0.012706,-0.061997,-0.061126,-0.074885,0.009892,-0.062312,-0.125656,0.093464,0.022851,0.009442,0.007437,-0.131343,0.110863,0.002688,0.049772,-0.029445,0.027164,-0.018037,-0.069812,0.086086,0.103318,-0.053592,0.135939,0.047430,-0.013399,-0.073857,-0.054871,-0.061978,0.006008,0.073721,0.076492,0.041946,-0.048546,-0.110885,-0.101870,0.001425,-0.005938,-0.036590,-0.081031,0.097268,0.078900,0.084387,-0.012800,0.123399,-0.057124,-0.007776,-0.049070,0.047755,-0.012833,-0.034394,-0.006439,0.079302,0.012685,0.111715,-0.112861,-0.056821,0.010964,-0.095335,-0.062142,-0.008147,-0.098970,-0.101138,0.074206,0.006716,0.036429,-0.089298,0.054308,-0.049908,-0.075510,-0.040045,0.036635,-0.039135,-0.001735,0.026160,0.013546,0.032540,-0.105446,0.099259,-0.059520,-0.146199,0.065757,0.042200,-0.030771,-0.162889,0.072388,-0.168789,0.058704,-0.145793,0.059288,0.033456,0.009675,0.073442,-0.121402,0.048712,0.013020,-0.073083,-0.078714,0.047203,0.023907,0.017775,-0.106562,-0.096927,-0.078903,-0.031987,0.055730,-0.018281,0.034017,-0.097516,-0.066742,0.113140,0.072788,0.009299,-0.007563,0.114164,0.139848,-0.117459,-0.174752,-0.029477,-0.044903,0.023399,0.041901,-0.051153,0.104128,-0.017086,0.046878,-0.076244,0.016266,-0.069207,0.119200,-0.103174,0.094045,0.033233,-0.048275,0.009672,-0.037553,-0.012726,0.023940,0.096718,-0.066987,-0.007365,-0.096131,0.030478,-0.065275,0.023898,-0.071924,-0.116054,-0.073680,-0.097041,0.050212,-0.068442,0.044004,-0.081222,0.040276,-0.093317,0.029006,0.073493,-0.002347,0.001704,0.059233,0.013638,-0.117416,-0.110496,0.120360,-0.073402,0.007801,0.053243,-0.020431,-0.034959,-0.018829,0.007044,0.083061,0.066393,0.033960,0.055309,0.060318,-0.060475,-0.032934,0.199974,-0.086213,0.023103,-0.017201,0.078685,0.144873,-0.073926,-0.084203,0.004406,-0.001439,-0.127794,0.062181,0.064216,-0.091598,0.032762,0.082418,0.168433,0.089205,0.121075,-0.042345,0.064747,-0.042036,-0.131521,0.097550,0.026597,0.086644,-0.030871,0.057347,-0.110846,-0.071795,0.063844,0.088963,0.008002,0.100293,0.043562,-0.152653,0.143791,-0.090000,0.004984,0.032826,-0.016427,-0.002040,-0.004297,-0.005848,0.076075,-0.083661,0.072377,0.121894,0.032974,0.132646,-0.032930,0.033278,0.106236,0.116269,0.072567,-0.082801,-0.004509,-0.063448,0.058308,-0.114505,0.042275,-0.036618,0.102290,-0.087811,0.055364,0.040608,-0.035751,0.039241,-0.008384,0.031978,0.061964,-0.073367,0.071269,-0.108893,-0.065006,-0.053409,-0.094210,0.153165,0.007844,0.035185,-0.005292,0.173597,0.019669,0.042080,-0.014685,0.102802,0.022971,0.046245,0.003552,-0.113396,0.056727,0.022497,-0.017042,-0.068019,-0.021527,-0.001228,-0.041362,-0.103739,0.006297,-0.016037,0.015888,0.044855,0.036798,0.048176,-0.048214,-0.043914,-0.008189,-0.010893,-0.065857,-0.087519,0.047188,-0.042732,0.106222,0.085662,-0.031688,-0.013383,-0.098705,-0.026510,0.002409,0.036725,-0.012446,0.067433,-0.089490,0.000359,0.020158,0.069973,0.114717,-0.087512,0.018108,0.028111,-0.026796,-0.068749,-0.063790,0.026105,-0.156548,0.030399,-0.098880,0.084383,0.006826,-0.051899,0.039183,0.027303,0.090553,-0.080145,-0.087410,-0.065712,0.129365,-0.147228,0.093660,0.007481,0.053663,0.118027,-0.125502,-0.012476,0.156567,0.061147,-0.034853,-0.094568,-0.034353,0.075789,0.025758,-0.080901,-0.034299,0.021198,0.061205,0.000090,0.143727,-0.044646,0.082844,-0.033147,-0.055157,-0.056953,-0.086448,0.060143,0.090405,-0.047887,0.024120,0.071468,0.001576,-0.067374,-0.010914,-0.078792,-0.006187,-0.068659,0.119940,0.063747,0.190580,0.109389,0.117458,-0.053969,-0.051491,0.060858,0.125698,0.030111,-0.000678,0.005619,0.093573,0.033682,-0.075840,-0.084081,0.013727,-0.051465,0.155245,-0.070132,-0.004669,-0.113175,0.058290,0.197204,-0.069092,0.072909,0.001508,0.068207,-0.082164,0.011708,-0.094382,0.019253,-0.028105,0.040685,0.031628,-0.016805,-0.147207,-0.088565,-0.042586,-0.064256,-0.069464,0.040501,-0.029740,-0.011000,0.145482,-0.014969
-0.085275,-0.189821,0.031938,0.131056,0.170230,-0.100529,0.025365,-0.029336,-0.124848,-0.104537,0.167805,-0.039389,-0.016921,-0.035869,0.007991,0.002645,0.126182,0.044761,-0.066007,-0.042645,0.032275,0.016111,-0.059569,0.014488,-0.004768,0.062458,-0.028157,-0.068874,0.009518,-0.083672,0.059479,-0.081307,0.059691,-0.091586,0.105457,0.011435,-0.073696,0.052481,-0.039919,0.144899,-0.063957,0.011538,-0.015267,0.034047,0.058854,-0.086705,-0.002237,-0.052917,-0.005959,0.031216,-0.066275,-0.046482,-0.070917,-0.062052,-0.021875,0.078416,-0.050494,-0.031090,0.116468,-0.003444,0.074710,0.021429,-0.074475,-0.035666,-0.052276,-0.057298,-0.007197,-0.038009,0.109154,-0.064745,0.024076,-0.056016,-0.060931,0.048712,0.068662,0.017843,-0.047809,0.096002,-0.042573,0.028839,0.005037,0.105230,-0.106015,-0.035377,-0.037136,-0.016611,-0.085989,0.003052,0.019696,-0.044988,0.188584,-0.012012,-0.036057,-0.026239,-0.142723,0.061248,-0.028803,-0.153907,0.048254,-0.166783,0.143257,0.033752,-0.015190,-0.035858,0.029833,-0.087995,-0.104096,0.057100,-0.044779,0.037662,0.002263,0.014135,0.073850,-0.026322,-0.016231,0.130626,-0.140833,0.193287,-0.076535,0.008653,-0.026011,0.078498,-0.021132,0.001274,0.056747,-0.041591,-0.046550,-0.098707,-0.024714,-0.041849,-0.175001,0.035369,0.029157,0.044490,-0.049308,0.067396,0.004428,-0.075813,-0.090060,0.068139,0.071072,-0.067202,0.014301,-0.084714,0.011835,-0.058790,-0.054448,0.182703,-0.030740,-0.003736,-0.117281,-0.023894,0.159296,-0.066794,0.036358,0.009414,0.087345,0.043061,-0.024360,-0.058950,0.196224,0.030065,0.040348,-0.105170,-0.104449,-0.055791,0.030042,0.016947,-0.075529,0.023724,-0.065889,0.046889,0.064610,-0.013410,0.021675,-0.026617,0.198555,-0.146550,-0.168335,0.095660,0.093311,-0.048057,0.074713,-0.041273,-0.119137,0.070337,-0.136814,0.016715,-0.056841,0.003858,-0.068872,-0.010546,0.103642,-0.032039,0.011839,0.194074,0.012015,0.070978,0.065712,0.042284,-0.088072,0.089907,0.131015,0.072804,0.007354,0.023183,-0.017446,-0.004935,-0.079802,0.007599,-0.033792,0.010757,0.009143,0.086553,0.018840,0.037703,-0.090263,-0.090966,-0.011506,0.129523,0.050030,0.020854,0.105929,-0.031806,0.165574,0.008541,-0.059244,0.162939,-0.106689,0.005233,0.027649,-0.138647,0.084632,-0.005400,0.024239,-0.100095,0.061417,0.058165,-0.093904,-0.120007,0.087303,0.018697,-0.099726,0.009009,0.100496,-0.014614,-0.050962,-0.055498,0.083054,0.005093,0.047164,0.059009,-0.012883,-0.058842,-0.136556,-0.060358,0.062716,-0.045894,-0.026067,-0.188782,-0.009657,-0.103919,0.005494,-0.109063,-0.046303,0.037921,-0.087366,0.065880,0.050723,0.023385,-0.064366,-0.045915,-0.045669,0.051211,0.010860,0.032327,0.052815,0.107794,0.024386,-0.014619,0.121206,0.099849,0.031826,0.075984,0.079823,0.043927,-0.181355,0.075759,-0.040030,0.122099,-0.061311,-0.035405,-0.076601,0.121702,0.015368,-0.057119,-0.028643,0.014593,0.206594,0.017930,0.000877,0.024145,0.038933,0.015778,0.013148,0.028909,-0.088743,-0.111695,-0.104008,-0.040958,-0.026582,-0.102170,-0.010501,-0.046977,0.020541,-0.049907,0.087073,-0.020376,0.060218,0.050690,0.151142,-0.095425,0.169659,0.009329,-0.058508,-0.036326,-0.090181,-0.063713,-0.073696,-0.024269,0.011866,-0.056833,0.088721,0.029390,-0.126635,-0.013798,-0.210471,0.066027,0.085201,-0.173522,0.054254,0.022745,0.044239,-0.081326,-0.112811,-0.061101,0.042972,-0.162785,0.128653,-0.088620,0.114069,-0.054776,0.047340,-0.149126,-0.040444,0.037326,-0.076741,-0.099006,0.035412,0.014021,0.041984,-0.008260,0.121320,0.021669,-0.044258,-0.045937,-0.088421,0.023440,-0.079349,0.046614,-0.107225,-0.080622,-0.047476,0.194688,-0.032797,0.011447,0.020185,0.115356,-0.046902,0.076655,-0.181576,0.026730,0.131972,-0.045411,0.005915,0.058745,-0.103182,-0.104644,-0.084991,0.026553,-0.119625,0.076029,0.027664,0.185309,-0.067272,0.030964,0.052740,0.080597,-0.009564,-0.083477,-0.019828,0.130958,-0.075511,0.162575,0.090291,0.046853,0.098314,0.039420,0.036521,0.031278,-0.060660,-0.034443,0.019515,-0.038592,-0.024044,-0.132130,-0.134784,-0.039213,0.075179,-0.021229,-0.060625,-0.017156,0.020977,0.166162,-0.000511,-0.084538,0.033303,0.030405,-0.040258,-0.053900,-0.087967,-0.068622,0.091541,0.020316,0.061854,-0.022916,-0.095678,0.041108,-0.049292,0.062807,0.144834,0.084175,-0.026055,0.068502,0.008031,-0.063263,-0.136506,0.023358,-0.105660,-0.075374,0.006959,-0.023922,0.065019,0.000416,-0.088096,0.053528,0.004444,-0.002297,-0.046500,-0.124416,0.010698,0.045565,0.028276,0.093422,-0.067046,-0.046679,0.065502,0.158239,-0.059457,0.134558,-0.110938,0.022105,-0.213168,0.050255,-0.006016,0.051491,-0.040930,-0.199946,-0.090945,-0.138533,-0.018156,-0.170761,-0.106397,-0.088752,-0.138489,-0.070874,0.055611,-0.028141,0.071537,0.060147,-0.031904,0.011208,0.050042,0.005248,0.049012,-0.044161,0.033808,-0.108084,0.109318,-0.123160
