-0.09987864643335342,-0.34432053565979004,0.017149534076452255,-0.21800057590007782,0.09731898456811905,-0.36112961173057556,-0.3617648482322693,-0.2980787456035614,0.2946716248989105,0.06848598271608353,-0.44898030161857605,-0.08808227628469467,0.36333635449409485,0.18279780447483063,-0.016067922115325928,-0.07113080471754074,0.4134082794189453,0.11833807080984116,0.15699651837348938,-0.22499576210975647,0.15363278985023499,0.4717637896537781,0.18819595873355865,-0.2902620732784271,0.022794468328356743,-0.290730744600296,-0.30451664328575134,-0.1583510786294937,-0.005606688093394041,0.08971801400184631,-0.260005384683609,-0.25977903604507446,-0.3151012063026428,-0.3523626923561096,0.1623193621635437,-0.27418220043182373,-0.004694159608334303,-0.4388313591480255,-0.37245452404022217,0.22072523832321167,-0.08354420214891434,-0.14239338040351868,-0.27973976731300354,-0.11829343438148499,0.32435837388038635,0.16697612404823303,-0.17546428740024567,-0.2189076840877533,-0.17896325886249542,0.2968207895755768,0.014662451110780239,-0.3658634126186371,-0.4291519820690155,-0.16903522610664368,-0.23696017265319824,0.17224426567554474,-0.16957628726959229,-0.40868619084358215,-0.13101617991924286,0.06156546622514725,-0.12367769330739975,-0.23086555302143097,-0.002564032096415758,-0.11408641189336777,-0.07105997949838638,0.379401832818985,0.3279169201850891,0.3150651156902313,0.18282300233840942,-0.1739424765110016,0.3124414384365082,0.23657672107219696,0.3103228211402893,0.15745219588279724,0.11124440282583237,-0.3584134876728058,-0.3108355402946472,0.23822307586669922,0.3597734272480011,0.40502074360847473,0.08270827680826187,-0.018563928082585335,0.09201950579881668,0.2723841071128845,0.14250236749649048,0.11884661018848419,0.39115074276924133,0.14413487911224365,0.012126072309911251,-0.2500024437904358,0.08763960748910904,0.32056891918182373,-0.08497386425733566,-0.2255978137254715,-0.24923919141292572,0.2564135193824768,-0.17518983781337738,0.017919940873980522,-0.24106942117214203,-0.06955410540103912,0.028193894773721695,0.18268972635269165,-0.20955605804920197,-0.051681797951459885,-0.21700988709926605,-0.296906441450119,-0.18033666908740997,-0.28666242957115173,-0.2010342925786972,-0.0688086673617363,-0.2603939175605774,-0.13333819806575775,-0.11113547533750534,-0.15030309557914734,0.11375998705625534,0.18066853284835815,0.1866697072982788,0.24530035257339478,0.22897009551525116,0.1561877727508545,0.2161835879087448,-0.1366201490163803,0.06758241355419159,-0.1100967600941658,-0.0036318229977041483,0.037219446152448654,0.05600592866539955,-0.24781052768230438,-0.2850612998008728,0.10246744751930237,0.14207196235656738,0.4870116412639618,0.21900145709514618,0.2648315131664276,0.07083244621753693,-0.2319234311580658,0.3009968101978302,0.3681122660636902,0.14417576789855957,0.11436374485492706,-0.34145331382751465,-0.3337175250053406,-0.22803865373134613,0.025145670399069786,0.273669570684433,-0.27719417214393616,0.04245850443840027,0.02489095740020275,-0.2941114008426666,-0.2077864706516266,-0.13811154663562775,0.04628322273492813,-0.158229798078537,0.25139710307121277,0.051101140677928925,-0.25921693444252014,-0.055041518062353134,0.20657303929328918,0.18375740945339203,-0.11442076414823532,0.1957961916923523,0.016298828646540642,0.15720616281032562,0.21394191682338715,0.2740023136138916,0.3040611147880554,0.11148902773857117,0.1470203399658203,0.38092899322509766,0.42648330330848694,0.021792694926261902,0.10033101588487625,-0.14878185093402863,-0.07602591067552567,0.2952040135860443,-0.11880262941122055,-0.08731899410486221,-0.017006097361445427,-0.10397319495677948,-0.3191705346107483,-0.07593880593776703,-0.3566873073577881,-0.3031785786151886,-0.23813797533512115,0.10977672785520554,0.25238946080207825,-0.2434592992067337,-0.11876805871725082,-0.27974918484687805,-0.12911449372768402,0.22432199120521545,0.022109026089310646,0.04560253024101257,0.1734134703874588,0.32862764596939087,0.2737135589122772,0.5746825337409973,0.4354318380355835,0.4149812161922455,0.06240882724523544,0.3312687277793884,-0.03682485222816467,0.06453418731689453,0.37971702218055725,0.22842322289943695,0.0482182502746582,0.37999236583709717,0.39858895540237427,0.39551523327827454,0.5236053466796875,-0.15346361696720123,0.09044474363327026,-0.18233585357666016,-0.02243662253022194,-0.009774615056812763,-0.048652056604623795,-0.430355429649353,-0.33246126770973206,-0.5211514830589294,-0.4022809863090515,-0.29981425404548645,-0.38793879747390747,-0.4447278082370758,-0.4424351453781128,-0.3488200306892395,0.006585344672203064,-0.018990039825439453,-0.3459032475948334,-0.18175511062145233,-0.06790503859519958,-0.06401963531970978,-0.10980641096830368,0.21793104708194733,0.2857070565223694,0.11182484030723572,-0.15772327780723572,0.0036435259971767664,0.2562045156955719,0.17787057161331177,0.14944161474704742,-0.10406980663537979,-0.05384739860892296,0.22570863366127014,-0.170400470495224,0.1102900505065918,-0.057522837072610855,0.2716771960258484,-0.1355709731578827,-0.06968649476766586,-0.30277562141418457,0.18821540474891663,0.18204522132873535,0.1549280285835266,-0.052685320377349854,0.09014526009559631,0.05374482646584511,-0.11850259453058243,-0.131898432970047,0.03921222686767578,-0.1662885844707489,0.21769388020038605,-0.0950959250330925,0.2477002888917923,0.17599186301231384,0.11492165178060532,0.1730603575706482,-0.2324136644601822,-0.014172659255564213,0.10047943145036697,0.19125382602214813,0.14624856412410736,-0.08883999288082123,-0.15858300030231476,0.008878161199390888,0.18357867002487183,0.17273534834384918,0.2195463925600052,0.3342701494693756,0.08874537795782089,-0.08525156229734421,0.07818679511547089,-0.12988902628421783,-0.10360567271709442,0.26049554347991943,0.33361566066741943,-0.3760215938091278,-0.17871659994125366,0.1660531610250473,0.3152991235256195,0.29652297496795654,-0.3053513765335083,-0.1728210151195526,0.1507406085729599,0.3177376985549927,0.1055908128619194,-0.2672226130962372,-0.07357383519411087,0.28561484813690186,0.2667095959186554,0.03174804523587227,-0.254954069852829,-0.26040536165237427,-0.051660601049661636,0.31050437688827515,0.27509135007858276,-0.22403857111930847,-0.1320892572402954,0.2646183669567108,0.04870220646262169,0.18772290647029877,-0.27645719051361084,0.25304076075553894,0.2841182053089142,-0.19575203955173492,-0.16539905965328217,0.17806993424892426,-0.039714209735393524,0.09351058304309845,-0.32959556579589844,-0.25398367643356323,-0.01436937227845192,-0.06194060295820236,0.08300653845071793,-0.04042454808950424,0.20947037637233734,-0.11350816488265991,-0.036386940628290176,0.1255986988544464,0.2794676125049591,-0.1658596694469452,0.04725201800465584,-0.0699748620390892,0.23194214701652527,-0.18087813258171082,-0.24244751036167145,0.13599437475204468,0.2534977197647095,-0.055045731365680695,0.20000670850276947,0.3728959262371063,-0.19780322909355164,-0.05997724086046219,0.010312041267752647,0.024913806468248367,0.34446030855178833,-0.16326002776622772,0.029565641656517982,-0.02081289514899254,-0.15834343433380127,-0.03631741553544998,0.13473577797412872,0.11882499605417252,-0.02302551083266735,-0.02444387599825859,-0.0479862280189991,0.11366094648838043,0.2998991012573242,-0.10920250415802002,0.3027222156524658,0.21732355654239655,-0.17138074338436127,-0.019929777830839157,-0.05456672981381416,0.28630730509757996,0.048715393990278244,0.09561613202095032,0.1561177670955658,0.033505912870168686,0.07598055154085159,-0.14004920423030853,-0.11634589731693268,-0.03731810301542282,0.05505044385790825,-0.09855331480503082,-0.28755977749824524,-0.12469030171632767,0.08634281903505325,-0.212317556142807,0.26476171612739563,0.2329290509223938,0.23648624122142792,0.14994308352470398,0.1775187849998474,0.4520953595638275,0.019977161660790443,-0.10326938331127167,0.4273146986961365,0.3622797131538391,0.35546648502349854,0.23402215540409088,0.2481635957956314,-0.13532687723636627,0.14645761251449585,0.1763148307800293,-0.04811830073595047,-0.1689767837524414,-0.3665686547756195,-0.4222068786621094,-0.31695085763931274,-0.22155843675136566,0.0067821079865098,0.015514431521296501,-0.30677783489227295,-0.26048946380615234,0.02291334979236126,0.2017396241426468,-0.17797942459583282,-0.3705618977546692,-0.11248136311769485,-0.1486557275056839,0.423084020614624,0.42598047852516174,0.021800030022859573,-0.2252594530582428,-0.3323398530483246,0.14103111624717712,0.21547755599021912,0.283692866563797,0.3297159671783447,-0.04677536338567734,-0.0033076826948672533,0.3362378180027008,0.2333332598209381,0.10908754914999008,-0.05527913570404053,0.1666935682296753,0.13681115210056305,0.10243241488933563,0.11160525679588318,-0.1103038638830185,0.20369620621204376,0.30095505714416504,0.11870037764310837,-0.2811828851699829,-0.2799058258533478,0.15256890654563904,0.16819831728935242,0.19603300094604492,-0.3182982802391052,-0.16142089664936066,0.0656714141368866,0.36228057742118835,0.11251810938119888,-0.06321918219327927,0.031247861683368683,0.09748686105012894,-0.11489441990852356,0.02793734334409237,-0.16162918508052826,-0.25640052556991577,0.31511011719703674,0.16993479430675507,-0.19655419886112213,0.11673446744680405,0.1625402271747589,0.350093275308609,0.23408092558383942,0.028629250824451447,-0.11243806034326553,-0.2259570211172104,0.5379165410995483,0.007562198210507631,-0.01612035743892193,-0.04398297891020775,0.030038878321647644,0.48844975233078003,0.35309305787086487,-0.13301746547222137,-0.2825740575790405,-0.30068010091781616,0.4631960093975067,0.3030574917793274,-0.21024475991725922,-0.3508438766002655,-0.06633217632770538,0.31967008113861084,-0.03586123511195183,0.15614357590675354,0.043958812952041626,-0.191395103931427,0.07785122841596603,0.1065455749630928,-0.19064861536026,-0.35853442549705505,-0.3378433883190155,-0.09734342992305756,-0.2703559696674347,-0.060417648404836655,-0.30871132016181946,0.0283107478171587,-0.27937567234039307,-0.32453474402427673,-0.3527165353298187,-0.01594957709312439,0.2143402397632599,-0.05000654235482216,0.22603356838226318,0.2986011803150177,0.3505038917064667,0.35707202553749084