-0.031091,-0.033510,-0.028619,-0.020016,-0.031719,-0.027756,-0.013802,-0.024774,-0.022350,-0.011928,-0.020804,-0.011366,0.006037,-0.002140,-0.019691,-0.004583,0.009089,-0.011957,0.021122,0.000833,0.015814,-0.014603,0.003927,0.004209,0.006199,0.002239,0.016326,-0.010213,0.009858,-0.004649,0.010834,0.008559,-0.000858,-0.019759,-0.020664,0.012277,0.016791,0.007477,0.000002,-0.009430,0.021288,0.022141,0.014196,0.000598,-0.010855,0.004174,0.024967,0.010296,0.029326,-0.005392,-0.020892,-0.030275,-0.028411,-0.016577,-0.018361,-0.013733,-0.021885,-0.017563,-0.038280,-0.019124,-0.008655,-0.013807,-0.015988,0.002056,0.004500,-0.003696,-0.001714,0.020759,-0.000196,0.007437,0.023529,0.015942,0.024426,0.004629,0.018796,0.007017,-0.000100,-0.008272,-0.019175,-0.009025,-0.009700,0.002421,0.010623,0.021371,0.029477,-0.031971,-0.002776,0.041959,0.040672,0.022521,-0.030919,-0.016294,0.022835,0.035824,-0.025215,-0.048373,-0.031999,-0.015236,-0.005787,-0.025426,-0.018524,-0.011939,-0.007695,-0.007942,0.013879,-0.025258,-0.013425,0.006821,0.015935,0.024464,-0.037137,-0.014436,0.008142,0.020838,0.033455,-0.042343,-0.016614,-0.007555,0.016929,0.051192,0.002943,0.013375,0.015758,0.013832,0.016101,-0.012568,-0.005516,0.008020,0.032518,0.043329,-0.024903,-0.013847,-0.004777,0.026074,0.047494,-0.043030,-0.025093,0.014329,0.053798,0.055268,-0.000581,-0.016088,0.025273,0.046957,0.029856,-0.006189,0.009820,0.007359,0.031871,-0.000110,-0.016699,-0.024156,-0.019107,-0.009086,-0.001670,-0.006054,-0.016558,-0.030317,-0.020300,-0.005427,-0.011606,-0.016344,-0.019132,-0.016063,-0.014044,-0.013356,-0.005971,-0.033297,-0.018741,-0.006816,0.010886,-0.019783,-0.009622,-0.024996,-0.005776,-0.021695,-0.025694,-0.034780,-0.023972,-0.003614,-0.040530,-0.025530,-0.016300,-0.028888,-0.001008,-0.028324,-0.020402,-0.023939,-0.019901,0.008690,-0.022221,-0.020161,-0.002164,0.007217,-0.000685,0.004069,0.001111,0.007627,-0.002438,0.014168,-0.005352,-0.006873,-0.021948,-0.007836,-0.000475,-0.006641,-0.012282,-0.031643,-0.019115,0.002799,0.003249,0.005111,-0.013125,-0.010468,-0.007046,-0.017929,-0.001220,-0.015442,-0.041845,-0.023429,-0.003906,-0.024019,-0.034054,-0.026365,-0.022682,-0.016264,-0.028558,-0.015946,-0.010905,-0.005939,-0.004095,-0.010107,-0.021431,-0.010891,-0.019209,-0.015174,-0.013995,-0.000520,-0.018073,-0.008305,-0.003852,0.000672,-0.004282,-0.005023,-0.008475,-0.001495,0.004867,-0.007588,-0.004700,-0.000510,0.014480,0.017958,0.006192,-0.017742,0.011553,0.036270,0.026371,0.018451,0.038076,0.027299,0.029360,0.034808,0.040950,0.065930,0.031711,-0.002923,0.017871,0.021811,0.016608,0.014080,-0.056616,-0.011197,0.011921,-0.027532,-0.052900,0.006255,-0.012740,-0.013526,-0.028927,-0.026582,-0.021438,-0.023886,-0.018793,-0.017394,-0.037282,-0.015734,-0.027816,-0.031212,-0.023413,-0.015348,-0.009955,-0.010409,-0.015219,-0.001554,-0.011078,-0.008065,-0.014711,0.006196,-0.012126,0.010645,-0.012667,-0.012367,0.004944,0.009891,0.006341,-0.027846,0.001053,0.002847,0.000817,0.016083,-0.024851,-0.003967,0.015154,0.032803,0.058883,-0.039136,-0.020624,0.026375,0.048427,0.049156,0.010923,0.037334,0.073744,0.063256,0.033224,0.004852,-0.023395,-0.007264,-0.003745,-0.012041,0.005319,-0.010004,-0.011896,-0.042192,-0.027726,0.032689,0.042913,0.004797,-0.028924,-0.005532,0.035507,0.035126,0.020905,-0.001581,-0.030309,0.020185,0.036744,0.028385,0.023904,0.034369,0.043543,0.033498,0.015456,0.011326,0.026445,0.066857,0.065535,0.050912,0.034355,-0.013962,0.071516,0.084558,0.061502,0.036047,-0.001044,0.052896,0.075583,0.068214,0.028982,-0.011048,0.021266,0.049808,0.054397,0.028243,0.002971,-0.004575,-0.024993,-0.027396,-0.018824,-0.004562,-0.002703,-0.045968,-0.034211,-0.038248,-0.014284,-0.016337,-0.024612,-0.019534,-0.001667,-0.007480,-0.003054,-0.004242,-0.005370,0.012620,-0.000001,0.005205,-0.002079,0.024618,0.017036,0.010132,-0.025007,-0.025085,-0.010209,-0.017359,-0.012875,-0.025880,-0.017216,-0.005039,-0.010956,0.000849,-0.025270,-0.007663,-0.010710,-0.008878,-0.007883,-0.011475,-0.012591,-0.013239,-0.015348,-0.040112,-0.002646,-0.012487,-0.005889,-0.004810,0.001046,-0.028805,-0.034631,-0.042459,-0.061495,-0.018975,-0.045766,-0.007238,-0.020566,-0.007457,0.001471,-0.046437,0.002009,-0.000024,0.010811,0.027181,-0.015625,-0.007661,0.001989,0.015708,0.026669,-0.019749,0.002708,0.004517,0.031767,0.037612,-0.015091,-0.015032,-0.013071,-0.029564,-0.011141,-0.024007,-0.020026,-0.011941,-0.012892,-0.025059,-0.012194,-0.012238,-0.034606,-0.010219,-0.023811,-0.024479,-0.033032,-0.031832,-0.035002,-0.010177,-0.004134,-0.021002,-0.004224,-0.004820,0.009028,-0.011086,0.003054,-0.004746,-0.013909,0.001561,-0.021673,-0.006200,-0.009939,-0.006332,0.003301,-0.009975,0.012201,0.000516,0.002194,-0.003182,0.002077,-0.003931,-0.005976,-0.001940,-0.009407,0.003283,0.011030,-0.017532,-0.001553,-0.012854,-0.008976,-0.009917,-0.017511,-0.029310,-0.006876,-0.003351,-0.012293,-0.014725,-0.029381,-0.002059,0.002806,-0.000332,-0.007403,-0.016848,-0.002418,-0.008257,-0.008907,-0.014848,-0.021993,0.005023,-0.006373,-0.003780,0.006519,-0.004486,-0.011125,0.014673,-0.028776,-0.041221,-0.047911,-0.017052,-0.006498,-0.020026,-0.008897,-0.013400,-0.009167,-0.021012,-0.013963,-0.009859,0.022567,0.008985,0.002762,0.005328,0.017782,0.017323,0.032903,0.000467,0.028454,0.035342,0.021930,0.005361,-0.025537,-0.021922,-0.014530,-0.006973,-0.013091,-0.020591,-0.014507,-0.024949,-0.027333,-0.010036,-0.002909,-0.017796,-0.020868,-0.005813,-0.013822,-0.005729,0.004221,0.006255,-0.005430,0.006233,0.007296,0.002759,0.009064,0.016802,0.022626,-0.032746,-0.031776,-0.035823,-0.044011,-0.021395,-0.013826,-0.020662,-0.054418,-0.065547,-0.059692,0.030588,0.041993,0.011915,-0.027252,-0.022955,0.017219,0.038664,0.030999,0.017679,-0.016523,-0.006029,0.027586,0.043850,0.043528,0.013602,-0.003549,0.002869,-0.015796,0.003428,0.005755,0.021723,-0.004466,-0.007352,-0.008853,0.008435,0.009422,-0.013498,-0.012466,-0.017989,-0.005791,0.012006,-0.015563,-0.034209,-0.042190,-0.011060,0.008283,-0.021163,-0.029314,-0.049466,-0.010910,0.024853,0.014058,0.002718,-0.002664,0.011674,0.015943,0.002884,0.015838,0.000953,-0.014750,-0.005872,0.005735,-0.001533,0.012696,0.007411,0.005094,-0.005139,0.004943,-0.017981,-0.006554,-0.000040,-0.007835,-0.024812,-0.005498,-0.014734,-0.023469,-0.015281,-0.013742,0.004542,0.004099,-0.029741,-0.016315,-0.017157,-0.034128,0.003980,-0.000524,-0.009151,-0.030688,-0.026540,-0.017192,-0.005682,-0.008077,-0.030994,-0.026227,-0.020193,-0.034915,-0.038506,-0.044559,-0.044427,-0.018794,-0.005159,-0.003169,-0.009535,-0.009247,0.002344,-0.011436,0.000649,-0.004038,-0.015836,-0.011101,0.010407,-0.005623,-0.004761,-0.009614,-0.013057,0.013312,-0.013863,-0.011596,-0.023943,-0.010662,-0.006208,0.010756,0.009182,0.007136,0.005095,-0.007662,-0.024190,-0.021665,-0.025176,-0.004635,-0.024173,-0.017349,-0.011432,-0.025290,-0.021741,-0.009045,-0.023319,-0.039868,-0.031228,-0.021812,-0.011511,-0.013405,-0.025182,-0.022037,-0.003120,-0.009521,-0.021782,-0.014664,-0.014321,0.000471,0.001093,0.005556,-0.028663,-0.019576,0.001390,0.001648,-0.012191,-0.029647,-0.010670,-0.013288,-0.021952,-0.019858,-0.019884,-0.000928,-0.005406,-0.020676,-0.006704,-0.003440,0.005952,0.002943,-0.027733,-0.013311,0.005457,0.006975,-0.003835,-0.005604,-0.008125,-0.017962,0.000991,-0.015355,-0.015019,-0.004644,-0.007949,-0.010343,0.004366,-0.034756,-0.014130,-0.018496,0.026241,0.022673,-0.026899,-0.018703,-0.003396,-0.010124,0.007632,-0.010645,0.013131,0.004615,0.018021,0.001235,-0.008342,-0.005585,-0.010843,0.009037,0.003513,0.013320,-0.013361,-0.009642,-0.009185,-0.014191,-0.000101,-0.001910,0.007242,-0.001886,-0.012596,0.008542,0.006913,0.002442,-0.008033,-0.001252,0.010159,0.000936,-0.020503,-0.010650,0.001756
-0.003874,-0.009667,-0.013440,0.019017,0.018304,0.004095,-0.026388,-0.007176,0.005180,0.016767,-0.010553,-0.006344,-0.031262,0.011572,0.013047,0.001470,0.007216,-0.007177,-0.000223,0.012329,0.008910,-0.013944,-0.012345,-0.002103,0.012791,-0.030318,-0.001318,0.001269,-0.000961,0.044866,-0.011720,0.000441,-0.011083,0.009799,0.046562,-0.014583,-0.019569,-0.003150,0.009166,0.047663,0.000335,-0.006125,-0.008538,0.008247,0.028401,0.017125,0.008907,-0.012198,-0.013268,0.005596,0.001355,-0.007991,-0.002653,0.001568,0.020959,0.007776,0.001270,-0.011343,0.002451,0.006948,0.014517,0.013517,0.010238,0.012174,-0.015606,0.002716,-0.009689,-0.001687,0.000044,0.004765,0.004134,-0.001058,-0.009115,0.004847,-0.000355,-0.048624,-0.009809,-0.026000,-0.017294,-0.031117,-0.015749,-0.014411,-0.009607,-0.008371,0.001200,-0.017208,-0.024863,-0.011631,0.000258,0.012453,-0.015556,-0.011770,-0.014797,-0.007518,0.014207,-0.021214,-0.002290,-0.003016,-0.015908,-0.013707,-0.003914,-0.010785,-0.000755,0.010590,-0.005126,-0.016828,-0.010713,-0.019493,0.001692,0.015547,-0.014499,0.000841,-0.012577,0.006780,0.007073,-0.004702,0.021063,-0.003612,0.020380,0.018277,-0.004494,0.001060,-0.001701,0.025911,0.002632,-0.031573,0.003751,0.010291,0.019140,0.004257,0.000644,0.007137,-0.000745,0.012497,0.005508,-0.018432,-0.010812,-0.006364,-0.009545,0.016990,-0.010323,-0.023586,-0.021715,0.001780,-0.002338,-0.005634,0.012157,0.005831,-0.008265,0.004706,0.013806,-0.001850,-0.013255,-0.012961,-0.002301,0.016864,-0.001313,-0.004581,-0.009069,-0.009133,-0.006638,-0.008574,-0.008621,-0.007122,-0.004182,-0.014769,0.013034,0.016391,0.001555,-0.004975,0.009633,-0.004691,-0.004190,0.018549,-0.002951,-0.008202,-0.005748,0.022517,0.006740,0.020850,-0.015777,-0.022077,-0.014857,0.017362,0.023625,-0.009548,-0.003975,-0.023200,0.022993,0.020392,-0.014353,-0.008603,-0.027379,-0.009760,-0.007699,-0.024898,-0.015152,-0.002670,-0.006190,0.019018,0.009515,0.026474,0.011027,-0.001929,-0.024616,0.013145,0.014141,0.017054,0.003492,-0.022330,0.017612,0.012153,0.027058,0.003961,-0.024556,0.003103,0.016197,0.008351,0.008554,0.002440,-0.010088,-0.000684,0.018624,0.020581,0.015352,-0.015331,-0.001401,-0.015329,-0.004175,-0.008814,-0.002612,-0.023592,-0.010585,-0.003721,0.004943,0.009784,-0.011922,-0.003651,-0.012763,-0.002925,-0.013378,-0.017042,-0.012614,-0.001376,-0.001111,-0.009772,-0.001931,-0.000874,0.001329,-0.020987,-0.017780,-0.033405,-0.028341,0.019538,0.009664,-0.010948,-0.037656,-0.017992,0.040186,0.024619,-0.024187,-0.027319,-0.026963,0.034598,0.046287,-0.003544,-0.025217,-0.015474,0.027452,0.012166,0.004746,-0.033504,-0.022079,0.005587,-0.008958,0.007653,0.017821,0.022126,0.017171,0.015952,-0.008740,-0.007738,-0.004177,0.020879,0.023959,0.002298,-0.006786,-0.014007,0.014528,0.010495,0.005761,-0.006150,-0.012611,0.003898,0.021850,0.001916,0.005072,-0.005699,0.007230,0.010180,-0.033940,-0.006847,0.019262,0.054564,0.036823,-0.038888,-0.024658,0.029695,0.035490,0.030223,-0.019804,-0.021925,-0.013688,0.021712,0.015531,-0.030148,-0.024999,-0.026423,-0.011778,0.016368,-0.020821,-0.034622,-0.033896,-0.014627,0.000532,-0.031870,-0.042594,0.000003,0.012825,0.022681,-0.019897,-0.022433,-0.018446,0.034922,0.034960,-0.022586,-0.024491,-0.008757,0.020762,0.041934,-0.007452,-0.006492,-0.001855,0.031719,0.027009,0.000827,-0.009377,-0.008359,0.015545,0.003200,-0.031476,0.000666,0.015098,0.033694,0.041738,-0.027227,-0.015663,0.003020,0.048966,0.065166,-0.035110,-0.053802,-0.023337,0.032525,0.061177,-0.040286,-0.041949,-0.021537,0.003400,0.046947,-0.020955,-0.043665,-0.022469,-0.005569,0.006967,-0.015866,-0.000798,0.014882,0.017068,-0.010468,-0.007538,0.014952,0.011827,0.023890,0.021263,-0.021631,-0.018821,0.005216,0.026556,0.036914,-0.015866,-0.021508,0.001798,0.012801,0.028559,0.013966,-0.005171,-0.003669,0.025305,0.018345,-0.001219,0.005787,0.003249,0.019751,0.006310,-0.018937,-0.000912,0.004873,0.021948,0.009302,-0.015019,-0.009545,-0.000606,0.001882,0.006638,-0.011928,-0.008729,-0.008233,0.002271,-0.014364,0.003353,-0.003398,-0.017483,-0.009910,0.001884,-0.026867,-0.020523,-0.016411,0.007700,0.012313,-0.013805,-0.003449,-0.013797,0.020235,0.019553,-0.028339,-0.000290,-0.020668,0.021214,0.016691,0.000702,0.017225,0.004396,0.026450,0.005052,-0.008617,0.002954,0.006259,0.035184,0.011979,-0.019765,-0.016822,-0.008272,0.002480,0.012838,-0.017956,-0.033018,-0.018440,0.000113,-0.006388,-0.011144,-0.028147,-0.005281,-0.012208,-0.018326,-0.012534,-0.011244,-0.006981,-0.011674,0.012077,-0.000695,-0.005123,-0.007602,-0.015706,-0.008464,0.005209,0.024327,0.007173,-0.002931,0.005309,-0.016388,-0.004460,-0.003340,0.006720,0.003558,0.005672,0.008972,-0.001250,-0.000457,-0.009495,0.004813,0.002067,0.006511,0.004938,-0.006884,-0.006180,-0.000810,-0.008454,-0.000509,-0.006377,-0.009652,-0.007359,-0.009172,-0.010113,-0.023495,0.004358,0.006786,-0.009302,-0.007688,-0.009186,0.020622,0.015240,0.000370,-0.012029,-0.007695,0.005248,0.009369,0.002866,0.003106,-0.007501,-0.007025,-0.002985,-0.014315,-0.008256,-0.004833,-0.011323,-0.008374,0.004340,0.014623,0.012204,-0.002508,-0.000286,0.017010,0.021120,0.027961,-0.001100,0.000034,-0.009788,0.026129,0.033685,0.000263,-0.016809,-0.009212,0.009763,0.041025,0.001405,-0.003109,-0.016940,-0.007464,0.027894,-0.011122,-0.033634,-0.035530,-0.000952,0.025186,-0.014241,-0.016330,-0.033785,-0.001863,0.003256,-0.014238,-0.000602,-0.016571,0.007457,-0.007556,0.012785,0.000116,0.000209,-0.013831,-0.000866,-0.008653,-0.018581,-0.020837,0.000405,-0.000447,-0.058656,-0.033043,-0.010443,0.037880,0.060254,-0.049766,-0.010809,-0.018169,0.034506,0.052056,-0.025159,-0.030684,-0.027693,0.012041,0.027070,-0.023133,-0.033379,-0.036907,0.008645,0.008769,-0.018019,-0.021897,-0.019295,-0.007967,0.008588,0.002694,0.006265,0.021707,0.008350,0.004740,-0.007713,0.014087,0.009357,0.002220,-0.008172,-0.008910,0.001846,0.022570,0.023281,-0.017334,-0.017697,0.000450,0.012324,0.015163,0.013549,-0.047768,-0.026943,0.024127,0.024988,0.019273,-0.001514,0.018316,0.019741,0.005214,0.018245,0.005464,0.000686,-0.013634,0.011887,0.014533,-0.003143,-0.009494,-0.018246,-0.008665,-0.011712,0.000382,0.016496,-0.006062,-0.006939,-0.009276,0.011454,0.007579,0.001528,0.003926,0.009003,0.019213,0.022345,0.027052,-0.013810,-0.013680,-0.004948,0.014946,0.002960,-0.012967,-0.039676,-0.003600,0.014805,0.005501,-0.011499,-0.008333,-0.001485,0.012094,0.018603,0.000193,-0.012773,-0.014607,0.012124,-0.000721,0.008360,-0.005526,-0.025058,-0.009752,0.006870,0.051222,0.034841,-0.034032,-0.022662,-0.007181,0.016564,0.043394,-0.028848,-0.028182,-0.038122,-0.014971,0.019871,-0.013132,-0.023164,-0.035015,0.006828,0.008009,-0.022286,-0.031035,-0.045908,-0.025098,-0.012550,-0.008730,-0.014143,-0.019479,-0.006252,-0.006709,0.004655,0.008977,0.005647,-0.008243,-0.022558,0.011582,0.009330,0.003873,-0.004389,-0.008848,-0.019597,-0.025960,-0.004800,-0.031853,0.014094,-0.004688,-0.007740,0.007150,0.004026,0.015372,-0.007084,0.006284,0.004498,0.019119,-0.003360,-0.016267,-0.016136,0.003346,0.026915,0.024587,-0.023576,-0.007044,-0.009415,0.023569,0.039088,-0.020701,-0.003289,-0.003335,0.036563,0.030584,-0.004970,-0.009582,-0.010996,-0.003287,0.032994,0.005345,0.006183,0.000821,0.034351,0.027451,0.009658,0.004453,-0.014977,0.008007,0.010971,-0.005202,-0.015425,-0.001825,0.002974,-0.007466,-0.004259,-0.015046,-0.011639,0.003973,0.000398,0.005895,-0.005693,-0.016152,-0.005022,0.010584,0.002256,-0.000211,0.002298,0.001024,0.012778,-0.015231,-0.006302,-0.017807,-0.006376,-0.005758,-0.002514,-0.009627,-0.006435,-0.005243,-0.014139,-0.011860,0.012564,-0.000494,0.000940,0.008123,-0.004496,-0.010916,-0.012636,-0.015716,-0.000851
-0.003231,0.002529,0.002273,0.000869,0.010452,0.017301,0.003852,-0.003765,0.013882,0.009378,-0.004979,-0.002825,-0.016830,-0.011968,0.009239,-0.019781,-0.007881,-0.006405,0.003090,0.013752,-0.013291,-0.012018,-0.001210,0.002164,0.008916,-0.025552,-0.003891,-0.008945,-0.022208,-0.024851,0.000846,-0.011118,0.007989,-0.017446,-0.020328,-0.011275,-0.002616,0.008314,-0.022019,0.004360,-0.007055,0.005818,0.003927,-0.004359,-0.008309,0.013707,-0.010107,0.016547,0.006667,0.000179,0.000027,-0.002899,0.000613,-0.015574,-0.004145,0.007508,-0.022407,-0.007506,-0.001086,0.011675,0.004055,-0.007821,-0.012194,0.011285,0.011336,-0.009539,-0.000927,0.006836,0.017049,0.015474,-0.006101,0.008634,0.009330,0.008224,0.009281,-0.019593,-0.012589,0.013515,0.039133,0.025633,-0.004637,0.011346,-0.001667,0.021102,0.026987,-0.002433,0.012197,0.007788,0.029798,0.014366,-0.005835,0.001200,-0.010750,0.015759,0.022325,0.015268,0.000295,-0.005877,-0.006402,0.003011,0.008384,0.003607,0.010804,0.008066,-0.008347,-0.001136,0.019035,-0.002917,-0.001390,0.003656,0.003687,-0.002434,0.007754,-0.004234,-0.013489,-0.001327,-0.010758,0.007989,-0.007208,0.001115,0.007367,0.001157,0.004566,0.005977,-0.001337,-0.005136,0.003915,-0.005901,-0.008825,0.002169,0.009003,-0.009705,-0.020588,-0.016716,0.007738,-0.009810,-0.010903,-0.001280,0.010052,0.001938,0.006546,-0.005500,0.004923,0.003500,-0.001281,0.035879,0.000925,0.003476,0.014413,0.004404,-0.002384,-0.007658,0.011908,0.000302,0.004471,0.008923,-0.006460,-0.001759,-0.004698,0.004331,0.006672,0.009750,0.020500,0.003385,0.005880,-0.014776,-0.012699,0.002801,-0.017857,0.003510,-0.008808,-0.011577,0.014359,-0.010986,-0.000766,-0.010127,-0.009691,0.002896,-0.000173,-0.003625,0.012441,0.003103,-0.008566,0.002420,0.000520,0.010875,-0.000823,-0.002847,0.009155,0.004304,0.005377,-0.013905,-0.005866,0.010761,0.005261,-0.017326,-0.001906,-0.000506,0.020198,0.000821,-0.005717,-0.001172,-0.004382,0.008544,0.011638,0.005770,-0.015098,-0.004218,-0.001930,0.008463,-0.015789,0.001246,0.012614,0.007880,-0.000827,-0.020697,-0.000910,0.018977,-0.006621,-0.008234,-0.007271,0.005217,0.004237,0.016953,0.005847,0.014646,0.001923,-0.003703,-0.012462,-0.001058,-0.001657,-0.008190,-0.014089,0.014368,0.014807,-0.014306,-0.006651,-0.005411,0.004266,0.004268,0.003807,-0.008048,-0.002729,0.005817,-0.001075,-0.028160,-0.014260,-0.001563,-0.001811,-0.012900,-0.003449,-0.022439,0.038067,0.008399,0.026859,0.001303,-0.012634,0.014626,0.004036,0.019748,0.005252,-0.010088,0.024136,-0.004390,0.002532,0.005508,-0.014723,0.001469,-0.028290,0.007048,0.017596,-0.016295,0.007688,-0.032313,0.002684,0.005274,-0.002002,0.005874,0.001186,0.014559,0.012283,-0.004481,0.008428,0.007547,0.015220,0.019572,0.011198,0.001009,0.002674,0.001532,0.003100,0.014544,0.012440,0.010637,0.009351,-0.019251,-0.001225,-0.003230,-0.009049,0.018183,0.003025,-0.006417,-0.008412,0.005572,0.024872,-0.004718,-0.012311,0.002065,0.020859,0.012309,-0.024592,-0.007157,-0.027526,0.006276,-0.006874,-0.002801,-0.018724,-0.001123,0.006813,-0.001565,-0.010480,-0.010699,0.005653,0.027272,0.014061,0.007126,0.000580,0.012156,0.004428,0.017542,-0.004840,-0.007020,0.026577,-0.007172,0.024190,0.018582,-0.003532,0.013424,0.008217,0.000323,0.005198,0.016823,0.010617,0.009704,0.010342,0.028053,-0.001946,0.018457,0.004755,-0.001408,-0.002096,-0.014361,0.010211,-0.007868,-0.009563,-0.026406,-0.010233,-0.015075,-0.005779,-0.006341,-0.019973,-0.026841,-0.007685,0.003047,-0.004600,-0.014498,-0.014652,-0.018822,-0.025858,-0.018447,-0.016321,-0.004690,-0.004344,0.001352,-0.008896,0.000664,-0.014094,-0.014536,0.004055,0.000796,0.012417,-0.001018,-0.014120,-0.019117,0.002793,0.008453,-0.007106,-0.015089,-0.000688,-0.017095,-0.005143,0.011348,-0.013895,-0.010618,0.001072,0.008237,0.026484,-0.000253,0.015057,0.011580,-0.006150,0.010018,0.004400,-0.018116,-0.007373,-0.012721,-0.015002,0.001914,0.015565,0.017826,0.015982,0.001976,0.007014,0.001628,-0.000670,-0.008606,-0.005707,-0.008385,0.023699,-0.007001,-0.003966,-0.023764,-0.007192,-0.001217,0.011937,0.002136,0.014786,0.015998,0.028705,0.002159,0.014413,0.012846,0.018151,0.025553,0.005034,0.001640,0.027861,0.010099,0.019261,0.010760,0.001471,0.000314,0.003739,-0.001381,-0.002445,0.006419,-0.019355,0.000733,-0.000535,-0.001501,-0.009901,-0.000810,-0.011129,0.006740,0.000685,-0.017537,-0.015420,-0.003645,0.008733,-0.011364,-0.017194,-0.011831,-0.009877,-0.005899,-0.005788,-0.006540,-0.017799,-0.001239,-0.014909,0.001518,-0.002328,-0.013177,0.016814,0.026290,0.020229,0.011810,-0.002375,-0.018494,-0.010059,-0.009554,0.009720,-0.011659,-0.008001,-0.003198,-0.000241,0.001117,0.012906,0.007389,0.002308,0.010182,0.010934,-0.007749,0.000613,0.007340,-0.008639,-0.013379,0.002515,0.000124,-0.001197,-0.008620,0.004566,-0.013620,-0.002208,0.000858,0.000891,-0.024650,-0.004105,-0.003857,0.003586,-0.006345,-0.027540,-0.018321,-0.009040,-0.013652,-0.003085,-0.023160,-0.007320,-0.015232,-0.014704,-0.000317,-0.011784,-0.010642,-0.024767,-0.012977,-0.008502,0.006267,-0.028777,-0.011600,-0.013970,0.018318,-0.040543,-0.040833,-0.009145,-0.024914,0.016087,-0.020859,-0.026523,-0.025424,-0.038491,-0.012502,-0.013226,-0.024084,-0.017400,-0.036172,-0.010202,-0.006364,-0.019448,-0.015197,-0.035653,-0.024249,-0.036006,-0.009100,-0.011460,0.008030,0.005085,-0.021669,-0.009595,-0.021353,0.001877,0.005149,-0.030302,-0.009091,-0.006993,-0.001933,-0.000800,-0.014912,-0.011713,-0.014424,-0.003473,0.011999,-0.014817,-0.023669,-0.027043,-0.011016,-0.000949,0.002651,-0.006192,-0.012375,-0.005839,-0.002763,0.002519,-0.001563,0.012034,0.002480,0.008359,-0.015683,-0.010720,0.005225,-0.001536,0.003034,-0.011409,0.017878,0.030957,0.016944,0.039189,0.005848,0.034393,0.034728,0.059921,0.051378,-0.015696,0.008591,0.002789,0.016505,0.002363,-0.002661,-0.012223,0.003309,0.009842,0.014732,-0.019051,0.001789,0.008562,0.016733,0.007079,-0.010761,-0.004501,-0.008380,0.028697,0.012815,-0.001531,0.006769,0.015346,0.030957,0.017494,-0.014091,-0.000527,-0.015409,0.004047,-0.015187,-0.009077,-0.015459,-0.007036,0.009157,0.000723,-0.003149,0.009585,-0.004297,0.018367,0.016476,0.006269,0.013685,0.014607,0.021947,0.025752,0.009644,0.000526,0.018894,0.006462,0.011544,-0.014726,-0.001420,0.011399,0.001506,-0.000497,0.006244,-0.006199,0.010478,0.006815,-0.003223,0.002442,-0.000192,0.034568,-0.001247,0.007279,-0.017250,-0.006547,0.012844,0.019228,0.006879,-0.014797,-0.009238,0.015178,0.005182,0.016419,-0.014859,-0.016313,-0.018873,-0.004807,0.004400,-0.025788,-0.012100,0.003685,-0.006875,0.003791,-0.023350,-0.017991,-0.021376,0.005104,-0.019545,0.005010,-0.012732,-0.014665,-0.011355,0.006087,-0.018266,-0.032675,-0.011332,-0.010184,0.002083,-0.008119,0.005259,-0.006862,-0.002690,-0.006878,-0.003240,-0.006570,0.016803,0.000497,0.005803,-0.003971,0.000398,-0.005341,0.012039,0.020229,-0.000422,-0.012556,-0.000367,-0.003900,-0.002593,-0.006717,-0.015727,0.002205,-0.003444,0.005714,-0.017029,-0.016130,0.000029,-0.007216,-0.003367,-0.002327,-0.008572,-0.011076,-0.012575,-0.005072,-0.020126,-0.012928,-0.009778,0.000884,-0.014914,-0.019280,-0.016856,-0.015526,-0.018855,-0.007483,0.003350,-0.017397,-0.012138,-0.010749,-0.011279,-0.007226,0.000158,0.009789,0.000451,0.000280,-0.004002,-0.000006,0.008310,0.009507,0.001498,-0.010732,0.004572,0.006070,0.003969,-0.002280,0.009231,0.011804,0.018876,-0.003277,-0.004136,0.000162,0.004175,0.000588,0.020449,-0.000830,-0.012377,-0.006498,-0.002521,-0.005890,-0.005547,0.011416,-0.003703,-0.000300,-0.002997,-0.003073,0.001245,-0.007068,0.006507,0.001345,-0.001841,-0.000439,-0.008542,0.006197,-0.014609,0.008086,-0.003886,0.000593,0.008877,0.020780,0.000237
-0.012352,0.004160,0.011373,-0.026421,-0.022877,0.014671,0.011873,0.011703,0.003692,-0.020082,0.021788,0.017441,0.005404,-0.005460,-0.014229,0.006278,0.013714,-0.014233,0.002817,-0.008353,0.021887,0.000485,0.020288,-0.005191,0.003110,-0.035275,-0.020413,-0.019793,-0.034355,-0.019120,-0.030589,-0.046713,-0.023765,-0.028477,-0.016575,-0.024205,-0.037445,-0.035544,-0.027017,-0.003604,-0.009038,0.002476,-0.002025,0.007559,0.010031,0.019030,0.033353,0.014338,0.021932,0.008051,0.006937,0.018189,0.032386,0.030740,0.010478,0.031151,0.029091,0.016215,-0.006233,-0.009081,0.037920,0.022059,0.002513,-0.012308,-0.002619,0.016656,-0.007326,-0.004289,0.006562,0.011915,-0.006266,-0.004527,-0.015031,0.004805,-0.005877,-0.008146,0.006020,0.011277,-0.001328,0.005030,-0.007901,-0.004861,-0.004771,0.011181,0.015373,-0.019400,-0.010892,-0.017248,-0.000470,-0.012619,-0.025229,-0.010777,-0.018069,-0.009068,-0.014037,0.014704,0.020671,-0.016317,-0.008752,-0.011731,0.053591,0.028551,0.021636,0.024988,0.035418,-0.008346,0.020668,0.031722,0.040296,0.029238,-0.009072,0.020717,0.057756,0.028109,0.023938,-0.007214,0.031967,0.049611,0.011505,-0.009107,0.028582,0.017485,0.015324,-0.022545,-0.011191,0.034833,0.070032,0.084026,0.081211,0.023448,0.063160,0.101939,0.063372,0.041334,0.024989,0.059009,0.071010,0.026607,0.018009,0.016586,0.006159,0.004879,0.029063,0.019378,-0.001071,-0.008479,0.010116,0.002378,0.014116,0.004090,0.013711,-0.000560,-0.026231,-0.015688,-0.016732,0.002395,-0.011161,-0.007449,0.008884,0.004203,-0.025381,-0.006995,0.012613,-0.000328,0.016474,0.005473,0.002311,0.008689,0.009751,0.006747,-0.001982,0.016446,0.005918,0.019828,0.004703,-0.012744,0.000329,0.004565,-0.021013,-0.008219,-0.004263,-0.007412,-0.018025,-0.008813,-0.003094,0.018064,0.012599,-0.005083,0.005955,-0.002946,0.004740,0.010864,0.001576,0.002112,0.010489,0.022527,0.018367,0.031140,0.017210,0.018624,0.011313,0.007349,0.006466,0.011211,-0.018688,0.019441,0.007481,-0.011239,0.004329,0.002787,0.005585,0.006701,-0.008604,-0.004716,-0.003433,0.007011,0.000526,0.009635,0.014472,0.013238,-0.004573,0.002508,0.006760,0.007305,0.015034,-0.023024,-0.001450,-0.006891,-0.031149,-0.013743,-0.000600,-0.012811,0.002122,-0.012878,-0.022957,0.003358,-0.025555,-0.010602,-0.023787,-0.011523,-0.007377,0.004035,-0.013652,-0.008627,-0.005700,-0.012828,-0.001867,-0.004258,-0.012346,-0.001132,-0.021294,-0.010582,-0.014955,0.009186,-0.016337,-0.025197,-0.016071,0.003072,-0.017675,-0.014685,-0.022341,-0.047389,-0.045766,-0.027632,-0.002277,-0.022925,-0.029658,-0.024993,-0.030084,-0.018054,0.024556,0.007466,0.031474,0.026337,0.001634,0.011874,-0.002622,-0.004115,0.023686,0.032421,-0.005305,-0.004651,0.003099,0.011463,0.004725,-0.016832,0.014809,0.008277,-0.000073,0.006082,0.001969,0.006806,-0.004730,0.009991,0.001102,0.002044,-0.006132,0.006220,0.009470,0.001523,0.012109,0.040421,0.067365,0.051000,0.035198,0.038640,0.076913,0.065006,0.028126,0.015503,0.094991,0.106282,0.046662,0.002906,-0.017561,0.095371,0.047401,-0.003138,-0.025889,-0.003952,0.029713,0.008890,-0.019743,0.026049,0.022408,-0.022705,-0.038133,-0.026855,-0.021191,-0.022429,-0.054173,-0.049011,-0.041601,-0.024553,-0.008669,-0.055349,-0.034807,-0.020534,-0.025411,-0.000677,-0.031057,-0.010195,0.000925,-0.014530,0.006248,-0.013625,0.008125,0.013783,0.001212,-0.000155,-0.010501,-0.023038,-0.033567,-0.036642,-0.014952,-0.031670,-0.036285,-0.038188,-0.039588,-0.002799,-0.052152,-0.028314,-0.026231,-0.012519,-0.008486,-0.030865,-0.013751,0.003237,-0.007245,0.023230,-0.002229,0.029967,0.030564,0.039960,0.012883,0.000823,0.022917,0.012451,0.008878,0.006189,-0.006077,0.008364,0.012049,-0.002580,-0.004429,0.000441,0.000757,-0.012155,-0.004005,-0.020834,-0.000615,-0.009922,-0.019144,-0.010580,0.000640,-0.018941,-0.018996,0.003434,-0.005749,0.001549,0.007154,0.014414,0.006125,-0.004377,0.007349,-0.000837,0.010058,0.012943,-0.007851,0.000350,0.014720,0.015036,0.020773,0.019529,0.025172,0.008585,0.018242,0.015201,-0.004076,-0.000801,0.030955,-0.016444,-0.025347,-0.010082,-0.018739,0.028781,0.022057,-0.021036,0.004555,0.017672,-0.000442,-0.005576,-0.002846,0.031294,0.022748,-0.038088,-0.018347,0.006981,0.026558,-0.009139,-0.015676,0.021686,0.027078,0.000131,-0.023555,0.021893,0.047082,0.003009,-0.011128,-0.003914,-0.003500,-0.021077,-0.021434,-0.009761,-0.000914,-0.014728,-0.012367,-0.019786,0.001727,-0.008329,0.005318,-0.001114,0.013953,0.013009,-0.001467,0.011298,0.030574,-0.007944,-0.004086,-0.017675,0.016927,-0.002176,-0.007884,-0.015214,-0.007983,0.008546,0.006949,-0.007259,0.008731,0.001911,-0.003242,0.001848,-0.006357,0.002677,-0.003640,-0.007379,0.003626,0.005319,0.007427,0.002325,0.013338,-0.000307,-0.011307,-0.000624,0.008693,-0.001853,-0.004219,0.002769,-0.012041,-0.001465,-0.014435,0.004469,0.001255,0.002269,-0.003540,0.006542,0.009644,0.003457,0.004005,-0.008134,0.001516,0.011991,0.005889,-0.015882,-0.000084,-0.000275,-0.013975,-0.000139,-0.005481,0.006869,-0.008976,-0.003284,0.011487,0.017961,0.011378,-0.051107,-0.012243,0.009773,0.010477,-0.018433,0.011344,0.044237,0.027627,-0.006931,-0.010752,0.036748,0.030805,-0.005835,-0.044307,-0.029045,0.022818,-0.006591,-0.043850,-0.028414,-0.000581,0.013123,0.016865,0.005039,0.011211,0.013208,-0.041047,-0.038353,-0.025339,-0.041922,-0.036724,-0.041183,-0.009175,-0.033210,-0.024852,-0.019245,-0.016210,-0.023806,-0.016759,-0.027213,-0.010201,-0.020882,-0.019997,-0.024699,-0.000256,0.010761,0.001664,-0.010128,0.007548,0.012830,0.018656,-0.050353,-0.036027,-0.025404,-0.018369,0.006600,-0.017962,-0.018251,-0.018769,-0.021733,-0.026318,0.008893,0.004757,-0.035082,-0.054029,-0.018573,-0.001060,-0.012604,-0.020483,-0.031635,-0.017433,-0.011626,-0.012931,0.000185,0.007466,0.006314,0.008149,0.027954,0.004506,0.011915,0.006246,0.011331,0.027224,0.018896,0.003108,0.009899,0.012493,0.005502,-0.004569,0.007105,-0.015510,0.009759,-0.010301,0.010528,0.000647,-0.000904,-0.004585,-0.000975,0.000022,-0.003339,0.004236,0.005741,0.020390,0.006328,0.010401,0.025241,0.002862,0.007833,0.006464,-0.004097,0.002765,0.005874,0.015634,0.011163,-0.018196,0.005779,0.037669,0.018799,0.021926,-0.010885,-0.009269,0.000360,0.029770,0.006055,-0.009557,-0.014914,0.003394,-0.011257,0.011772,0.012475,0.001979,0.016255,-0.001237,-0.028205,-0.013747,-0.009330,-0.011592,-0.025527,-0.020147,-0.023393,-0.008248,-0.009003,-0.013595,-0.016471,-0.000563,-0.014277,-0.000032,0.006653,0.007818,-0.006455,0.006580,-0.006785,-0.017373,-0.034757,-0.047552,-0.021730,-0.013718,-0.050893,-0.048748,-0.031218,-0.018122,-0.021321,-0.029466,-0.028281,-0.028484,-0.005136,0.002646,-0.013364,-0.016239,-0.033439,-0.020844,0.003079,-0.005994,-0.011416,-0.029908,-0.006659,0.008054,-0.004279,-0.029140,-0.033341,-0.015289,-0.021859,-0.031332,-0.031950,-0.024227,-0.010814,-0.012940,-0.005188,-0.013598,-0.009153,0.003621,0.016695,0.018601,0.002325,0.007181,0.008791,0.018657,0.006545,0.003269,-0.004938,-0.006703,-0.030386,-0.007772,0.000250,-0.011172,0.001157,-0.017452,-0.003556,-0.016147,-0.013421,-0.023884,-0.013976,-0.007111,-0.011244,-0.034907,-0.023757,-0.001047,-0.018715,-0.009872,-0.012457,-0.006860,0.005134,-0.005639,0.005297,0.003308,-0.001645,0.006748,0.025593,-0.006937,0.028226,0.023484,0.018935,0.017671,0.004326,-0.009789,0.003099,-0.019090,0.006615,0.010789,0.014217,0.013117,-0.010152,0.010077,0.018656,-0.011545,0.004841,0.009777,0.001473,-0.011520,-0.026212,-0.000118,-0.000721,-0.020129,-0.003306,0.003405,0.008560,-0.001515,-0.013479,-0.014053,0.000453,-0.007404,-0.008533,-0.002939,-0.015271,0.012123,-0.011876,-0.011546,-0.006851,-0.023694,-0.000368,-0.002347,0.004561,-0.016252,-0.001060,0.011408,0.001138
-0.012235,-0.002194,0.012234,0.014214,0.036107,-0.023195,-0.020472,-0.031110,-0.001569,-0.000788,-0.017872,-0.028221,0.007858,0.001438,0.016099,-0.020262,-0.009737,-0.026547,-0.012391,-0.004630,-0.035097,-0.017498,0.001357,-0.014398,-0.017579,0.004384,0.002107,-0.013283,0.000554,0.029488,0.009012,-0.008771,-0.000469,-0.016334,0.014571,0.006721,-0.002553,-0.007741,0.008553,0.008019,0.011907,0.005114,-0.004192,-0.001078,0.034601,0.002543,0.000539,-0.007949,-0.002085,0.023076,0.019145,0.003006,0.025324,0.020482,0.015402,-0.009560,-0.001473,0.004207,0.006010,-0.000127,-0.002987,-0.021126,-0.001872,-0.003726,0.010446,-0.009873,-0.008505,-0.014059,-0.004129,0.009438,-0.015011,-0.014822,-0.012494,-0.001003,0.008175,-0.004177,-0.000304,-0.013632,-0.027066,-0.017672,-0.003363,0.021130,0.019889,-0.008644,0.005855,0.003703,0.029983,0.029609,0.008081,0.001683,0.010745,0.025832,0.010435,-0.011115,0.009600,0.004616,0.042885,0.017475,-0.001082,-0.000495,0.031617,0.016043,0.022541,0.001321,-0.005395,0.022225,0.036920,0.020057,0.012925,-0.011813,0.013952,0.025425,0.024918,0.029405,-0.012402,-0.002382,0.003458,-0.002366,-0.004584,-0.012100,0.001577,0.013404,0.011839,-0.010986,0.001563,0.015298,0.011465,0.003236,-0.016840,-0.011303,0.039774,0.030912,0.006105,-0.009516,0.000059,0.020437,0.025126,0.018267,-0.004731,0.000256,0.010241,0.012167,0.007116,-0.003285,0.008266,-0.007660,0.013742,0.030429,0.006995,0.017361,-0.001741,-0.017866,-0.033786,-0.019501,0.011656,-0.011900,-0.023199,-0.029050,-0.034420,-0.003027,-0.012229,-0.024375,-0.037088,-0.014298,-0.001131,-0.019724,-0.020536,-0.020373,-0.008715,-0.007244,-0.010113,0.006082,-0.010765,-0.015939,-0.011017,0.007248,0.010618,0.025161,0.011352,-0.010677,-0.001303,0.001133,0.006584,0.012910,-0.012412,-0.029837,0.001706,-0.010202,-0.008146,-0.018753,-0.015017,-0.010757,0.013356,0.010417,0.008765,-0.035537,-0.007218,-0.004034,-0.001454,-0.016002,-0.022062,-0.024371,-0.047265,-0.000842,-0.009084,-0.021591,-0.029473,-0.021917,-0.018848,0.011647,0.001271,-0.016223,-0.022815,-0.027592,0.003711,-0.006999,-0.010243,-0.016193,-0.002054,0.012551,-0.007072,-0.011142,-0.027324,-0.017400,0.003621,-0.014216,-0.004901,0.011883,0.007615,0.005814,-0.019904,-0.017827,-0.007607,-0.001781,0.001112,0.000104,-0.017522,0.007152,0.014525,0.005152,-0.004159,0.002366,0.015428,0.007945,0.013747,-0.015625,-0.000372,0.002580,0.022385,0.019756,-0.032169,-0.029586,-0.038998,-0.002556,-0.013754,-0.009720,0.003502,0.021852,-0.005365,-0.000078,-0.025143,0.008155,0.003047,-0.015360,-0.000618,-0.002770,0.013061,-0.000431,-0.000955,-0.006223,-0.005884,0.028052,0.032399,0.010367,-0.005382,0.000074,0.005531,0.029813,0.000179,0.018078,0.001057,0.023117,0.022095,0.022574,0.013240,0.017730,0.012059,0.028969,0.030833,0.008044,0.006219,0.007842,0.007711,0.006622,0.010396,-0.016244,-0.007462,-0.006266,0.008454,0.001780,0.023032,0.030068,0.028330,0.015609,0.001373,0.005810,-0.015401,-0.013588,-0.034128,-0.021141,0.007654,-0.014326,0.002404,-0.013779,0.002268,0.002051,-0.013116,-0.004391,-0.003595,0.020062,-0.009663,-0.007198,-0.017462,0.006318,0.014164,0.012376,-0.001635,0.020013,0.015156,0.014597,0.007261,0.009130,0.001336,0.011330,0.001170,-0.004621,0.004637,0.004021,0.001792,-0.008937,0.000788,0.015308,0.004550,0.004214,0.011749,0.016281,0.017221,0.013228,0.011828,0.006105,-0.027479,-0.021477,-0.021676,-0.029472,-0.009273,-0.005441,-0.025775,-0.018893,-0.011192,-0.009276,0.002971,-0.024403,-0.005716,-0.017291,-0.005074,0.001012,0.000001,-0.002469,-0.022168,-0.000719,-0.010326,0.017604,0.005657,-0.003327,0.010059,0.038371,0.053629,0.046022,0.014779,-0.002252,0.010926,0.025692,0.027624,0.001462,-0.012146,0.002920,0.018837,0.016051,-0.009052,-0.014258,-0.004854,0.009356,-0.000070,-0.002758,-0.011705,-0.008876,-0.015897,-0.017765,-0.016800,-0.002607,-0.011914,-0.003402,0.002469,0.021635,0.016206,0.003803,-0.016611,-0.000751,0.017897,0.014596,-0.027828,-0.016850,-0.023382,-0.008571,-0.007087,-0.017693,-0.010611,-0.013517,-0.012123,0.008928,-0.008408,-0.012670,-0.007959,0.012810,0.016986,0.023793,0.013702,0.010635,0.010110,-0.010666,0.002806,0.031432,0.030780,0.020655,-0.005139,-0.006128,0.018199,0.032646,-0.003558,0.007442,-0.006806,0.017533,0.022107,-0.005253,-0.019050,-0.013178,0.015754,0.012206,-0.006988,-0.012455,0.010759,0.003338,0.009443,0.006665,0.026027,-0.003735,0.001318,-0.001662,0.001509,0.009067,-0.004112,-0.011113,0.002195,0.002105,-0.015093,0.003677,-0.017654,-0.012839,-0.004852,0.015753,-0.005575,0.007512,-0.000839,-0.002229,-0.004879,-0.020688,-0.005884,0.005022,-0.002369,-0.002884,-0.008180,-0.008498,-0.018478,-0.011666,-0.000281,-0.009692,-0.012196,-0.011787,-0.004737,0.000697,-0.004050,-0.026494,0.000368,-0.004602,-0.003486,-0.008952,0.014523,-0.005298,-0.000899,-0.002869,-0.011539,-0.021255,-0.028265,-0.005322,0.001734,-0.007206,-0.027019,-0.020468,-0.005240,0.009434,-0.005354,0.004921,-0.020925,-0.005542,-0.009548,-0.004567,-0.019480,-0.011279,-0.012060,0.004083,-0.010359,-0.018470,-0.019304,-0.008274,0.000641,0.022839,0.013357,0.012260,-0.016225,0.007971,0.046310,0.033450,0.013504,-0.024489,0.008311,0.023534,0.031569,0.007862,-0.020036,-0.002197,0.014488,0.021463,0.006850,-0.020232,0.011753,0.027065,0.009204,-0.006834,-0.018726,0.007341,-0.013397,-0.010214,0.006317,-0.003874,0.011679,-0.015835,-0.013726,-0.007049,0.010398,-0.011854,-0.008759,-0.031924,-0.006705,-0.013079,0.000199,-0.011271,-0.008519,-0.004713,-0.002083,0.010684,0.011907,-0.000116,0.001967,-0.007957,0.015201,0.030008,0.025252,0.035832,0.044578,0.023798,-0.028095,-0.038360,-0.017945,-0.002632,-0.007363,-0.038650,-0.055050,-0.025148,-0.010224,0.022711,-0.007214,-0.013789,0.007958,-0.013793,0.036124,-0.022668,-0.011619,-0.000400,0.016847,0.014283,-0.026712,-0.031692,-0.028799,-0.026040,-0.004555,-0.011156,-0.031706,-0.020992,-0.015875,0.000352,-0.004068,-0.012385,-0.007478,-0.006366,0.019128,-0.004593,-0.018651,-0.009023,0.002709,0.003831,0.000317,-0.008297,-0.000251,-0.004942,0.011787,-0.037007,-0.061623,-0.029586,-0.035998,0.001270,-0.025345,-0.041337,-0.046105,-0.023063,-0.012413,-0.032348,-0.041558,-0.028865,-0.002542,-0.011607,-0.003585,-0.021885,-0.023830,0.005444,0.004033,0.011173,0.004123,-0.003279,0.005849,0.024200,-0.048541,-0.045550,-0.037662,-0.028758,-0.013546,-0.020198,-0.037507,-0.026402,-0.000119,-0.015271,-0.032022,-0.035743,-0.030648,-0.021408,-0.000129,-0.016738,-0.029493,-0.024126,-0.015617,0.015101,-0.022745,-0.017448,-0.012319,-0.008210,0.010748,-0.019710,-0.025032,-0.018157,0.019488,0.038496,-0.040064,-0.034784,-0.031332,0.006513,0.034082,-0.016818,-0.014412,-0.020955,-0.018824,0.025349,-0.007251,0.002367,-0.026838,-0.007097,0.037048,-0.013154,-0.010354,0.001844,0.003983,0.013291,-0.016262,-0.007217,-0.007573,-0.012098,0.008905,-0.009168,-0.027830,-0.021265,0.001360,0.000905,-0.012306,-0.017468,-0.011915,-0.000825,0.008984,0.000573,-0.013285,-0.001696,-0.015861,-0.001856,0.001216,-0.004878,-0.003056,-0.004075,0.005674,0.037310,0.027319,0.002920,-0.015831,-0.002672,0.026166,0.028323,0.000896,-0.014571,0.003580,0.026576,0.034081,-0.000432,-0.025552,-0.015814,0.005520,0.006569,-0.010184,-0.041592,-0.032798,0.021045,0.012980,-0.015516,-0.021219,-0.045522,-0.005185,0.001058,0.009885,0.018725,-0.008203,0.003543,0.003253,-0.003211,0.004125,0.008480,-0.005110,0.007351,0.017878,0.031004,0.022538,-0.031332,0.000759,0.022118,0.016568,-0.002564,-0.007467,0.004767,0.012604,0.014871,0.010871,-0.014009,-0.009154,-0.021675,-0.000723,0.004058,-0.018075,-0.005583,0.000241,-0.017857,-0.004166,-0.017121,-0.021437,-0.013550,-0.012285,-0.004284,-0.012621,-0.008408,-0.003063,-0.006216,0.006375,0.015413,-0.009335,-0.007576,0.000386,0.000072
-0.008143,-0.000671,-0.007124,-0.000317,-0.011831,-0.015066,-0.002304,0.004358,0.012858,-0.005079,-0.010748,-0.000508,-0.006833,0.013948,0.013467,-0.022912,-0.012446,-0.009145,0.003193,0.013788,-0.024672,-0.029505,0.000882,0.013922,0.024765,0.012856,0.016998,-0.005291,0.012848,0.003972,0.017424,0.016262,0.008257,0.004423,0.005982,0.020180,0.030078,-0.003657,-0.024717,-0.030805,0.033551,0.000137,-0.002575,-0.027956,-0.024104,-0.003774,0.002321,-0.000165,-0.023852,-0.020492,-0.001507,0.009763,0.001213,-0.011588,-0.023422,0.011004,-0.000033,-0.004757,-0.009922,-0.010242,0.005818,-0.019309,-0.020631,-0.010133,-0.015192,-0.030799,-0.011342,-0.003836,-0.009965,0.016668,-0.013015,-0.018261,-0.004297,-0.015371,-0.009957,-0.022206,-0.013157,-0.021938,-0.015067,-0.024940,-0.025890,-0.029162,-0.036220,-0.005319,-0.027353,-0.017656,-0.018254,-0.012001,-0.012022,-0.035573,-0.017244,-0.019459,-0.010337,0.002179,-0.019913,-0.002792,-0.012931,0.015054,0.003844,0.013233,0.000742,-0.007813,-0.027990,-0.020365,-0.008533,0.011315,-0.015899,-0.022095,-0.019275,-0.011667,0.004078,0.014663,0.015903,-0.015704,-0.014601,0.001938,0.024503,0.022495,0.008079,-0.017688,0.004358,0.027869,0.020555,0.009757,-0.011280,-0.024068,-0.010537,-0.015973,-0.005983,0.000306,-0.021875,-0.040619,-0.039657,-0.038586,-0.029459,-0.012896,-0.032252,-0.036024,-0.036041,-0.030187,-0.006975,-0.003823,-0.012074,-0.014996,-0.000974,0.017864,0.003231,0.008595,0.006486,-0.000239,-0.006321,-0.018126,-0.012712,-0.006903,-0.005268,0.003852,0.019861,0.000208,-0.009938,0.003339,-0.000320,0.002143,0.005321,0.002144,0.015635,-0.000158,0.006347,0.010376,0.006019,-0.001200,-0.005755,0.019584,0.016886,0.012359,0.023417,0.003012,-0.016671,-0.010878,-0.000246,0.016701,-0.009898,0.005744,0.008515,0.004126,0.022598,-0.018826,-0.015337,0.002025,-0.006414,0.014065,-0.034748,-0.016307,-0.023831,-0.000808,0.007556,-0.028475,-0.023557,-0.022485,-0.007515,0.023579,-0.004885,0.008922,0.007056,-0.005001,-0.007797,-0.001314,0.000841,0.013935,0.003985,-0.015708,-0.017271,-0.023182,0.002615,0.010087,0.006874,-0.019141,-0.010684,0.005466,0.016665,0.017622,-0.020845,-0.013347,-0.018986,0.017325,0.026649,-0.005671,-0.015037,-0.005750,-0.000229,-0.004889,-0.009347,-0.000070,-0.000246,-0.012540,-0.012814,-0.020369,-0.028678,-0.011581,0.014038,-0.002246,-0.036112,-0.031517,0.015751,0.018166,0.016868,-0.011575,-0.022939,-0.003352,0.004324,0.024124,-0.016640,-0.012012,-0.025133,-0.002667,0.015877,-0.037221,-0.021443,-0.020709,-0.028070,-0.015065,-0.036584,-0.048149,-0.020485,-0.021507,-0.030446,-0.034622,-0.011727,-0.006166,-0.014985,-0.022349,-0.004146,-0.021626,0.017764,0.009908,0.027401,-0.003597,0.002222,0.016216,0.013726,0.015827,0.000621,0.021065,-0.000955,0.010891,0.020366,0.011712,0.026359,0.011085,0.005388,0.014258,0.016806,0.013666,0.014232,-0.005502,-0.007327,0.023739,0.014937,0.014094,-0.006573,-0.006915,-0.025850,-0.010494,-0.015482,0.010787,-0.011760,-0.003561,-0.028640,-0.044397,-0.031121,-0.018866,-0.003876,-0.037271,-0.047399,-0.019928,-0.028482,-0.022450,-0.011787,-0.002191,0.008927,0.021933,-0.003492,0.002288,0.032390,0.036228,0.041341,0.020974,0.013279,-0.002929,-0.012980,0.012404,0.058620,0.042003,0.031977,-0.002687,-0.017237,0.043316,0.051115,0.062302,-0.000788,-0.008684,-0.006246,0.029699,0.026155,0.030469,0.006484,-0.012548,0.013627,0.005824,0.027367,0.020403,0.049289,0.041708,0.049716,0.025906,0.010055,0.036202,0.045880,0.042112,0.011316,0.019055,0.010315,0.037890,0.029167,0.005784,0.012090,0.017682,-0.014817,0.004163,-0.005640,0.032144,0.012787,0.010009,-0.007102,0.005218,0.024681,0.009671,-0.011341,-0.010781,0.002699,0.015079,0.017572,0.009141,-0.013902,-0.017205,0.007204,0.010496,-0.011843,-0.016853,0.001509,0.012818,0.004058,-0.011199,-0.029402,0.000873,-0.016182,0.000025,-0.006505,0.003090,-0.014925,-0.013398,-0.001084,-0.009175,-0.032403,-0.003811,-0.020814,-0.020105,-0.017645,-0.008217,0.017258,-0.004314,-0.016228,-0.006707,-0.010646,0.008841,0.015576,0.016918,-0.002114,0.000793,-0.011927,0.001605,-0.010289,0.025231,-0.004960,-0.007366,-0.018055,-0.010624,-0.015456,-0.039727,-0.024892,-0.005629,-0.000009,-0.005442,0.007270,-0.014809,-0.009232,0.008169,0.055906,0.054823,0.002266,-0.017565,-0.007348,0.028194,0.040806,0.031474,0.006393,0.006902,0.016729,0.038938,0.028530,0.016605,-0.003193,-0.004963,-0.019943,0.003910,-0.009320,-0.010777,-0.008950,-0.013405,-0.015073,-0.007819,0.019796,-0.007611,-0.013323,-0.017447,-0.034507,0.034876,0.020009,-0.021159,-0.017069,-0.041954,0.022408,0.020408,0.010414,-0.020679,-0.024741,0.006434,-0.005249,0.010992,-0.003787,0.004048,-0.003495,0.003726,0.004773,-0.010421,-0.008251,0.014333,0.003162,0.016366,0.006307,0.001914,-0.012998,-0.014414,0.006180,0.016859,0.013484,-0.021614,0.003219,-0.008847,0.003704,0.018040,-0.022813,0.008719,0.007937,0.003651,-0.011274,-0.029514,-0.002674,0.005942,0.003575,-0.010238,-0.030776,-0.035001,-0.018705,0.006486,0.001610,-0.018120,-0.029525,-0.018323,-0.016333,0.007306,-0.025411,-0.013353,-0.015910,-0.006503,0.026641,-0.022154,0.021161,0.016107,0.005728,-0.025257,-0.033513,-0.021833,-0.004127,0.007654,-0.019150,-0.048722,-0.033782,-0.035802,-0.007476,-0.005064,-0.013297,-0.030027,-0.028294,-0.025059,-0.028072,-0.017578,-0.004290,-0.017319,0.003516,0.001764,0.004187,0.006057,0.002819,0.000712,0.001946,0.000132,0.025546,0.010883,0.014147,0.002924,-0.000877,0.005080,0.029176,0.024785,0.001041,-0.041764,-0.023901,0.004384,0.041962,0.031776,-0.047656,-0.021633,-0.004498,0.009042,0.031226,0.049880,0.025677,0.017601,-0.007134,-0.022113,0.047996,0.044306,0.032928,-0.006635,-0.028346,-0.019562,0.015184,0.032884,0.015523,-0.016770,-0.047014,-0.027293,0.012426,0.031011,0.028010,-0.035708,-0.019894,0.011965,0.028814,0.050198,-0.016418,-0.003685,0.000992,-0.004547,-0.004018,-0.000967,0.011777,-0.002328,-0.022316,-0.005481,-0.006319,-0.013753,-0.016398,-0.000634,-0.009865,-0.011363,-0.002117,0.017216,0.007399,0.012314,-0.003021,0.000369,0.006728,0.018674,0.005683,-0.002633,0.010080,-0.013021,0.004520,-0.002912,0.003882,0.004012,-0.002665,-0.014036,-0.020524,-0.007598,-0.016606,-0.011225,-0.031460,-0.018308,-0.004894,0.001749,-0.010771,-0.016330,-0.028246,0.008850,0.017513,0.024830,0.006370,-0.005968,-0.009559,0.008229,-0.001527,0.004736,0.006173,-0.002067,0.020835,0.009453,0.013674,0.003047,-0.020852,-0.005211,0.009783,0.016326,0.012064,-0.021553,0.003955,0.010908,0.010261,0.035633,-0.004298,0.013091,0.008853,0.014516,0.023440,-0.018198,0.007085,0.017013,0.022739,-0.005749,-0.028675,0.005326,0.007795,0.044289,0.023164,-0.011617,0.003156,0.021587,0.012461,0.022459,0.030045,0.015840,0.014144,0.013207,0.012641,0.001065,0.006162,0.032778,-0.005507,-0.020469,-0.007125,0.000069,0.016484,0.003271,-0.007779,-0.014836,-0.003982,-0.011295,0.012308,-0.017234,-0.001663,0.000384,-0.006559,0.002697,-0.011774,0.004730,-0.004225,-0.012374,-0.020418,0.004212,0.006147,0.016066,0.005899,-0.000878,-0.022058,-0.013908,-0.010796,-0.003818,0.007441,0.001713,-0.019439,-0.023168,-0.010961,0.003162,-0.001200,-0.003358,-0.008998,-0.028156,-0.007147,0.005305,-0.002479,-0.010886,-0.025014,-0.017477,-0.003380,0.023300,0.011155,-0.011757,-0.013801,-0.025399,0.012807,0.002977,-0.000587,0.006865,0.016367,-0.021497,-0.009866,0.001998,-0.000470,-0.002683,-0.001068,-0.013558,0.004846,-0.009872,0.000821,0.021912,0.007767,-0.008314,-0.014086,-0.024657,0.010665,0.019413,0.001707,0.012946,-0.016219,0.014597,0.009389,0.001103,-0.003507,0.002817,0.003762,0.010543,0.008783,0.013772,-0.001788,0.003177,0.005353,0.009770,0.009609,-0.014362,-0.016342,-0.001627,0.007751,0.005067,0.016966,-0.011453,-0.014156,0.008141,-0.007000,0.002924
0.004716,-0.010844,0.006520,0.028019,0.007625,-0.009149,0.002803,-0.000629,-0.019174,-0.007834,-0.035019,-0.002114,-0.004287,-0.036996,-0.034452,-0.001273,-0.013593,-0.016240,-0.003324,-0.008986,0.005906,-0.005185,0.017875,0.004138,0.014395,0.010253,-0.008173,0.001728,-0.023247,-0.026729,0.013148,0.001562,-0.013773,-0.009114,-0.018917,-0.016917,-0.010257,-0.017423,-0.024665,-0.002682,-0.028099,-0.026578,-0.035670,-0.022944,0.000434,-0.024736,-0.017933,-0.020912,-0.021313,-0.001584,-0.023970,-0.004883,0.009318,0.014286,0.014435,-0.014381,0.004541,0.004562,0.011555,0.005140,-0.024353,-0.005949,-0.006375,-0.008350,-0.021828,0.006127,-0.013274,-0.026564,-0.008089,-0.000677,0.015765,0.001392,0.000060,0.017884,0.004378,0.044908,0.038571,-0.008167,0.004196,0.017363,0.015604,0.002393,-0.010214,0.005223,-0.000081,0.013020,0.048862,-0.001460,0.036954,0.023015,-0.001217,0.001734,0.007121,0.039011,0.023135,0.000879,-0.009643,-0.019493,0.004499,0.022656,0.012419,-0.002191,-0.026180,-0.033771,-0.017952,-0.007052,-0.025008,-0.006078,-0.012485,-0.011572,-0.008334,-0.020129,0.001509,0.012734,-0.006010,-0.008026,-0.006935,-0.011846,0.014747,-0.017795,-0.024788,-0.019843,-0.020353,-0.001535,-0.010329,-0.005523,-0.002764,0.000486,0.013542,0.013720,0.006190,0.017512,0.013143,-0.004409,-0.009742,0.002587,0.010903,-0.002605,-0.011918,-0.022723,-0.005526,-0.005179,-0.010529,-0.008353,0.022176,-0.003975,-0.007958,0.005800,0.026914,0.020313,-0.012032,-0.012497,-0.011904,-0.011379,-0.003640,-0.038032,-0.004211,-0.016454,-0.012397,-0.002797,0.007411,0.009012,-0.004154,-0.008229,0.012091,-0.009914,0.012430,0.007338,0.000229,-0.004438,-0.009563,0.007329,0.008726,0.004609,-0.006531,0.021518,0.035917,0.029554,0.024252,-0.004117,0.001377,0.002497,0.009139,0.012019,-0.001749,-0.005199,-0.017891,-0.013747,-0.014630,-0.022811,-0.004232,-0.002077,-0.011920,-0.007271,-0.033483,-0.001213,0.017136,0.025787,0.012679,-0.011260,-0.026463,0.000856,0.001485,0.023000,0.027666,-0.039384,-0.024383,0.006189,-0.006161,-0.010649,-0.014460,-0.010255,-0.009556,-0.015545,-0.029186,-0.011857,-0.005895,-0.026715,-0.012043,0.000212,0.004565,0.000903,0.008906,0.009770,0.015439,-0.015114,-0.004346,0.015161,0.012380,0.004992,-0.021379,0.009525,0.004693,-0.006674,-0.013369,-0.018100,-0.022481,-0.002691,-0.008132,-0.021545,0.005904,-0.000695,-0.011960,-0.006431,-0.006097,0.012188,0.008270,0.007328,0.015604,0.001903,0.024754,0.037485,0.013029,0.028068,0.043117,0.017555,0.010526,0.020281,-0.002619,0.014676,0.016833,0.027679,0.031496,0.030396,0.018902,0.013308,0.016892,0.015451,0.022040,0.039412,0.004521,0.009726,-0.004476,0.004168,0.043585,-0.000080,0.014955,0.004301,0.032532,-0.008569,-0.010943,0.003941,-0.001723,0.002800,0.003379,-0.013350,-0.029636,-0.025791,-0.012874,-0.027513,-0.021162,-0.012982,-0.025686,-0.015834,-0.034626,-0.007907,-0.014306,-0.005227,0.003305,-0.001852,-0.029891,-0.025245,0.021441,0.020159,0.036286,0.024601,0.066594,0.103428,0.105154,0.052125,-0.001220,0.011845,0.017180,0.003691,-0.003098,-0.048327,-0.044393,-0.036588,-0.029517,-0.060825,-0.008616,0.001913,0.010597,0.004840,-0.002205,-0.008372,-0.029090,-0.017961,-0.039832,-0.049047,-0.005664,-0.006348,0.010341,-0.002210,-0.013662,-0.023973,-0.006501,-0.006147,0.010162,0.004738,-0.026282,-0.014306,-0.000052,-0.006475,-0.010614,-0.007787,-0.010844,0.005171,-0.009209,0.000839,0.020297,0.018414,0.014923,0.015833,-0.016497,0.001157,0.006445,0.007702,0.028924,0.005255,-0.028456,-0.008217,-0.038399,-0.018645,0.001967,-0.024908,-0.011075,-0.012485,-0.016399,-0.018832,0.000070,0.004141,0.000120,-0.014648,-0.026426,0.001172,0.021274,0.026481,0.027462,0.013859,0.008570,0.030462,0.036689,0.012978,0.015052,-0.024397,-0.013508,0.007418,-0.011303,-0.007614,-0.028282,-0.026854,-0.021313,-0.030550,-0.015908,-0.029386,-0.014647,-0.036037,-0.031829,-0.034678,0.006796,-0.006014,-0.015839,-0.001513,-0.013006,-0.024298,0.000307,0.011443,0.013009,0.005566,0.003975,0.002737,0.003537,0.026054,0.009745,-0.009581,0.002419,0.016766,0.008742,0.007402,-0.002091,0.022470,0.008666,0.005776,-0.000358,0.019751,-0.011690,-0.051493,-0.030574,-0.043481,0.000850,-0.027032,-0.047127,-0.030965,-0.004982,0.000889,-0.018421,-0.022409,0.011736,0.000336,0.004826,0.012395,-0.003304,-0.006055,-0.009297,0.023054,0.008392,-0.010899,-0.018120,-0.003208,-0.012649,-0.026112,-0.044304,-0.025082,-0.036937,-0.026586,-0.000541,0.009849,0.012262,0.005100,0.009583,0.014043,0.015223,0.022506,0.032239,-0.019821,-0.013486,0.017345,-0.005505,-0.008474,0.000343,0.007858,0.017147,0.011024,-0.029028,0.002594,-0.017395,0.008613,-0.005456,-0.002439,-0.000877,-0.013369,-0.000992,0.001221,0.011087,-0.012503,-0.030901,-0.000425,-0.005121,0.004733,0.008464,-0.002167,0.000037,-0.008407,-0.003619,-0.000152,-0.009286,0.017952,-0.017520,0.002244,-0.027926,-0.005373,-0.001906,0.011531,0.002125,-0.013936,-0.009083,-0.008601,-0.004163,-0.020375,-0.009254,-0.002385,-0.019004,-0.014993,-0.001803,0.012489,-0.002289,-0.007894,-0.013356,-0.000659,0.007104,0.002920,0.007026,0.011917,0.012939,-0.023548,-0.032883,-0.024507,0.003540,0.003652,-0.014768,-0.021124,-0.016705,-0.016571,-0.019611,0.024140,0.020542,0.000395,-0.015604,-0.038781,0.035615,0.028294,0.000137,-0.002202,-0.006522,0.014802,0.010353,0.001705,0.013898,0.023542,-0.006469,-0.009260,0.001550,-0.001855,-0.009538,-0.013318,-0.015732,-0.002705,-0.001451,-0.010466,-0.014377,-0.005501,-0.009495,0.001310,-0.018298,-0.004842,0.006010,-0.016645,-0.016918,-0.019375,0.019727,0.026637,0.005231,0.004792,0.001224,-0.031942,0.023916,0.068105,0.046436,0.027913,0.046558,0.087966,0.124589,0.114650,0.039001,-0.028176,-0.014183,0.005034,0.007099,-0.016773,-0.036608,-0.046332,-0.057743,-0.035957,-0.058413,0.015560,0.020987,0.015851,0.003143,-0.001717,-0.013805,-0.017298,0.001534,-0.004394,0.013425,-0.019514,0.002615,0.010310,0.001415,0.020428,-0.016519,-0.019056,-0.012120,-0.009921,0.009012,-0.002750,0.006281,-0.007099,0.002005,0.024742,0.011551,0.011493,-0.008409,0.001046,0.022198,-0.023983,-0.025387,-0.029726,-0.014822,-0.000780,-0.017551,-0.012955,-0.036316,-0.011268,-0.020374,-0.012809,-0.027392,-0.016397,-0.030627,-0.016128,-0.000564,-0.016416,-0.019094,0.004873,0.014494,0.010121,0.011650,0.001420,-0.005905,0.017014,-0.034918,0.006954,0.021449,0.019772,0.008782,-0.011111,-0.007179,0.013986,0.017000,0.028844,-0.015651,-0.014106,-0.021418,-0.016550,0.012595,-0.008711,-0.014404,-0.003005,0.013368,0.010060,0.008722,0.010286,-0.001128,0.007483,0.014265,0.006140,0.014064,0.005162,0.021257,-0.026676,0.008880,0.009243,0.040862,0.026151,0.001016,-0.003400,0.016321,0.002269,0.008853,-0.004699,-0.037846,0.000048,-0.017782,0.007226,-0.015732,-0.004397,0.008220,0.013795,0.014355,0.007041,-0.025946,-0.014405,-0.012585,-0.011185,-0.005542,-0.009879,-0.004516,-0.018296,-0.005769,0.001314,-0.006939,0.009537,0.000899,0.023228,-0.010909,-0.003992,0.005569,0.016483,0.006736,0.008234,-0.001051,0.000898,0.003725,0.007635,0.001296,-0.011415,-0.011934,0.007431,0.010151,0.004446,0.010022,0.020875,0.001112,0.016542,0.020109,-0.013625,-0.000627,-0.006971,-0.015091,-0.003038,-0.024822,0.001045,-0.021219,-0.028235,-0.041194,-0.016987,-0.024425,-0.033010,-0.032221,-0.029995,0.016967,0.026428,0.014507,0.014282,-0.010909,0.008987,0.002192,-0.001590,-0.013741,-0.012355,-0.015572,-0.013078,-0.011058,-0.017921,-0.018420,-0.014519,-0.017535,-0.001468,-0.016361,-0.016384,-0.017945,0.003220,0.006364,0.010967,0.011550,-0.006068,-0.012900,0.006867,-0.014865,0.013440,-0.016302,-0.002865,0.004242,0.015125,0.003463,0.000849,-0.030561,-0.018908,0.016692,-0.001573,-0.001208,0.000333,-0.024546,-0.016598,0.018055,-0.003934,0.000836,-0.004322,-0.009320,-0.000422
-0.018264,-0.014679,-0.015130,-0.002355,0.000192,-0.014435,-0.024067,0.000431,-0.003656,0.003711,0.005003,0.011732,-0.005633,-0.000584,0.005251,0.000114,0.011932,0.005183,0.011604,0.012162,-0.004093,-0.007277,-0.009545,0.022753,0.018941,0.005870,-0.004250,-0.000304,-0.003147,0.027518,-0.008364,-0.001974,-0.005672,-0.009138,0.009497,-0.010446,-0.015440,0.001365,0.001791,-0.008176,-0.018835,-0.002587,-0.027860,-0.010369,-0.022839,-0.006460,0.004438,0.001139,0.005534,-0.000508,-0.002257,-0.007095,-0.007258,-0.013212,0.003478,-0.011908,-0.006130,-0.013660,0.004245,0.002860,-0.002321,-0.014263,-0.005623,-0.006992,-0.009923,0.003578,0.002000,-0.007205,-0.007221,0.006929,0.003264,-0.001826,0.021722,0.012949,0.006773,0.002211,0.024275,0.025371,0.025810,-0.007547,0.018320,0.030024,0.022357,0.002050,0.006231,0.007087,0.007198,0.000564,-0.014298,-0.010918,0.025882,0.003453,-0.014553,-0.009432,-0.014943,0.004622,0.008356,-0.013625,-0.015768,-0.024986,0.017734,0.050007,0.031965,-0.001419,-0.006310,0.008023,0.030069,0.003049,-0.011996,-0.020847,0.003204,-0.003902,-0.001290,-0.031088,-0.015433,0.013059,-0.003268,-0.020375,-0.021679,-0.008236,0.021346,-0.016453,0.006728,-0.001150,0.006823,-0.012028,-0.004302,-0.000449,0.001019,-0.007914,-0.010266,-0.031336,-0.006903,-0.006503,-0.001465,-0.018452,-0.006432,-0.023966,-0.017715,-0.017579,-0.012566,0.000143,0.006606,-0.011110,0.007097,-0.003430,0.018270,0.001077,-0.004714,0.020423,0.019878,0.021411,0.001868,0.011418,0.006302,-0.003357,0.011796,0.006853,0.012346,0.012454,-0.002791,0.007673,-0.007747,0.000933,-0.016641,-0.006210,-0.010511,-0.021651,-0.008609,-0.020281,-0.021295,-0.014870,-0.010938,-0.005639,-0.016666,-0.001488,-0.004137,0.006406,0.005322,-0.022250,-0.021100,0.000474,0.010156,-0.004982,-0.014974,0.009876,-0.001078,0.007723,-0.008572,0.002726,0.006365,0.003482,-0.002865,0.001104,0.016432,0.010241,0.004431,0.010298,-0.001761,0.002665,0.005028,0.019934,-0.002736,-0.004845,0.009611,0.016199,0.001699,-0.002138,0.000218,0.002604,0.003231,-0.018505,-0.017896,-0.011944,-0.017784,-0.028455,-0.004277,-0.038459,-0.019021,-0.022799,-0.012827,-0.018421,-0.021236,-0.008468,-0.011624,-0.012946,-0.009705,-0.009393,0.007085,-0.006811,-0.005338,-0.014320,-0.024990,-0.006389,-0.011517,-0.019926,-0.007825,-0.000043,0.000756,-0.015232,-0.013479,-0.005815,0.007470,-0.002708,0.021236,0.001439,-0.005634,0.002073,0.021589,0.000104,0.067653,0.046410,-0.001972,-0.004075,0.037544,0.071560,0.036902,-0.017049,-0.021947,0.030655,0.066975,0.019762,-0.009889,-0.026878,0.010072,0.016593,0.008842,-0.014280,-0.029035,0.006987,-0.023111,-0.018793,-0.009497,-0.020065,-0.007463,-0.002584,-0.009891,-0.012180,0.011611,-0.007433,0.002965,-0.000977,0.002078,-0.003740,-0.002791,-0.004509,0.000851,-0.006289,0.020447,0.007904,0.018846,0.012245,0.001172,0.004190,0.008621,0.012608,0.012266,-0.011494,0.003888,0.006597,-0.001169,0.004495,-0.020292,-0.016834,0.007496,-0.033502,-0.034051,-0.019372,-0.034466,-0.008210,-0.042000,-0.031532,-0.029033,0.002666,-0.010968,-0.018142,-0.028409,0.012327,0.026253,0.014575,0.009261,0.014370,0.028685,0.041006,0.018803,-0.001355,0.011240,-0.003485,0.010975,0.003357,-0.000879,0.003778,-0.018407,-0.018006,0.012000,-0.014267,-0.011307,-0.025593,-0.036505,-0.002334,0.002652,-0.020307,-0.012353,-0.006450,0.004409,0.022902,0.016811,0.004150,-0.019757,0.013874,-0.000630,-0.019914,-0.014200,-0.025054,-0.007227,0.010005,-0.021075,-0.017729,-0.026973,0.017255,0.000912,-0.024175,-0.018567,-0.028424,-0.014596,0.009194,-0.006343,-0.011263,0.002050,0.005317,0.008955,0.002152,-0.011466,-0.008475,0.023999,0.036730,0.029051,-0.002253,0.010328,-0.005359,0.010488,0.008269,-0.002882,-0.005840,-0.001067,0.006855,-0.001571,-0.001838,-0.001444,0.007198,-0.000277,-0.005965,0.014285,-0.019210,-0.010892,0.017620,0.005064,0.022363,0.023381,0.012670,-0.012061,0.017354,0.013898,-0.003471,0.007502,0.005770,0.016760,0.024543,0.006590,0.008893,-0.013813,0.002081,0.014500,-0.002741,0.003249,0.002395,0.010594,0.015486,0.002854,0.004282,-0.001143,0.011850,0.016073,0.004968,0.026611,0.001409,0.048892,0.039036,-0.016299,-0.020149,0.011195,0.055507,0.018304,-0.013463,-0.015327,0.025592,0.013338,0.014774,-0.034735,-0.047453,0.026258,0.004258,-0.002766,-0.019837,-0.031861,0.024042,0.011736,-0.021003,-0.010393,-0.011321,0.020639,0.025379,0.009945,0.011703,0.011568,0.030815,0.032119,0.027659,0.015812,0.016425,0.018701,0.024318,0.020797,0.006423,0.002017,-0.002383,-0.013931,-0.005179,-0.014822,-0.014057,0.005915,-0.011589,-0.003603,0.015129,-0.027507,-0.000203,0.011139,-0.000625,0.016283,-0.005695,-0.005373,0.003828,-0.007142,0.022699,-0.006068,-0.006314,-0.001799,0.009118,-0.001141,-0.007558,-0.010916,-0.004886,0.009306,0.014410,-0.001275,-0.006677,0.011257,-0.008106,-0.010826,-0.009814,0.001139,-0.000411,-0.019689,-0.018151,-0.002225,-0.006916,-0.023871,-0.019328,-0.029748,-0.011684,-0.026967,-0.012753,-0.038073,-0.023421,-0.008704,-0.008925,-0.018553,-0.019905,-0.018103,-0.004220,-0.010792,-0.017437,-0.001544,0.000186,-0.006113,0.020864,0.010278,-0.024285,-0.009689,0.015936,0.014671,-0.017439,-0.032929,-0.010276,0.006832,0.007478,-0.019741,-0.043623,-0.020908,0.011952,-0.007973,-0.032477,-0.038985,-0.025907,-0.015525,-0.034370,-0.019588,-0.018579,-0.029054,-0.016865,0.004062,-0.006901,-0.015398,-0.004028,0.010980,-0.023442,-0.018464,-0.030344,-0.027829,-0.024996,-0.007991,-0.011089,-0.029359,-0.016786,-0.021435,0.002015,-0.016362,-0.007791,-0.010681,-0.013228,0.010290,-0.026306,-0.008297,-0.003257,0.008796,-0.018809,-0.009447,0.006190,0.000183,-0.007363,-0.044730,-0.037932,-0.036231,-0.019460,-0.011793,-0.036003,-0.025638,-0.023944,-0.005182,-0.002052,0.006347,0.003117,0.017665,0.028326,0.031323,0.016881,0.019358,0.027571,0.040329,0.045082,0.028053,0.022830,0.029117,0.012023,0.014477,0.018268,0.023632,0.041645,0.018307,0.028718,0.011178,-0.000838,0.014287,0.004009,-0.015206,0.015158,0.020637,0.009794,-0.004592,-0.008445,0.003230,0.001957,-0.008121,-0.005346,0.001872,-0.039165,0.000067,0.000658,0.014246,0.003563,0.000754,-0.009539,-0.008460,0.005912,-0.012684,-0.002079,-0.010615,-0.007336,0.008903,0.010641,-0.004889,-0.010872,0.007839,-0.006283,-0.002120,-0.015311,0.010811,0.002286,-0.010969,0.002665,0.012845,0.015631,0.019464,0.005618,-0.003826,0.000673,0.016836,0.021364,0.009213,0.014347,-0.008808,-0.021110,-0.003814,-0.013511,-0.018377,-0.016791,0.005934,-0.013338,0.000645,-0.008952,-0.007137,-0.007459,-0.003881,-0.005546,0.006953,-0.008619,-0.011611,0.015782,0.017649,0.018302,-0.002893,-0.004104,-0.015648,0.002648,0.012414,-0.001313,0.002171,0.002561,0.001554,0.027430,0.003399,0.006821,-0.009384,0.012290,0.003897,-0.004591,-0.008360,-0.005614,0.013164,0.019718,0.001787,-0.016881,-0.004111,0.014956,0.003892,-0.009063,0.005838,0.014925,0.017997,0.002014,-0.012387,-0.001661,0.010185,0.008828,0.004291,-0.015493,-0.025861,-0.012447,-0.004018,-0.005669,-0.013817,0.000527,-0.021177,0.007149,-0.011082,0.030949,0.012239,-0.005211,-0.013784,0.007740,0.006358,0.000756,-0.021147,-0.018245,-0.007304,0.015417,-0.024262,-0.029344,-0.016428,0.003725,-0.028668,-0.004456,-0.020155,-0.029507,-0.006309,-0.012332,-0.007248,-0.011181,-0.011975,-0.011092,-0.009634,0.007955,0.011906,0.007037,-0.002172,-0.010447,-0.003613,0.011905,-0.003645,-0.009498,-0.016406,-0.006547,-0.001253,0.005854,0.017082,0.008568,0.002294,0.009593,0.003132,0.009108,-0.009404,-0.008844,0.002780,0.001495,0.012912,-0.002410,-0.008356,-0.006561,-0.002933,-0.000762,0.001564,-0.005853,0.002495,-0.016226,-0.017542,-0.024277,-0.002178,0.010826,0.007353,-0.011784,-0.004831,-0.005278,0.004478,0.002597,0.003011,0.018869,-0.020905,-0.005814,0.007862,0.004094
0.010164,-0.000247,-0.010115,0.005896,0.010651,-0.006168,-0.009325,-0.002255,-0.007282,-0.000127,-0.001329,-0.005658,-0.001586,0.002417,0.016870,0.003241,0.012895,0.012413,0.015074,0.007827,0.003342,-0.008635,0.005905,0.012641,0.025584,-0.010794,-0.033496,-0.037641,-0.012124,0.005614,-0.021192,-0.022350,-0.025558,-0.010369,0.002267,-0.017374,-0.024232,-0.023839,-0.012125,-0.006414,0.011535,0.009968,0.003008,0.003202,0.010357,0.012777,0.017510,0.005895,0.014043,0.022055,0.020450,-0.010607,-0.009437,-0.002756,-0.009392,0.015496,-0.012738,-0.026375,-0.014315,-0.003568,0.008258,-0.001295,-0.010138,-0.007200,-0.000789,0.000831,-0.004952,0.004554,0.008593,-0.003931,-0.005305,0.004520,0.010063,0.021484,0.021548,0.014511,0.002456,-0.014571,0.005882,0.001292,0.024861,0.021822,0.004873,-0.004438,0.013195,0.028039,0.024823,0.019897,0.015868,0.015798,0.020507,0.016156,-0.003380,0.014829,0.018918,0.008353,0.007972,-0.007232,0.000825,0.002198,0.022291,0.002130,0.003440,0.019031,0.017487,0.020857,0.025972,0.008772,0.005080,0.003955,0.034044,0.002611,0.001055,-0.013766,-0.006299,0.042303,0.005349,-0.007528,-0.013601,-0.004915,0.034931,0.000661,-0.006242,0.019496,-0.002246,-0.007256,-0.018132,-0.032524,0.000027,0.030208,-0.023988,-0.013837,-0.006539,-0.017040,-0.011824,-0.014648,-0.027547,-0.020585,-0.024893,0.007404,-0.026395,-0.029629,-0.004479,-0.000695,-0.013883,-0.005749,-0.015581,-0.002670,-0.007066,0.014514,0.029087,-0.000090,0.012240,-0.001711,-0.002271,0.025773,0.006504,0.002390,-0.004502,-0.014316,0.028091,0.021211,0.002682,-0.007985,0.001185,0.031945,0.013009,-0.001090,-0.004513,-0.018246,0.033188,-0.002538,-0.021644,-0.012189,-0.015243,0.018350,0.013967,-0.008741,0.005877,0.003924,-0.005238,-0.004989,0.006858,-0.000098,0.015122,-0.001462,-0.006449,0.004951,0.004143,-0.001392,-0.000540,-0.013002,0.003136,-0.007878,-0.006921,-0.007742,0.005268,-0.016647,0.005448,0.004270,0.041297,0.004356,0.009387,-0.010391,0.006267,0.032229,0.007017,0.002465,-0.018012,-0.011155,0.041183,0.011332,0.002666,-0.009347,-0.005648,0.016908,0.011377,-0.008348,-0.026033,-0.021766,0.021590,0.002052,-0.011550,-0.024904,-0.004187,0.000297,0.008263,-0.004586,0.001219,0.028527,-0.019134,-0.003847,-0.013308,0.003032,-0.004737,-0.014660,-0.005146,0.000964,0.012840,0.015608,-0.011222,-0.007604,-0.003533,-0.009345,0.009254,-0.002130,0.002372,0.007108,0.014221,0.027955,0.015716,-0.014763,-0.037104,0.010338,0.014423,0.026228,-0.005115,-0.013461,0.001114,0.039225,0.016159,0.001162,-0.031271,0.010506,0.046267,-0.009155,-0.006583,-0.003671,0.020418,0.051012,-0.009583,0.005260,0.014767,0.020899,0.048625,-0.011488,0.008656,-0.002562,-0.001364,0.001436,-0.004018,-0.008698,-0.001961,-0.002577,0.009179,0.002786,0.004485,-0.002964,0.012128,0.009604,0.005477,0.014779,-0.013633,0.004558,0.026101,-0.007992,-0.000779,0.012757,0.004768,0.017900,0.012137,-0.020912,-0.021378,-0.031398,-0.001729,-0.012185,-0.029844,-0.031304,-0.020394,-0.002588,-0.031946,-0.049192,-0.045644,-0.048151,-0.004864,-0.000509,-0.025719,-0.030117,-0.026472,-0.004900,-0.014975,-0.022346,-0.015226,0.021803,0.017800,0.011212,-0.002832,-0.017988,-0.015129,0.012443,0.018342,-0.007106,-0.014605,-0.017467,-0.009619,0.031005,0.014791,-0.004812,-0.003608,0.013320,0.038187,0.026063,0.000025,0.008213,0.005314,0.028578,0.026380,0.008944,0.010989,0.007418,-0.037878,-0.040026,-0.030979,-0.033986,-0.019565,-0.036008,-0.050953,-0.029123,-0.023347,-0.022442,-0.037498,-0.035014,-0.043642,-0.030022,-0.001333,-0.040194,-0.030797,-0.024909,-0.007023,-0.000471,-0.000839,-0.005306,-0.003008,0.026406,0.019722,0.008728,0.001780,-0.014733,-0.025547,-0.029662,0.012232,-0.012867,-0.008573,-0.000269,-0.024078,0.001670,0.020425,-0.011448,-0.017855,-0.037257,0.022715,0.011715,0.001715,-0.007989,-0.008296,0.037633,-0.001975,-0.003572,-0.005262,-0.003536,-0.011244,-0.032199,-0.005038,-0.004273,0.011883,-0.003374,-0.003054,-0.004695,-0.007052,-0.015197,-0.009264,-0.015675,-0.022227,-0.009637,-0.007977,-0.007050,-0.017482,-0.010188,-0.006406,-0.006702,-0.003375,-0.003461,-0.010812,0.008009,-0.003868,0.020697,0.047764,0.000452,0.017727,0.014871,0.051502,0.041252,0.007267,0.008144,0.012710,0.052866,0.041324,0.024059,0.004515,-0.001880,0.051092,0.063362,0.018302,0.015571,0.020636,0.040614,0.045802,0.014307,0.007666,-0.005987,0.004250,-0.020517,-0.013432,-0.009406,0.003452,-0.003218,-0.027288,-0.033493,-0.027473,-0.018067,0.012046,-0.024177,-0.027332,-0.026915,0.002591,0.008429,-0.015748,-0.025346,-0.015719,-0.014663,0.013148,0.005939,0.003136,-0.007928,-0.011902,-0.000052,0.004760,0.003722,-0.000880,-0.002364,0.010893,0.000159,-0.000802,-0.005206,0.005435,-0.000973,0.005784,0.000396,-0.001930,0.003608,0.010944,0.006813,0.010607,0.013664,0.013450,-0.005751,0.014794,-0.014159,0.006095,-0.000146,0.010086,0.007374,-0.011927,0.011630,0.014154,0.016240,-0.003548,-0.019520,0.006741,0.002330,0.002241,-0.013528,-0.009772,-0.011148,0.012888,-0.003050,-0.008168,-0.001556,-0.017510,0.017750,-0.025781,-0.005463,-0.004149,-0.019200,-0.008587,0.028924,-0.003701,0.007554,0.007482,0.030619,0.009189,-0.033156,-0.014681,0.017067,0.031250,-0.000681,-0.016477,-0.024790,0.006383,0.032449,0.004598,-0.004358,-0.011619,-0.009708,0.006257,0.000866,0.002768,-0.007805,-0.003178,0.013788,-0.009973,-0.014205,0.010640,-0.016277,0.034072,-0.012774,-0.011758,-0.012018,0.015288,0.026521,-0.012108,-0.001337,-0.000120,0.005328,0.012745,-0.014798,-0.030575,-0.012873,-0.016047,0.007400,-0.022644,-0.017961,-0.011610,-0.003700,0.016836,-0.003781,-0.031648,-0.032268,-0.016039,0.002544,-0.003378,-0.031205,-0.029432,-0.014311,-0.006670,-0.027164,-0.016732,-0.047110,-0.035180,-0.002946,0.001135,-0.007617,-0.004058,-0.010866,-0.000889,0.005962,0.000294,0.014208,0.025627,0.015945,0.035137,0.031506,0.006532,-0.000304,-0.021245,0.053198,0.042256,0.018422,-0.013208,-0.008915,0.061017,0.022188,-0.009625,-0.011248,-0.015934,0.040812,0.015316,-0.002296,-0.033856,-0.037644,0.033523,0.007416,-0.002030,-0.037228,-0.025879,-0.001003,0.003937,-0.013652,0.016982,0.017941,0.003783,-0.013925,-0.015712,-0.004568,0.014368,0.002367,-0.015883,-0.001604,-0.002713,0.011023,-0.012177,-0.014422,-0.014800,-0.011282,-0.001754,-0.005195,-0.018262,-0.020469,-0.025185,-0.016440,0.029474,0.007455,-0.001529,-0.013919,0.005592,0.045767,0.009275,-0.023129,-0.019082,-0.025930,0.040265,0.025023,-0.019923,-0.006676,-0.003634,0.019058,-0.010852,-0.007021,-0.015756,-0.005756,0.014816,-0.005621,-0.024211,-0.021785,-0.011142,-0.064619,-0.051878,-0.049942,-0.009452,-0.011221,-0.037903,-0.036052,-0.031445,-0.005062,0.014256,-0.054839,-0.061255,-0.026602,-0.020314,0.011737,-0.015752,-0.031719,-0.031075,0.009925,-0.001176,-0.017954,-0.020281,0.008926,0.004512,0.012552,0.000910,-0.035343,0.002370,-0.023523,-0.004460,0.017684,-0.004810,0.001567,0.001563,0.005696,0.015259,-0.009969,-0.027200,-0.014749,0.005968,0.004690,0.015469,-0.017107,-0.010060,-0.003559,0.015391,0.000713,-0.016206,-0.009151,-0.008051,0.001835,-0.035744,-0.023737,-0.002402,0.003264,0.024136,-0.017442,-0.024432,-0.015554,0.004793,0.007884,-0.015142,-0.003260,-0.004037,0.000401,-0.001137,0.001760,0.012072,-0.000527,0.005825,0.003431,0.005637,0.032418,-0.007832,-0.021923,-0.013975,-0.011441,0.018098,0.001557,0.020152,-0.010929,-0.006418,-0.009992,0.008361,0.026372,-0.021605,0.009607,-0.000562,-0.003336,0.013721,-0.007205,-0.013288,0.008733,-0.004635,0.001518,-0.005580,-0.016420,-0.030926,-0.005669,-0.006006,0.003777,-0.008276,-0.006559,0.011938,-0.000974,-0.007739,0.010936,0.014145,-0.017187,-0.007726,0.012333,0.002395,0.011544,0.004530,0.012487,0.015443,0.010535,0.002061,-0.004764,0.011209,-0.000574,-0.002702,-0.014659,0.001456,0.002048
0.004360,0.000361,-0.016169,-0.007585,-0.015143,-0.000850,-0.016113,-0.012865,-0.017068,-0.009963,-0.008504,-0.007156,-0.029243,-0.011747,0.008526,-0.005957,-0.008836,-0.007818,-0.015437,0.018761,0.026566,-0.009046,-0.007301,0.014763,0.015109,0.013905,-0.006614,-0.001349,-0.011880,0.017645,0.030731,0.005412,0.015473,-0.006365,0.007975,0.024994,0.018073,-0.009304,-0.011986,0.008684,0.009861,0.014041,-0.007224,-0.011148,-0.013731,0.020591,0.008270,0.007106,0.010782,-0.000679,0.032822,0.005442,0.005092,0.000926,-0.006697,-0.003132,-0.003235,-0.011429,-0.000989,-0.018493,0.003564,-0.022194,-0.022170,-0.039306,-0.005195,-0.007786,-0.019359,-0.025032,0.000790,-0.006692,0.004048,-0.005610,-0.021140,0.008304,-0.004730,0.019479,0.015028,0.001323,0.003932,0.017642,0.011799,0.010894,-0.020030,-0.023061,0.033371,0.015700,-0.006814,-0.010119,-0.010784,0.009466,0.018050,-0.005641,-0.020257,0.004517,0.003974,0.013111,-0.000456,-0.011854,-0.015420,0.017518,0.026282,0.010489,0.004483,-0.009482,-0.001977,0.009157,0.011930,0.007893,-0.014609,-0.008143,0.008777,-0.027589,-0.010199,-0.019081,-0.000669,-0.008640,-0.002999,-0.025378,-0.016572,0.004047,0.014804,-0.013110,-0.015439,-0.012284,0.015291,0.026727,0.002959,0.010436,-0.000227,-0.009031,0.017192,-0.004865,0.009687,-0.009750,0.000586,0.001390,-0.004693,-0.008978,-0.014270,0.006842,-0.003044,-0.016412,-0.010282,-0.007429,0.000374,-0.012544,-0.022433,-0.032450,-0.015673,0.017715,0.000013,0.002463,-0.018872,-0.012609,-0.022766,-0.006398,-0.006846,-0.009800,0.007418,0.007051,-0.003296,-0.006070,0.002392,0.003653,0.002372,-0.008450,-0.014020,-0.017521,0.011567,0.007762,-0.001807,0.001799,-0.008291,0.004491,0.000369,0.002717,-0.017616,-0.003602,-0.023936,-0.013125,-0.017199,-0.029579,-0.028533,-0.015561,-0.020330,-0.012560,-0.034156,-0.032293,-0.025365,-0.021178,0.006413,-0.024269,-0.024026,-0.016955,-0.003805,0.012507,-0.007666,0.016391,0.010649,0.005367,0.002767,0.007619,0.009168,0.000414,-0.004326,-0.012062,-0.008203,-0.022899,-0.011250,-0.026792,-0.020532,-0.023665,-0.031704,-0.042323,-0.024641,-0.020411,-0.042193,-0.026073,-0.027084,0.002664,-0.004209,-0.004118,-0.021701,-0.016672,-0.009994,-0.016430,0.007745,-0.008393,0.003107,-0.002118,-0.010203,0.001378,0.007760,0.018152,-0.008531,-0.006925,-0.002315,-0.020243,-0.007288,-0.009382,-0.006181,-0.010999,-0.003446,-0.006217,-0.003182,0.004622,0.006201,-0.014997,-0.017820,-0.011361,0.008322,0.003564,-0.016124,-0.024547,0.045263,0.022816,-0.005300,-0.056580,-0.041499,0.007422,0.030009,0.021200,-0.055543,-0.046425,0.010680,0.048931,0.012021,-0.038694,-0.033077,0.003427,0.050284,0.039789,-0.000108,-0.014163,0.012993,0.004686,0.006590,0.026229,0.029325,0.023791,-0.000449,-0.019099,-0.001959,-0.010080,0.015388,-0.001608,0.003148,-0.009016,-0.007909,-0.002510,0.000427,-0.008407,-0.000214,-0.000534,0.000275,-0.015135,-0.012434,-0.010498,-0.006712,0.004386,0.024452,0.036664,0.023666,0.016853,0.018051,0.019636,0.027075,0.034012,0.018748,0.007387,0.004643,0.007464,0.005589,0.006557,0.011774,-0.002696,-0.007138,0.003669,0.010579,0.001086,-0.005542,0.002116,-0.002440,-0.002763,0.030733,0.007769,-0.000619,-0.008139,-0.000504,0.005486,0.020288,-0.017833,-0.050473,-0.013721,0.007312,0.026763,-0.019955,-0.048789,-0.033995,-0.018617,0.006325,0.001699,-0.016671,-0.007194,0.000205,-0.001401,0.006156,0.007232,-0.006612,-0.001389,0.025173,-0.020127,-0.003422,-0.024433,-0.001191,0.029418,-0.004197,-0.019570,-0.033911,-0.008117,0.068120,0.011246,-0.019799,-0.022023,-0.021162,0.053366,0.041204,-0.009746,-0.017768,0.001714,0.072131,0.049274,0.004400,0.009130,-0.000857,0.011945,-0.001638,-0.016902,0.002683,0.020318,-0.022302,-0.024241,-0.034029,-0.027248,-0.000056,-0.021947,-0.029982,-0.023608,-0.042545,-0.010972,-0.014105,-0.006836,-0.031612,-0.016822,-0.026266,0.013859,0.009792,-0.002291,-0.004573,0.007009,0.005977,-0.002478,0.005088,0.012879,-0.006073,-0.003454,0.020882,0.000321,0.005574,0.005733,-0.009243,0.008370,0.007546,0.007603,-0.001450,-0.007551,-0.002837,0.002822,-0.001997,0.016405,0.014767,0.000632,0.012303,0.009604,-0.000973,0.023324,0.013326,-0.008976,-0.029567,-0.007238,0.005470,0.003397,-0.012340,-0.051454,0.000143,0.007226,-0.032091,-0.032607,-0.041791,-0.006057,-0.003308,-0.019981,-0.012933,-0.042361,0.001055,0.022202,-0.000854,-0.018486,-0.015462,0.002056,0.017014,0.009440,-0.013341,-0.014332,0.005632,0.009676,-0.012524,-0.004686,-0.015904,-0.018677,0.013174,-0.007976,-0.037710,-0.012861,-0.017690,-0.013396,-0.030552,-0.048206,-0.008664,-0.003220,-0.004769,-0.005690,-0.021526,-0.002446,-0.004047,0.013371,0.018622,0.013843,-0.005869,0.008943,0.012904,0.007715,0.011872,-0.016354,-0.023702,-0.002283,-0.020179,-0.000526,-0.014999,-0.004627,-0.008291,-0.004762,-0.008934,-0.016332,-0.021474,0.001919,-0.005289,-0.014958,-0.000443,-0.004399,0.006826,0.021543,-0.003666,-0.007926,-0.007705,-0.037360,-0.002262,-0.015989,-0.018322,-0.027608,-0.020038,-0.002306,-0.010847,-0.025240,-0.007755,-0.004827,-0.011783,-0.020898,-0.015343,-0.002894,0.003021,-0.009039,-0.007690,-0.001386,0.008570,0.011337,0.021478,0.010382,-0.018908,0.021473,0.001178,0.000927,-0.014403,-0.013526,0.022566,-0.011304,-0.037634,-0.033431,-0.016207,0.007256,0.019235,-0.036317,-0.033186,-0.014647,-0.012214,0.026674,-0.011685,-0.036363,-0.014963,0.017419,-0.003176,-0.007460,-0.012066,0.011045,-0.004619,-0.017689,-0.028689,-0.019681,-0.004762,0.001367,-0.014105,-0.036351,-0.021521,-0.009292,-0.005224,-0.005865,-0.013284,-0.017151,-0.007401,-0.008749,0.010938,-0.006620,0.011817,0.004275,0.027097,-0.006512,-0.002983,-0.001811,0.001909,-0.006304,-0.010148,0.002393,0.009760,-0.003044,0.000058,0.001183,0.003756,-0.008162,0.003020,0.004257,0.028900,0.025719,0.017586,0.007527,0.034836,0.006319,0.034371,0.044518,0.028995,0.016360,0.028957,0.022331,0.005517,0.011569,0.009563,-0.002168,-0.019878,-0.010536,0.002803,0.012550,-0.014948,-0.018491,0.006573,-0.000371,-0.006155,-0.022877,-0.015847,-0.024913,-0.026598,-0.007559,-0.015031,-0.015355,-0.018857,-0.002093,0.002352,0.009532,0.001737,-0.014171,-0.003269,0.017657,0.019756,0.044240,0.031754,0.008218,0.009295,0.011367,0.045286,0.051424,0.038021,0.037567,-0.019985,0.011488,0.024162,0.018369,0.019675,-0.033074,-0.003457,-0.000569,0.008558,0.010015,0.006130,0.004678,-0.007862,0.017604,0.010377,-0.002127,-0.000204,0.000954,0.006859,0.017700,0.000855,-0.012213,0.003735,0.003172,0.004075,-0.018580,-0.024504,-0.019559,0.009594,0.006024,-0.027518,-0.021394,-0.015585,-0.008045,-0.000885,-0.013365,0.003352,-0.000417,0.006375,0.012857,-0.014280,0.006598,0.010788,0.006784,-0.002352,0.021621,-0.002688,0.007789,-0.001677,0.019524,0.009408,0.001704,0.016755,0.006223,0.013105,0.043459,0.023583,0.022545,0.018373,0.033039,0.005722,-0.012175,-0.004336,-0.008642,-0.016439,0.004127,0.004090,-0.002781,-0.006527,0.003912,-0.017014,0.000597,0.001160,-0.010144,-0.000666,0.017366,-0.000073,0.006043,0.006920,0.009896,0.001985,0.016698,0.021795,0.010944,-0.013093,0.008441,0.009900,0.013231,0.008275,0.036400,-0.000862,-0.014882,-0.018183,-0.006188,-0.001677,-0.023651,-0.041668,-0.052341,-0.028445,0.002522,-0.011198,-0.028971,-0.048734,-0.030664,-0.012994,0.011957,-0.012618,-0.023432,-0.014205,-0.008055,-0.000742,-0.010606,-0.004773,-0.011270,0.013780,0.003001,0.016912,0.030069,-0.004787,0.014101,0.007514,0.017463,0.004926,0.014130,0.022666,-0.015590,0.000203,-0.002215,0.004711,0.019491,-0.014237,-0.001665,0.003657,-0.006237,0.004733,0.003455,0.012673,-0.003604,0.004306,-0.003567,-0.005985,0.006754,0.012205,-0.005300,-0.027262,-0.006367,-0.001595,0.001148,0.004090,0.002017,-0.009355,-0.011343,0.021470,0.007685,0.001500,0.013425,-0.007751,0.000296,-0.015671,-0.004021
0.026386,0.029560,0.026171,0.000809,0.006940,0.017367,0.035017,0.022407,-0.006138,0.006158,0.010075,0.010681,-0.000565,0.004111,0.000284,0.015506,0.005529,-0.001575,-0.018266,-0.039227,-0.006300,-0.006628,-0.022510,-0.017764,-0.018273,0.011026,-0.008217,-0.016459,-0.022706,-0.002438,0.004749,-0.002362,-0.025927,-0.006827,-0.012236,-0.007675,-0.012101,-0.021924,-0.009641,-0.023265,0.006650,-0.005914,-0.031974,-0.013006,-0.023042,0.027930,0.020216,0.012619,0.001169,0.003891,-0.005318,0.014248,-0.001556,0.011583,0.000917,0.011929,0.021591,0.023098,-0.003456,0.005391,0.023254,0.020304,0.003081,0.003618,-0.016851,0.005016,0.005269,0.020103,0.015422,-0.009032,0.013291,-0.015131,-0.005534,-0.006315,0.001087,0.021783,0.033063,0.015487,0.000671,-0.010228,0.010306,-0.002144,-0.002234,-0.014123,-0.003333,0.010617,-0.005728,-0.015420,-0.021297,0.008654,-0.010687,-0.025541,-0.026695,-0.003980,0.007224,-0.027354,-0.008425,-0.003336,0.013470,0.021552,0.003866,-0.006611,0.023930,0.029525,-0.002306,-0.018205,-0.009666,-0.018002,0.007185,0.020282,-0.041136,-0.017896,-0.016941,-0.004983,0.011502,-0.035745,-0.016175,-0.031178,-0.021410,0.016663,0.008019,0.007724,-0.001639,0.009639,0.013632,0.008347,0.021008,0.043099,0.023558,0.032756,-0.020323,-0.001367,0.010413,0.023821,0.025664,-0.020538,-0.025159,-0.008292,0.011451,0.017331,-0.028746,-0.030387,-0.010714,0.009187,-0.009334,-0.005064,-0.016031,-0.018843,-0.004229,0.002692,0.011729,-0.005349,-0.012600,0.000942,-0.013284,-0.007638,-0.017007,-0.008354,-0.004661,0.000296,-0.026243,-0.028233,-0.014323,-0.005900,-0.015351,-0.000721,-0.019550,-0.010422,-0.005521,-0.016621,-0.024329,-0.012886,-0.009178,-0.003801,0.018614,0.017938,0.005089,0.001139,0.002978,-0.007549,0.026573,0.013915,0.008130,0.015984,0.005757,0.002675,0.013369,-0.005226,0.005514,0.011510,0.006575,-0.004781,-0.025967,-0.023695,-0.003079,-0.015608,-0.014799,-0.021060,-0.031001,-0.029853,0.001158,-0.003344,0.011141,0.009089,-0.009754,0.011368,0.026517,0.027519,-0.010285,-0.004656,0.026435,0.025109,0.007594,-0.003826,-0.000387,-0.015696,-0.010087,-0.010334,-0.003439,-0.018629,-0.022908,-0.023071,-0.025079,-0.005328,0.000473,0.002774,0.011346,0.002292,-0.002645,-0.006920,0.000104,-0.000566,0.011777,-0.013967,-0.017693,0.004458,0.006959,-0.007690,0.012035,-0.012726,-0.006635,-0.022269,-0.006924,-0.001632,-0.014936,-0.015410,-0.017438,-0.012152,-0.022327,-0.027737,0.025848,0.045624,0.025172,0.001812,0.007205,-0.000780,0.014507,0.015028,0.007448,-0.009304,-0.001197,-0.014106,0.005655,0.019947,-0.011904,-0.021138,-0.045792,-0.017445,-0.011813,-0.003540,-0.009373,-0.026396,-0.010325,0.004651,0.001741,0.009579,-0.017183,0.008706,0.007424,0.000750,0.009454,0.010666,0.010301,0.004693,-0.002772,0.015978,0.024706,0.008680,0.004994,-0.017164,0.015409,0.008804,-0.008309,-0.006052,-0.009779,0.013723,0.012900,-0.007406,-0.011875,0.015310,-0.006808,0.017574,0.019417,0.027519,0.006476,-0.009172,0.025441,0.042719,0.048421,0.015889,-0.028723,-0.014277,-0.001772,0.006766,0.010574,-0.020193,-0.008823,-0.036535,-0.004697,0.008449,0.022643,0.010588,0.002575,0.018890,0.013813,0.011260,-0.004385,-0.003497,0.006150,-0.010280,0.008744,-0.011228,-0.020629,0.005503,-0.015906,0.017108,0.005981,-0.008476,-0.009160,-0.011096,-0.005435,0.010410,-0.009131,-0.012669,-0.010520,0.005860,0.003787,0.008227,0.010477,0.003804,0.012530,0.029770,-0.002479,0.021785,0.023238,0.028975,0.009545,0.012036,-0.001617,0.004257,0.008689,-0.025764,0.012332,-0.010263,0.003361,-0.007604,-0.020467,-0.023973,-0.045581,-0.001563,-0.012479,-0.022122,-0.017060,-0.016882,-0.003981,-0.003613,-0.017941,-0.003207,-0.014058,-0.009193,0.016119,0.007902,-0.000714,0.013650,0.016358,0.017191,0.018456,0.004910,0.011879,0.010246,0.018619,0.016897,0.008611,0.024334,0.010560,0.009779,0.017053,0.006563,-0.005426,0.009981,0.013213,0.008394,0.010425,-0.000215,-0.001116,-0.007308,0.000148,-0.008845,0.002523,-0.010043,-0.012656,-0.004698,0.003000,0.000185,-0.002037,-0.008735,-0.007931,-0.005865,-0.018859,-0.000240,-0.000951,0.005306,0.015666,0.010443,0.017512,0.008758,0.012983,0.020584,-0.002660,0.013463,0.000019,-0.017105,0.002335,0.010737,0.002683,-0.027273,-0.021343,-0.019991,-0.009306,0.006510,-0.036659,-0.027983,-0.018732,-0.002890,0.012976,-0.021670,-0.022700,0.002553,0.001347,0.041336,0.005110,0.000048,-0.005428,-0.023092,-0.021798,-0.027857,-0.016978,-0.024249,-0.028288,-0.030044,-0.043103,-0.016496,-0.023953,-0.025921,-0.015403,-0.013496,-0.014686,-0.037675,-0.015134,-0.017249,0.015660,-0.002957,0.019343,0.011429,0.013783,0.006528,0.025271,0.015594,-0.001296,0.004122,0.013811,0.006071,0.010688,0.012068,0.008328,0.012340,0.008055,-0.008574,-0.005260,-0.016993,0.020612,-0.000704,0.020090,-0.008994,-0.003361,-0.004973,-0.002744,0.008958,0.005916,-0.000090,-0.005839,-0.007535,0.003928,0.025446,0.010149,0.018670,0.011205,0.000499,0.005826,0.000468,0.011328,-0.006032,0.010485,0.001192,-0.006153,-0.011557,-0.019760,-0.019777,-0.018489,-0.007695,-0.015827,-0.013585,0.002436,-0.018921,-0.028384,0.024281,0.022915,0.044635,0.033018,0.034216,0.031348,0.031613,0.026110,0.002853,0.007215,0.005748,-0.002865,0.009897,-0.013466,-0.008501,-0.015214,-0.039699,-0.033068,-0.047657,-0.023919,-0.005710,-0.046876,-0.014366,-0.034486,-0.027849,0.018002,0.001081,-0.005483,-0.001728,-0.031296,0.027246,0.000167,0.013326,-0.003578,-0.022526,0.030063,-0.003620,-0.003262,-0.008168,0.006770,-0.011807,-0.016271,-0.016215,-0.008012,-0.024219,-0.035079,-0.024287,-0.021220,-0.035182,-0.010710,0.017620,0.004502,0.023258,0.020037,-0.026570,0.003445,-0.013818,-0.020210,-0.019772,-0.029028,0.027532,0.006943,-0.012846,-0.018298,-0.021348,0.022277,0.033419,0.007809,0.007331,-0.002871,0.027214,0.021168,0.031980,0.003688,-0.009874,-0.000078,0.008420,0.004692,-0.000454,-0.003414,-0.001096,0.022627,0.025143,0.021845,0.010206,0.024095,0.012044,0.016901,0.017025,0.017200,0.008323,0.001272,0.010240,0.000003,0.014201,-0.015816,0.005278,0.000590,-0.005077,0.002057,-0.010660,-0.010180,-0.015784,-0.010231,0.004497,0.025133,-0.000627,0.010525,-0.002925,-0.010078,0.012272,0.005510,0.002581,0.001575,-0.016714,0.005559,-0.008447,-0.001166,-0.010359,0.003340,0.001067,0.010005,-0.013129,-0.014860,-0.001921,0.000632,0.006694,0.022748,0.013409,0.000733,0.008420,0.026510,0.006204,0.000952,0.006871,0.009777,0.025115,0.040778,0.014186,0.019188,-0.004563,-0.001746,0.013265,0.019839,0.019121,-0.014449,-0.005687,0.005727,0.018066,0.007113,0.026160,0.009496,-0.002921,0.012313,-0.002198,0.021014,0.002678,-0.000421,0.006567,-0.019504,-0.012331,-0.014036,-0.002203,-0.015383,0.001530,-0.012911,-0.008210,-0.013046,-0.010285,0.000224,0.018617,0.039938,0.028360,0.025169,0.019400,-0.003530,-0.005994,0.010425,-0.015689,-0.024768,-0.011977,-0.015713,-0.022339,0.000108,-0.016583,-0.003735,-0.000400,-0.004526,-0.011998,-0.015815,-0.028429,-0.007473,-0.014978,-0.017169,-0.007394,0.000670,0.002878,-0.012421,0.010770,-0.012824,0.003890,0.010601,0.019917,-0.004994,0.012660,-0.002655,0.010018,0.006158,-0.011256,0.009566,-0.007873,0.013482,-0.008354,-0.008747,-0.008042,0.008030,-0.014453,-0.021447,0.002017,-0.004056,0.018896,0.009167,-0.000902,0.002838,-0.011401,0.002215,-0.006388,0.005386,-0.002035,-0.000114,0.000133,-0.010207,-0.020760,-0.017983,-0.005868,-0.007966,-0.007208,-0.017551,-0.013364,-0.008672,-0.004307,-0.014573,-0.013842,-0.021039,-0.011048,-0.013826,-0.004037,-0.025966,-0.029641,0.001114,-0.007471,-0.004158,-0.001613,0.001295,-0.017590,0.011675,-0.011388,0.018859,0.010556,-0.020479,0.013674,0.014181,0.007658,0.009754,0.003846,-0.001699,0.006403,-0.010100,0.002380,0.007849,-0.007029,-0.004634,-0.009529,0.002527,-0.011123
-0.015378,-0.013931,-0.017563,-0.017490,-0.027028,-0.031794,-0.001935,-0.009055,-0.013250,-0.033476,-0.004589,0.010065,-0.010322,0.009620,-0.000600,-0.002814,0.031573,0.021467,-0.003016,-0.018802,0.002966,0.024045,0.026485,0.015232,0.004803,-0.030271,-0.015095,-0.003924,-0.018335,-0.002269,-0.020750,-0.026679,-0.010460,-0.018360,-0.014253,-0.014369,-0.018609,-0.020190,-0.022640,-0.009602,-0.030768,-0.009135,-0.002872,-0.028939,-0.006311,-0.003151,-0.013278,-0.019698,-0.012162,0.002679,-0.000116,-0.015529,-0.002192,0.009085,0.005075,0.001103,0.003871,-0.004582,-0.017173,0.005224,-0.003360,-0.012751,0.000436,0.012460,-0.004106,0.001560,-0.000987,0.002165,0.003829,0.017727,-0.013963,0.008388,0.009341,-0.010245,-0.003130,0.007232,0.030173,0.038309,0.030906,0.026599,0.008431,0.021944,0.024839,0.053543,0.027557,-0.020965,0.002456,0.009808,0.019310,0.020732,-0.018752,-0.008125,0.007414,-0.006183,0.020772,0.005142,0.004177,0.006583,0.013220,0.021586,0.012550,-0.000280,0.001009,0.016378,-0.000627,-0.011284,-0.015314,0.003588,0.008410,0.016374,-0.034310,-0.020014,-0.033389,-0.034681,0.016537,-0.029196,-0.022128,-0.027837,-0.014454,0.027927,-0.024992,-0.030452,-0.034608,0.000064,0.025027,-0.002697,-0.004084,0.027935,0.026843,0.011794,-0.007040,-0.003901,0.000983,0.018523,0.022473,0.019525,-0.016012,-0.001249,0.019251,0.028336,0.004475,-0.013748,-0.003543,0.019348,-0.008638,-0.010280,0.018057,0.006226,0.003994,0.007727,-0.010765,-0.000943,-0.014595,-0.005414,-0.015538,-0.009745,-0.008066,-0.012301,-0.015687,-0.001738,-0.004217,0.003316,-0.021633,-0.033784,-0.027069,-0.011094,0.009311,-0.007850,-0.005507,-0.013737,0.002930,0.011767,-0.000639,-0.000713,0.001626,-0.026666,-0.023347,-0.008285,-0.018846,0.002790,-0.035737,-0.026998,-0.023548,-0.035061,0.004213,-0.013716,-0.023373,-0.008104,0.002518,-0.013959,-0.011481,-0.008092,0.011024,0.003080,0.005601,-0.000712,0.023325,0.008926,0.021903,0.015822,0.007566,-0.016937,0.000480,0.001220,0.000198,0.012922,-0.005433,-0.002953,-0.023922,-0.016757,0.009826,-0.013044,-0.020184,-0.020192,-0.029892,-0.007865,-0.012574,-0.026544,-0.018705,0.001578,0.020936,0.003860,-0.001243,-0.006003,-0.013062,-0.002911,-0.009193,0.000928,0.001049,-0.006177,0.007363,-0.010225,0.007950,-0.011122,-0.016259,0.007591,-0.006166,0.011218,-0.003552,0.002237,0.009924,0.005287,0.006700,0.004942,-0.000522,-0.005155,-0.011770,-0.012869,-0.017187,-0.004781,0.007939,0.072973,0.062363,0.072651,0.038345,-0.017803,0.041018,0.035934,0.051848,0.056560,-0.042514,0.009312,0.004941,0.030256,0.047258,-0.035885,-0.027488,-0.010942,0.006695,0.034366,-0.011570,-0.016942,-0.010804,0.014381,0.056753,-0.015902,-0.009391,0.006896,-0.003253,-0.003841,-0.003928,-0.009888,-0.028346,-0.002546,-0.019978,-0.007826,0.008643,0.002740,-0.009254,0.000001,0.013047,0.013687,0.001249,0.008318,0.002567,0.008832,0.009475,-0.003732,0.001746,-0.007846,0.005086,-0.005643,0.007549,0.025945,0.000114,0.014647,0.002682,0.025447,0.029157,0.020920,0.005570,0.011136,0.014017,0.013806,0.025844,0.015895,0.021289,0.005764,0.041125,0.031880,0.041338,0.019316,0.022230,0.019663,0.023033,-0.039565,-0.024194,0.002984,0.011211,-0.002032,-0.034085,-0.017080,-0.011300,-0.018885,-0.011221,-0.043434,-0.032287,-0.029339,-0.038451,-0.019106,-0.030564,-0.027850,-0.017908,-0.026484,-0.008233,-0.022866,-0.032179,-0.024826,-0.033549,-0.004465,0.004107,0.021461,0.038208,0.012558,0.022782,-0.016271,-0.000911,-0.004115,-0.003203,0.027620,-0.006087,-0.006556,-0.000926,-0.002920,0.006890,-0.011408,-0.025823,-0.038679,-0.030729,-0.007044,-0.000653,-0.007249,-0.024212,-0.020986,0.015603,0.005986,0.003776,-0.009774,0.010575,0.037304,-0.022482,-0.041330,-0.022675,-0.010975,-0.013904,-0.018011,-0.026219,-0.021304,-0.035131,-0.001683,-0.014040,-0.002446,0.002074,0.008087,0.008443,0.000617,0.010502,0.019394,0.029315,0.014955,-0.001773,0.026646,0.017188,0.028471,0.001938,-0.004749,-0.000217,0.012506,0.017405,0.000934,0.019426,0.003401,0.026997,0.007141,0.006624,0.005249,0.008358,0.004368,0.014780,-0.002497,0.026657,-0.004720,0.001851,0.003842,0.024472,-0.024059,-0.001189,0.012208,0.022365,0.015345,-0.038509,-0.021798,-0.006300,-0.001616,0.007253,-0.033027,-0.034624,-0.035016,-0.031708,-0.005323,-0.030077,-0.028926,-0.037400,-0.035192,-0.001776,-0.022551,-0.043086,-0.028923,-0.020707,0.045044,-0.003129,0.006794,0.012777,0.003472,-0.016421,-0.013561,-0.001016,-0.008539,-0.003649,-0.000267,-0.023380,-0.012649,-0.017747,0.002459,-0.014841,-0.032363,-0.026957,-0.029741,-0.012531,-0.017561,0.016904,-0.002998,-0.007109,0.017032,0.043651,0.003795,-0.016685,-0.007620,-0.000597,-0.003371,-0.010366,0.002414,-0.004410,-0.018933,-0.020275,0.003478,-0.014695,-0.004693,-0.002444,-0.016172,0.007914,0.008090,-0.016563,-0.008592,0.002116,-0.009913,-0.006890,0.009391,-0.013813,0.007038,0.005499,0.000269,-0.017540,-0.001474,-0.003984,-0.001255,0.005004,-0.023933,-0.020845,-0.000011,0.002662,-0.016444,-0.009173,-0.018823,-0.020080,-0.017857,-0.012165,-0.003231,-0.009613,0.009588,0.009244,-0.000615,-0.005063,0.015812,0.015808,-0.021337,0.004819,-0.007590,-0.003589,-0.023387,-0.044034,-0.016308,-0.016303,-0.011665,-0.003500,-0.064196,-0.035950,-0.040101,0.000936,-0.019971,-0.059378,-0.036068,-0.018393,-0.008543,-0.034415,-0.036480,-0.023908,0.021403,0.014650,-0.007295,-0.016079,-0.013072,-0.008662,-0.006112,0.036073,-0.026535,-0.026224,-0.012937,-0.012788,0.009201,-0.025579,-0.016785,-0.025093,-0.024767,-0.011451,-0.003983,0.001504,-0.016822,-0.019235,-0.006724,-0.005190,-0.002085,-0.004409,-0.021501,-0.007218,0.005450,0.000986,0.020029,0.003993,0.002402,-0.005988,0.008763,0.006540,0.007350,-0.006841,-0.009778,0.002801,0.006773,0.010132,0.009165,0.010842,0.038598,0.037453,0.020340,0.021189,0.012976,0.010398,0.017740,-0.000864,0.018108,0.026297,-0.007427,0.000104,0.018972,-0.009109,0.031854,0.005069,-0.003226,0.011448,0.020905,0.016107,0.016294,-0.011991,-0.010727,-0.010709,0.012110,0.000405,-0.003178,0.001381,0.005891,0.007049,0.016367,-0.006535,0.014180,-0.005393,-0.008415,-0.001646,-0.009735,-0.015570,-0.025488,-0.003269,0.020858,0.021782,-0.001861,-0.012580,0.001050,0.018934,0.033949,0.003493,0.027963,0.005914,0.004943,0.004341,0.007424,-0.002266,-0.010881,0.006654,-0.004143,0.001167,-0.015595,0.032640,0.004337,0.008891,0.007686,0.006211,0.014202,0.019289,-0.024271,-0.010717,-0.003942,0.007874,-0.006506,-0.016613,-0.014728,-0.006249,-0.001397,0.001293,-0.007453,-0.002834,0.002820,0.013851,-0.005541,-0.018245,0.006735,0.017512,0.003218,0.009938,0.018018,0.030171,0.013185,0.006119,0.019783,0.014856,0.007563,0.001891,0.025549,0.034408,0.032102,0.017418,0.019232,0.007732,0.012951,0.033409,0.007440,0.014948,0.020252,0.021180,0.035624,0.022686,0.022354,-0.015706,0.002888,0.007626,-0.003730,0.004493,-0.006571,-0.007303,0.000457,-0.004886,0.000635,-0.004834,-0.006218,0.011121,-0.002323,-0.009877,-0.005366,-0.014597,-0.007524,0.004202,0.000357,0.010245,0.010546,-0.002601,0.014851,-0.004098,0.001686,0.008387,0.009924,0.017385,0.015967,-0.027480,-0.031148,-0.022826,-0.015348,-0.007795,-0.052087,-0.034045,-0.034661,-0.031528,-0.016620,-0.032736,-0.027892,-0.033730,-0.009600,-0.021920,-0.011582,0.008086,0.013887,0.016283,0.011442,-0.021593,-0.009805,-0.008199,-0.000552,-0.006449,-0.003696,0.003284,-0.016735,-0.007590,-0.006927,0.004306,0.011712,0.014474,0.019748,0.016983,0.005172,0.009393,0.014062,-0.004062,0.004308,0.019629,-0.003774,-0.000125,-0.001640,-0.019310,-0.023042,-0.005040,-0.013716,-0.015446,0.010357,-0.006431,0.002772,-0.003640,0.000596,0.006732,-0.009293,0.019056,-0.003270,0.005620,-0.002043,-0.005743,0.007303,-0.008199,-0.012468,-0.008086,-0.014970,-0.002870,-0.011379,-0.013960,0.003056
0.022169,0.016699,0.003726,-0.005135,0.002616,-0.006763,0.004398,-0.011170,-0.007189,-0.002347,-0.005658,0.003601,-0.007025,0.013413,0.013500,-0.002749,-0.006067,-0.008781,-0.008467,-0.009512,-0.005442,-0.008419,0.002689,-0.005208,-0.002602,0.005305,-0.016289,-0.009193,0.003694,0.001573,-0.013324,-0.003605,-0.002280,-0.004475,0.003648,-0.012525,-0.008695,-0.020151,0.010217,0.004828,0.001253,-0.002857,-0.002524,0.007395,0.021420,-0.007148,-0.006258,0.001658,0.001819,0.001482,0.016767,-0.000617,-0.021053,-0.021543,-0.023675,0.001570,0.009430,-0.014569,0.003543,-0.000265,-0.020337,-0.019414,-0.004170,0.008685,0.002110,-0.006024,0.005897,0.018416,-0.005583,0.013195,-0.002214,-0.007344,0.009634,-0.003544,0.007319,-0.015819,-0.012954,-0.012437,0.010558,-0.018838,-0.037242,-0.029397,-0.001876,-0.033254,-0.049757,-0.053287,-0.006530,0.001324,-0.018883,-0.038637,-0.018653,-0.007300,-0.040006,-0.045598,-0.011877,-0.011551,-0.020986,-0.036605,-0.018280,-0.015230,-0.017099,0.045030,0.043081,0.016963,-0.012467,0.054285,0.092124,0.069097,-0.001748,-0.010536,0.095323,0.069199,0.011803,-0.024894,-0.021353,0.032860,0.019924,-0.034186,0.006543,-0.005071,0.000017,-0.019650,-0.012828,0.006682,-0.005193,0.020977,0.004813,0.008994,0.002037,-0.022104,0.008810,0.029759,0.025623,-0.000286,0.004742,-0.002550,0.017393,0.038257,0.021124,-0.016405,0.021108,0.022118,0.008127,-0.009407,-0.008877,-0.000752,0.006415,-0.006628,-0.005834,-0.001303,-0.019894,0.003847,0.004768,0.007295,0.003176,0.004019,0.022424,0.016007,0.004844,-0.010270,0.011417,0.027277,0.002954,0.007227,0.003203,0.001048,0.002267,0.003338,0.000712,-0.001340,-0.013322,-0.019397,-0.013462,-0.002674,-0.002542,0.026241,0.007483,0.013280,0.010642,0.010263,-0.010263,-0.003091,0.002536,0.013244,-0.002338,0.000753,-0.009611,0.009000,-0.000178,-0.012114,-0.014535,-0.019792,-0.004665,0.001048,0.001704,-0.005224,-0.000007,-0.007063,-0.013847,0.017153,-0.021320,-0.014029,-0.017914,-0.021279,0.002703,-0.033537,-0.006312,-0.007196,-0.018793,0.002540,-0.039091,-0.004087,0.005367,0.022091,0.009721,-0.005557,0.002241,0.014727,-0.011339,-0.001299,-0.002250,0.003866,-0.014062,-0.019215,-0.002897,-0.001919,-0.002264,-0.001836,0.003662,0.020257,0.001254,-0.005677,-0.000550,0.024011,0.018608,-0.015443,-0.006379,-0.006280,0.012945,0.002846,0.009958,-0.020220,0.011674,-0.006732,-0.005106,-0.012969,-0.002478,0.005754,-0.005846,-0.011041,-0.014405,-0.012741,-0.003761,-0.002653,-0.014045,-0.028289,-0.040986,-0.047492,-0.023440,-0.008198,-0.053457,-0.077437,-0.045899,-0.014396,0.012750,-0.056209,-0.041379,-0.000774,0.028427,0.000234,-0.018653,-0.019971,0.006665,-0.017378,-0.015144,0.013145,0.022817,0.018467,0.019087,0.018636,0.012322,0.005247,0.010832,-0.007355,0.009119,0.014552,-0.005580,-0.014385,-0.019696,-0.023892,-0.015239,0.005443,-0.000467,-0.021651,-0.013751,-0.016469,-0.018288,-0.017382,-0.001154,-0.002142,0.027207,0.017264,0.013891,-0.012459,-0.032743,0.053602,0.030467,-0.012873,-0.026738,-0.053990,0.033420,0.000282,-0.046000,-0.048264,-0.011568,-0.020378,-0.022033,-0.011429,-0.003915,0.010322,-0.005259,0.006049,-0.004131,-0.009978,-0.002786,-0.004061,-0.004773,0.000669,0.005640,-0.001142,0.003768,-0.009332,-0.016272,0.000770,0.015019,-0.001089,-0.014254,-0.009284,-0.000087,0.025189,-0.009976,-0.021248,-0.009484,-0.004710,0.015226,0.002563,-0.022615,-0.003027,0.002529,0.007771,0.005573,0.009092,0.002929,0.002081,0.007879,0.011735,0.004478,-0.015865,-0.001612,-0.000417,-0.018545,-0.020851,-0.012615,-0.014408,0.014954,-0.006944,-0.003409,-0.003163,0.001281,0.015881,-0.000320,-0.007554,-0.003137,0.009452,-0.003246,-0.000292,0.008489,0.007359,0.002033,-0.001926,-0.017714,0.006027,0.009700,0.008038,-0.006447,0.009539,0.007741,0.006012,0.000062,-0.000856,-0.007873,-0.001753,-0.003050,0.010284,-0.000300,-0.012121,-0.009230,-0.007892,0.008724,0.001980,-0.011804,0.003683,0.020185,0.006015,0.002990,0.019490,0.037746,0.019414,0.001814,-0.007258,0.046880,0.031332,-0.004539,-0.002909,-0.014141,0.023183,0.004568,0.013854,-0.012268,-0.005183,-0.002857,-0.015159,-0.019763,-0.001478,-0.013077,-0.023736,0.028366,0.051135,0.051699,-0.033574,0.016800,0.065618,0.056353,-0.004336,-0.030043,0.039132,0.057464,-0.003204,-0.022652,-0.014044,0.021927,-0.017824,-0.026869,-0.035805,0.002049,-0.016728,-0.018302,-0.023039,0.008381,0.001166,-0.007864,-0.003874,0.021128,0.006430,-0.023198,0.029947,0.034025,0.007148,-0.015392,-0.018692,0.046349,0.030342,0.004758,0.002977,-0.022356,0.020077,0.000906,-0.011700,-0.000317,-0.000285,-0.000464,0.010597,0.010407,0.001984,-0.002826,0.001211,-0.003136,0.003118,-0.014109,0.006908,-0.002345,-0.003040,-0.003254,-0.002133,0.002353,-0.000706,-0.014979,0.008920,-0.005439,0.005521,-0.003298,0.007431,-0.014048,0.010870,0.015878,0.003250,0.000149,-0.012381,0.002063,-0.002468,-0.002818,-0.015793,-0.008386,0.003446,-0.008812,-0.033584,-0.021328,-0.011829,0.000886,0.006492,-0.009109,0.018221,0.011716,0.008498,-0.000587,-0.006673,0.012582,-0.003939,0.002273,-0.013091,-0.008193,-0.000966,-0.007585,-0.007854,-0.002740,0.023164,0.009536,-0.005822,-0.006083,-0.000829,0.010972,-0.021451,-0.015876,0.014089,-0.005883,-0.014816,-0.006845,0.026822,0.023502,0.015941,-0.022469,0.008983,0.044602,0.039184,-0.005575,0.002078,0.021620,0.017031,-0.000601,-0.002957,0.000595,-0.007846,-0.003513,0.009232,0.000651,-0.000642,-0.005604,0.000033,0.002803,0.020212,-0.011567,-0.000950,-0.000833,0.011814,0.008212,0.005256,-0.003862,-0.010681,-0.006137,-0.005601,-0.007945,-0.003399,-0.016591,-0.000285,0.017315,-0.003945,-0.014953,-0.005455,-0.023118,-0.012795,0.008855,-0.013516,-0.011575,-0.002012,-0.004145,-0.026418,-0.017445,-0.023385,0.002617,0.000986,-0.018682,-0.017878,0.000853,-0.009233,0.011247,0.003746,-0.003356,-0.011195,0.003929,0.004012,0.006229,0.003381,-0.000443,0.013753,0.004560,-0.004828,-0.006036,0.001296,0.020146,0.021468,0.010166,0.018900,0.008650,0.025472,0.001139,0.007120,0.005275,0.019128,0.012829,0.019717,-0.025256,-0.015140,-0.008749,0.000818,-0.013627,-0.007409,-0.012205,-0.003872,0.001306,0.006148,0.000823,-0.018961,-0.010379,0.001956,0.008784,0.011232,0.008332,-0.021864,-0.005990,0.002848,-0.007001,-0.004426,-0.008120,-0.006041,-0.002734,-0.011905,-0.022014,-0.012356,-0.024071,-0.013053,-0.040062,-0.030808,-0.015789,-0.001194,0.028447,-0.041372,-0.031111,0.000901,-0.003644,0.016703,-0.017764,-0.007727,0.009832,0.012041,0.030693,0.002475,-0.014994,-0.002933,0.003980,0.008109,-0.015443,-0.025197,0.000878,-0.014737,0.000321,-0.030679,-0.008861,-0.004843,0.016892,-0.000118,0.009539,0.020237,-0.000736,0.010668,-0.017109,0.016518,0.009267,-0.010612,-0.010290,-0.017287,0.025302,-0.000235,-0.009205,-0.004308,0.022902,-0.001429,0.000482,-0.008228,0.018484,0.028767,-0.025128,0.010999,0.001167,-0.009783,-0.006334,0.006531,0.008290,-0.004027,-0.009495,-0.009279,0.013153,0.012397,-0.019909,-0.011052,0.002342,0.023150,0.005816,-0.003612,0.003246,0.004548,0.010968,-0.017287,0.003786,0.007756,0.010049,0.008201,-0.013919,0.007289,-0.000659,-0.012673,0.010059,-0.015685,-0.009055,0.008662,0.003460,-0.022193,-0.008849,0.011652,-0.009587,-0.001720,-0.012600,0.008483,0.004627,0.018787,0.005515,-0.000824,0.002217,0.011004,0.014463,0.003054,0.013232,0.012349,0.031412,0.011613,-0.017599,0.033665,0.040314,0.034082,0.009990,0.002290,0.046056,0.059006,0.021140,-0.024752,-0.024138,0.028479,0.018900,-0.008159,-0.018037,-0.016214,-0.004793,-0.018123,-0.018373,-0.000714,0.004935,0.008107,0.012840,0.003506,-0.010835,0.000744,-0.000364,0.006168,-0.015548,0.001131,0.024822,-0.001859,-0.003068,0.011532,0.021995,0.009536,-0.002985,-0.007167,0.003076,-0.010135,0.006640,-0.002191,-0.013575,0.001040,-0.005984,0.003877
