0.025216,-0.226504,0.131883,-0.101727,0.068165,-0.158534,-0.051452,0.040808,0.011350,0.106268,0.010749,0.013678,0.001892,0.183360,0.013891,0.006105,-0.016258,0.055880,-0.023336,0.158744,0.022716,0.031457,0.071159,0.031594,0.017451,-0.078053,-0.016539,0.143415,-0.053663,0.004268,-0.057085,-0.042698,0.089523,-0.291405,-0.093956,0.106768,-0.091017,0.071430,-0.003077,0.075834,-0.092751,-0.041563,-0.010816,0.057926,-0.019709,-0.040722,-0.037385,-0.157694,-0.138396,0.074536,-0.062573,-0.062946,-0.008269,-0.017251,0.012474,0.055321,-0.072876,-0.177726,0.210663,0.080086,0.072742,0.069455,-0.059017,-0.128839,0.005076,0.059115,-0.065311,0.086338,0.097353,-0.187074,-0.065229,0.153223,-0.057277,0.008560,-0.122095,0.070304,0.060975,0.051878,0.017610,-0.042048,0.044482,-0.013555,-0.022863,-0.150070,-0.146283,0.119323,0.166209,-0.037660,-0.018029,-0.150921,0.016471,-0.058488,0.029563,-0.079607,-0.085935,0.062503,0.082913,0.013912,-0.061183,0.069283,0.101325,0.086086,0.125127,-0.119090,0.130861,0.060793,-0.231534,-0.064879,0.053653,0.045055,-0.032003,-0.057403,0.000486,-0.063644,-0.164483,0.037240,-0.112803,-0.036057,0.124356,0.008709,-0.152873,-0.009176,0.066566,0.024512,-0.055648,-0.092561,0.144664,0.113269,0.127271,-0.009219,0.193523,0.037720,-0.033370,-0.161130,0.177698,-0.111335,0.041481,-0.151884,-0.000289,-0.021549,0.007474,0.106784,0.028851,-0.020757,0.035926,-0.071000,-0.194649,-0.127979,-0.086555,-0.025231,-0.028358,0.043659,0.013919,-0.050241,0.048357,0.000915,0.002947,0.060386,-0.029441,-0.155703,0.001501,-0.034150,0.142951,-0.124500,-0.011660,-0.037638,-0.182827,0.046119,0.132406,-0.129847,-0.000566,-0.031948,-0.170814,-0.010040,0.097368,-0.066605,-0.103055,0.100814,0.064778,0.052252,-0.158267,-0.085143,-0.057607,-0.028335,0.084727,0.064008,0.030193,0.015343,-0.018496,-0.095455,-0.143082,-0.124980,0.055372,-0.032110,-0.130184,-0.194291,0.200041,-0.092266,0.038003,-0.033111,0.087503,0.001126,0.141674,-0.054296,0.058610,0.168321,-0.025988,0.013539,0.066279,-0.035097,0.037940,0.083109,0.041700,-0.120458,-0.042718,-0.051376,0.064820,0.070770,0.118460,0.118523,-0.008278,-0.002076,-0.012111,-0.008987,0.185341,-0.076311,0.094625,-0.124494,0.001063,-0.038752,0.072160,-0.146807,0.119080,0.109819,-0.111528,-0.071900,0.092598,-0.200599,0.010400,-0.020109,0.064769,0.037204,0.137031,-0.128789,-0.020244,-0.091510,-0.060752,0.008016,0.027147,-0.158005,-0.043938,-0.101512,0.043688,-0.047487,0.103520,-0.019498,0.039768,0.050976,-0.030217,0.206741,0.023286,-0.043379,0.144885,0.089106,0.003166,-0.070304,0.037084,0.005598,-0.000870,0.101176,0.062422,0.093294,-0.031341,0.002971,-0.044258,-0.019336,0.078533,-0.146285,-0.007579,-0.078730,0.103041,-0.167885,0.055089,-0.042685,0.076317,0.057720,0.068681,0.072974,0.045309,0.060474,-0.005800,0.176078,-0.070098,0.057883,0.091450,-0.004567,0.089270,-0.041886,0.078155,0.017378,-0.168576,-0.225884,0.062256,0.005158,-0.100173,0.019620,-0.059470,-0.087658,0.010647,0.028861,-0.057248,-0.041287,-0.038299,-0.016374,0.067887,0.150633,-0.040479,0.129452,-0.061892,-0.073401,-0.049233,-0.049696,0.006023,0.154235,0.062511,0.125848,0.074262,-0.101477,0.007337,0.072507,-0.080754,0.090345,0.113943,0.017403,0.021540,0.241968,0.052581,-0.005350,-0.061244,0.051590,0.064093,-0.047781,0.122661,0.016964,0.051686,-0.093241,0.278233,-0.046064,0.115148,-0.013626,0.051583,-0.078076,-0.038351,-0.067275,-0.046469,0.016965,0.036967,-0.012229,0.056089,-0.065386,0.041071,0.166004,-0.037218,-0.034149,0.061874,0.031053,-0.058821,0.002007,0.040578,0.049388,0.001410,0.063152,0.009430,0.058466,0.037749,-0.140393,0.025005,-0.013209,0.073762,-0.014431,-0.073503,0.048317,0.008746,-0.067236,0.082657,-0.037624,-0.178967,0.203316,0.031093,0.094557,0.044452,-0.174217,-0.048661,-0.028407,0.015564,0.011646,-0.092398,0.060901,-0.025817,-0.049770,-0.047887,-0.120450,0.119835,0.040013,-0.086765,0.039480,-0.000281,0.061296,0.058659,-0.135422,-0.014447,-0.134839,0.010273,-0.141078,0.055834,-0.164301,-0.072816,-0.022692,0.065468,0.047012,-0.036219,-0.129862,0.139240,0.018898,0.012260,0.160312,0.023103,0.011359,-0.170560,-0.007651,-0.136071,-0.023912,-0.128515,0.075539,0.043536,0.162011,0.032371,0.039748,-0.048248,-0.010771,0.063535,-0.101134,-0.057814,-0.004532,0.003409,-0.037556,0.082741,-0.137579,-0.117914,0.072909,-0.115086,-0.055760,0.029816,0.000012,-0.032887,-0.096732,0.095053,0.050780,-0.177066,-0.152822,-0.140500,-0.055192,-0.144635,0.100972,0.060200,0.077990,-0.104613,0.033826,-0.060281,-0.069247,0.028627,0.005811,-0.076277,0.010573,-0.014256,0.023009,0.036663,-0.035072,0.062164,0.094174,0.001504,-0.084042,-0.097820,-0.060012,-0.132390,-0.068140,0.134644,-0.045663,-0.098497,0.034114,0.005771,0.152473,-0.046815,0.062165,0.106012,0.260294,-0.004339,0.074675,0.032902,-0.001839,0.019944,0.107646,0.149821,0.067732,0.138201,-0.077357,0.130641,0.055456,-0.005526,0.032394,-0.061394,0.107535,-0.004643,0.015116,0.101221,0.112130,0.056997,0.031669,0.071876,-0.134739,0.062773,-0.061070,0.124527,-0.026292,0.042898,-0.150619,0.003173,0.008247,-0.060762,0.073468,-0.033561,0.010939,-0.062081,-0.045715,-0.131810,-0.042092,-0.057280,0.009975,0.051617,-0.062939,0.151288,0.046419,0.042482,0.044547,0.026966,-0.014564,-0.028436,-0.036121,-0.042872,-0.029575,-0.232911,0.047979,-0.050618,-0.140838,0.009810,0.119683,-0.015463,0.000958,0.101971,0.052918,-0.051781,0.081100,0.020312,0.048000,-0.022083,0.017847,0.017164,0.064261,-0.074825,0.046660,-0.061371,-0.042420,-0.023214,0.182098,-0.201605,0.043242,-0.083644,-0.038777,-0.064175,-0.067307,-0.061151,0.012008,0.077820,0.049427,-0.136616,0.057603,0.026577,-0.031063,-0.081511,0.035597,-0.036208,0.043115,0.067013,0.072970,0.086848,-0.119105,0.032676,-0.199731,0.174117,0.144751,-0.022031,-0.113098,-0.001321,-0.008948,0.097482,0.037834,0.052758,0.009700,0.069118,-0.081946,0.040999,-0.089922,0.087381,0.060636,0.141002,0.108897,-0.038201,-0.048580,-0.045382,0.087128,-0.059259,-0.117476,0.060498,0.100263,0.065833,-0.074234,0.085030,0.120761,-0.027545,-0.036965,-0.136952,-0.125928,-0.013599,0.121673,-0.055355,0.095924,-0.005315,0.053831,0.109698,0.060267,0.054517,-0.060441,0.135442,-0.166279,0.006813,-0.004366,-0.023707,-0.176307,0.122649,-0.053631,-0.032180,-0.017526,-0.203293,0.126136,0.107722,0.141040,-0.047020,-0.145634,-0.118328,0.099777,-0.092597,-0.016657,0.037562,0.024276,0.026217,-0.045840,0.061587,-0.089649,0.107694,0.014766,-0.101540,0.057660,-0.126518,0.005979,0.005575,0.045024,-0.164689,0.043700,0.110177,-0.055915,0.011244,0.011223,0.198642,0.014689,0.109041,-0.070433,-0.044588,-0.117315,0.026830,-0.049349,-0.043920,0.034297,-0.069566,0.110197,0.237056,-0.047379,0.096223,-0.177763,0.063128,0.050073,-0.156291,0.026680,0.049497,0.071693,-0.062861,-0.117520,-0.003069,-0.078956,0.104202,-0.051755,0.143372,-0.006609,0.066122,0.054992,-0.007504,-0.025877,-0.048925,-0.153242,0.108881,0.086972,-0.034030,-0.074158,-0.142025,0.001793,0.054924,0.007924,-0.004308,-0.066525,0.006036,0.116871,-0.097623,0.068177,-0.007483,-0.007757,-0.030218,0.042446,0.007955,-0.003278,-0.190131,0.076392,-0.032445,0.047558,0.146661,0.001051,-0.010810,-0.100491,0.051706,-0.023417,-0.051500,0.069341,-0.005253,-0.185259,-0.079250,-0.016708,0.194087,-0.136970,-0.077432,-0.015745,-0.011457,0.039609,0.019593,-0.115772,-0.025061,0.100957,-0.021829,0.177947,-0.137225,-0.054129,-0.125302,-0.094821,0.044390,0.012975,-0.028299,-0.080318,-0.009651,0.039244,-0.021749,-0.037472,0.122725,0.005283,0.005005,-0.044074,-0.032730,-0.224763,-0.092786,0.133276,0.018446,0.040340,0.071721,0.083669,-0.123555,0.103531,-0.119705,0.052368,0.051474,0.003745,-0.076295,-0.061864,-0.002153,-0.056907,0.008981,-0.100197,-0.076940,0.019107,-0.075177,0.145455,-0.146179,-0.001148,-0.006768,0.102323,0.038889,-0.007687,0.045453,0.108147,-0.152335,0.070370,0.060939,-0.102198,0.007856,-0.124208,-0.063049,-0.108672,-0.067339,-0.015873,-0.131660,-0.067166,-0.127431,-0.077822,0.042154,-0.085947,0.031419,0.098043,-0.003622,-0.029738,-0.256276,-0.008994,0.040954,-0.080451,0.175910,0.143304,-0.073346,-0.090756,-0.048774,-0.019130,-0.053866,0.010765,-0.054091,-0.025744,0.027788,-0.090304,0.027579,-0.002767,-0.065968,-0.057979,0.156177,-0.152941,-0.120449,-0.083659,0.046646,0.041481,-0.133283,-0.006749,-0.000749,0.034741,-0.039640,0.022554,0.158855,0.015481,-0.012534,-0.045113,-0.079055,0.093712,0.194917,0.044271,-0.097234,0.085657,-0.104097,0.062089,0.098764,0.095618,0.178162,-0.070226,-0.030868,0.114134,0.028546,-0.030207,-0.180229,0.077811,-0.100141,-0.081675,-0.056562,-0.012177,-0.009094,-0.101927,-0.006918,-0.059033,0.141942,-0.024100,0.093344,-0.001279,0.083590,-0.069967,0.047830,0.142992,-0.018545,-0.005768,-0.140070,-0.070409,-0.098269,-0.174864,0.088130,0.041567,-0.006753,-0.053684,-0.092090,-0.072434,-0.076424,-0.040947,0.141304,0.188164,0.096996,0.005336,-0.059619,0.021549,0.071529,-0.028618,0.057633,-0.087666,0.054852,-0.032208,0.005198,0.046760,0.091361,0.017306,0.127716,0.202100,-0.013230,0.040845,0.090324,-0.008855,-0.046996,0.013922,-0.094948,-0.048152,0.019914,0.120033,0.031847,-0.039316,-0.077225,-0.022181,0.009278,0.138329,0.068270,0.050442,-0.064372,0.086797,0.146717,0.050669,-0.058599,0.076577,0.014392,-0.014372,0.068182,-0.025363,-0.001685,0.008247,0.113490,0.080896,0.067330,0.057602,-0.050852,0.069236,-0.089997,-0.055306,-0.010358,-0.004508,-0.072207,0.100498,0.079956,-0.016573,0.001767,0.061462,-0.206213,-0.032179,0.001051,-0.133264,-0.028426,-0.126412,0.145440,-0.190369,-0.042109,-0.085262,-0.042742,-0.058475,0.065763,-0.070579,0.022541,-0.052614,-0.062576,0.094009,-0.060548,-0.146078,-0.009609,0.064957,0.028675,0.022339,-0.006581,-0.064512,-0.102540,0.033186,0.069486,-0.056192,0.105515,0.159513,0.086305,-0.022734,0.102717,0.090988,-0.181493,0.002935,-0.021748,-0.188900,0.088279,-0.055405
-0.034617,-0.202963,0.033095,0.010318,0.007628,-0.010987,-0.059146,0.118569,-0.144753,0.072657,0.104371,0.070930,0.138445,-0.100498,-0.002366,0.123808,0.033243,-0.124878,0.004424,-0.064136,0.024651,-0.096242,-0.068438,-0.064963,-0.118151,0.115834,0.021117,-0.038824,0.019458,0.078818,0.027176,0.169629,-0.163456,0.060182,0.049791,0.084577,-0.030626,0.084797,-0.052723,0.126123,-0.143945,0.007971,-0.015681,0.009782,0.093125,-0.104605,-0.101628,0.016085,-0.027869,-0.153044,0.067670,-0.159870,-0.097223,0.009581,0.121468,-0.044552,0.029476,-0.012972,-0.062049,0.022718,-0.038743,0.048010,-0.099150,-0.191925,0.066629,-0.075666,0.103286,-0.018939,0.072216,-0.018285,0.069520,-0.128927,0.003922,-0.081441,0.126689,0.053133,-0.054730,0.154527,-0.022071,-0.126594,-0.052587,-0.080152,0.055853,0.005087,0.080930,-0.098115,-0.028304,-0.024149,-0.205440,0.088610,-0.061470,-0.137179,0.007110,-0.045671,-0.096869,0.193012,0.086277,-0.024617,-0.042625,0.050225,0.007168,-0.168967,0.048572,0.091789,-0.116955,0.009001,-0.096895,0.151053,-0.007202,-0.082958,-0.042602,0.012453,-0.089454,0.085714,-0.006088,0.037980,0.058318,0.033289,0.135013,-0.018550,-0.031133,0.127916,0.121926,-0.045812,-0.027038,0.030528,-0.039015,0.148482,-0.024758,-0.106627,-0.092124,-0.051414,-0.046336,0.007418,0.000569,0.068917,0.018607,-0.147172,0.005801,-0.022345,-0.145592,0.100284,0.028212,-0.056797,0.059517,0.039730,-0.068376,0.055750,0.061050,-0.104876,0.028057,-0.020919,0.062036,-0.059720,0.131453,0.004149,0.006431,0.008682,0.021477,-0.069635,-0.134815,0.101193,0.032451,-0.046782,0.072015,0.104501,0.059030,-0.153029,-0.134863,0.017695,0.044754,-0.025883,-0.093534,-0.011859,0.005535,-0.018481,0.059689,-0.008175,0.043890,-0.056259,-0.035863,-0.096264,-0.157928,-0.098775,-0.123356,0.148815,0.090607,0.020141,-0.082035,0.075837,0.050139,0.196922,-0.087849,0.035717,0.055800,-0.040753,-0.122036,-0.018335,0.069711,0.054545,0.018233,0.009282,0.063908,0.007460,0.106694,0.031850,-0.097312,0.014223,-0.106610,-0.001720,0.017083,-0.115452,0.114165,-0.038316,0.015982,-0.056113,0.265116,-0.016265,-0.078708,0.000937,-0.014751,0.040166,-0.102397,0.123624,-0.047811,0.014214,0.000686,0.011274,-0.006920,-0.040293,0.020470,0.063890,0.124689,-0.107008,0.006335,-0.068706,-0.059916,-0.058119,-0.064206,0.187394,-0.019570,0.151419,-0.015337,-0.151313,-0.046920,-0.084201,0.071212,0.049173,0.082198,0.006110,-0.097360,-0.069774,0.058677,0.053473,0.030458,-0.106124,-0.123978,-0.060305,-0.094626,0.105657,-0.089064,0.051680,0.054377,0.016593,-0.131087,0.023131,0.032223,0.040240,0.061832,-0.031099,0.082992,-0.010157,0.069238,0.022571,-0.006128,-0.172950,-0.078784,-0.128848,0.012291,-0.034155,0.029189,0.074573,-0.151468,-0.032137,-0.003622,0.034712,-0.067869,0.066491,0.058481,0.048322,0.174910,-0.019469,0.099327,-0.070351,-0.033399,0.250550,-0.154044,-0.003843,0.047567,-0.032597,-0.140139,0.037922,-0.003125,-0.076792,-0.175982,0.081281,-0.048269,-0.050973,-0.111454,-0.045105,0.045846,0.055900,0.062291,0.007530,-0.050743,0.011511,0.084734,-0.012483,-0.103114,0.110947,-0.156612,-0.052946,0.011270,-0.004949,-0.021885,-0.035637,0.148618,0.067274,-0.060331,0.018285,-0.076701,-0.022349,-0.151677,0.060649,0.015684,-0.140525,0.053802,0.054952,-0.027415,-0.013345,0.018676,0.081841,-0.010508,0.041876,-0.001131,-0.080572,-0.039028,-0.057833,0.087027,0.003957,-0.044583,0.027280,-0.177488,-0.016103,0.047934,0.046030,-0.097839,-0.028323,-0.073905,0.113080,0.054089,-0.018777,0.077060,-0.034307,0.020426,-0.041831,-0.061184,0.077831,-0.018422,0.151944,0.064909,0.091281,-0.005033,-0.065529,-0.031886,0.129407,0.022561,-0.027433,0.006441,0.007782,-0.042078,0.084408,0.056568,0.069828,-0.007759,-0.012168,0.054362,0.048454,0.149522,-0.073698,-0.003681,-0.048659,0.089782,-0.032468,0.118629,0.095188,0.048956,0.068458,0.110046,0.116794,-0.015069,-0.012997,0.065427,0.007647,-0.014055,-0.006091,-0.103623,-0.050723,-0.085782,0.063487,-0.110964,-0.163888,-0.027193,-0.093040,-0.174846,-0.002401,0.181813,0.029592,-0.014968,0.195190,-0.063071,-0.029722,-0.132783,-0.017769,-0.066511,0.160137,-0.035967,0.084419,0.252091,-0.048868,-0.012838,-0.000653,-0.159001,-0.105357,-0.058152,-0.065595,-0.063019,-0.118058,0.136045,0.142649,0.049953,-0.187580,0.073970,0.013111,-0.142652,-0.015603,-0.064401,-0.156542,-0.101539,0.003955,-0.005579,0.109344,0.006898,0.048011,-0.106257,-0.117095,-0.063947,0.086991,0.100721,0.046355,-0.056015,0.054538,-0.069517,0.008428,-0.007613,-0.003466,-0.061996,-0.008383,-0.187378,-0.055519,0.054888,0.020899,0.023017,0.046595,0.072010,0.176895,0.022849,0.025918,-0.159134,-0.024636,0.109495,0.003818,0.063604,0.064187,0.081025,0.004819,-0.077005,-0.008491,0.073530,0.014865,-0.110521,-0.042926,-0.050146,-0.021741,-0.122551,0.200599,-0.036240,0.057966,0.014916,0.021551,0.024202,0.002548,0.033248,0.045014,0.112341,-0.021565,-0.079101,-0.016189,-0.022635,-0.130995,-0.006868,0.073600,-0.092924,0.031408,-0.136169,-0.074786,-0.040095,0.138260,-0.078694,0.009739,-0.018856,0.023068,-0.046916,-0.021410,-0.037082,0.089970,0.149090,0.055322,-0.032890,-0.107307,-0.054758,-0.126600,-0.036191,0.027166,0.043779,0.121073,-0.029425,-0.187689,-0.040353,-0.032586,0.035224,0.139090,-0.041330,-0.088930,0.062899,-0.018995,-0.010103,-0.034423,0.004266,0.035236,0.024155,0.062873,0.097076,-0.147781,-0.037108,0.013716,-0.148789,0.105944,-0.005329,-0.119653,-0.036904,-0.071673,-0.087078,0.109326,0.055602,-0.127849,0.017128,-0.099514,-0.017368,0.103062,0.047130,0.048193,-0.016350,0.155586,0.131038,-0.076543,0.088662,-0.070425,0.040989,-0.098757,-0.079096,0.039416,0.131994,0.093784,-0.054084,0.006138,-0.017157,0.060466,0.134333,0.167334,0.036905,-0.134281,-0.060780,0.150964,0.161647,0.042835,0.130947,-0.102796,0.138827,0.020609,-0.044626,0.145982,0.307450,0.061401,-0.089979,0.070257,-0.115875,-0.106036,-0.020759,-0.064479,-0.058545,-0.054044,0.020631,0.026171,0.116561,-0.026698,0.000039,0.062089,0.087108,-0.111755,-0.018969,-0.046842,-0.092677,-0.113277,-0.037461,0.148672,0.011587,-0.005883,-0.002940,-0.004617,-0.025405,-0.065891,-0.056008,-0.192230,0.069928,0.132384,0.037404,-0.010016,-0.038358,-0.073582,0.080220,-0.194741,0.065179,0.130119,0.061002,-0.102578,0.014562,0.029410,-0.061540,0.088787,-0.068247,-0.112497,-0.115560,-0.053017,0.041711,0.055819,-0.086129,0.096497,-0.112299,-0.173566,0.013530,-0.005628,-0.024969,-0.029357,0.086677,0.069489,0.066450,0.003848,0.133662,0.024702,-0.028132,0.067935,-0.060445,0.095578,0.104200,-0.064942,-0.019847,-0.074602,0.075528,0.012782,0.067288,0.128209,-0.033158,0.049451,-0.086050,-0.011352,-0.073898,-0.119356,-0.007618,-0.082193,-0.027849,-0.059723,0.146345,-0.086659,0.095978,-0.003684,-0.048935,0.056551,-0.001620,-0.021639,0.011922,-0.005748,-0.096328,0.084619,-0.089175,-0.131071,-0.091609,-0.042349,-0.034645,0.123440,0.121191,0.057270,0.046889,-0.096099,-0.040345,-0.059611,-0.160878,0.129260,0.054943,0.036882,0.086680,0.049485,0.058515,0.010239,0.077770,0.028539,-0.019402,-0.033803,-0.010657,-0.055768,0.043929,-0.040298,0.105813,-0.062192,0.076314,-0.048800,0.159342,0.166779,0.076832,-0.027971,-0.099281,0.104154,0.058490,0.014638,-0.066116,0.016025,0.075568,-0.056096,-0.006866,0.195837,-0.025154,0.046891,-0.043638,0.002574,0.046121,0.109700,-0.061227,-0.003601,-0.047915,0.007327,-0.026909,-0.093232,-0.057936,0.060543,-0.089990,-0.031773,0.076025,-0.004918,-0.046635,-0.020773,-0.010231,0.002145,-0.096086,-0.046441,0.125776,-0.075318,-0.178326,-0.108011,0.073216,-0.010286,-0.071699,0.083768,0.120363,0.025907,0.106481,0.043178,0.136042,0.002600,0.020531,-0.061004,-0.086798,0.052727,-0.064989,0.071833,0.115493,0.067899,-0.132009,0.119010,0.001734,0.033187,0.038601,0.144629,0.067032,-0.107947,-0.143789,0.117581,-0.062835,0.086294,-0.081274,-0.025732,0.046116,0.071900,-0.208342,-0.010029,0.094076,-0.011323,-0.052751,-0.041328,-0.023124,-0.173096,-0.047045,0.026930,0.076390,0.104012,-0.098889,0.000363,-0.033043,0.029420,-0.015395,0.066709,-0.131565,0.030335,-0.211884,0.025882,-0.043829,-0.053214,0.032002,-0.038406,0.007551,-0.134742,0.067251,-0.120407,-0.012342,-0.051603,0.106766,0.187732,0.067584,0.042364,0.135991,0.120913,-0.079231,-0.126288,-0.043923,-0.064838,0.159657,-0.107233,0.021178,-0.231407,-0.092294,0.016152,0.030670,0.022501,0.151220,-0.076993,0.004610,-0.135733,0.089931,-0.090034,-0.013707,0.109920,0.057069,0.041852,-0.003945,-0.099291,-0.025031,-0.046683,-0.106259,-0.123621,0.061244,0.051803,0.014017,0.098254,-0.090842,-0.101402,0.200152,0.032505,0.002236,-0.093367,0.008072,-0.004390,0.129768,0.094111,-0.078653,0.055559,0.089154,-0.030569,-0.009361,0.131856,0.039280,-0.034305,0.092420,0.078366,-0.035880,-0.164945,-0.165514,-0.019154,-0.070392,-0.116555,0.058121,0.192322,0.062154,-0.128210,0.035434,0.082595,0.153666,0.164596,-0.135526,0.160572,0.134721,-0.080648,0.018127,-0.166733,-0.133781,0.136180,0.083021,0.070487,0.020219,0.108220,-0.130390,0.033805,0.101223,0.116149,-0.155284,0.020745,0.082384,0.045930,-0.055974,0.017451,-0.011855,-0.199000,-0.083157,-0.137485,0.019589,0.030413,0.044518,0.005599,-0.067985,0.005022,0.018477,0.084619,0.123817,0.011931,0.007257,-0.022612,0.001285,-0.110984,-0.018140,-0.108520,-0.007949,0.026123,0.017751,0.139166,0.058794,-0.094167,0.036031,0.137800,-0.055375,-0.024169,-0.042615,-0.003049,-0.024741,-0.029204,0.082126,0.031560,-0.167293,0.023921,0.000697,-0.024343,-0.228860,0.051228,0.101848,0.019912,0.013995,-0.151918,0.102091,-0.008424,-0.146121,-0.096811,0.040589,0.033899,0.036905,0.059759,-0.149829,-0.007504,-0.132809,-0.111201,-0.154062,0.033218,0.016716,-0.084523,0.062717,0.043278,-0.150270,0.033953,0.005636,-0.028874,-0.041893,0.018951,-0.096418,0.126232,0.017533,-0.027848,-0.014690,-0.018084,0.071519,-0.021574,0.022673,0.040837,-0.102064,0.020742,-0.074008,-0.047653,-0.006151,-0.073871
0.070503,0.185445,0.005663,-0.095313,-0.033251,-0.014660,-0.150731,-0.151929,-0.011740,-0.094611,-0.074442,-0.073104,0.051193,0.013072,-0.027774,-0.121877,-0.135979,0.031434,0.069496,0.018333,0.130709,-0.067548,-0.055945,-0.047562,0.036614,0.054651,0.089308,0.066728,-0.080994,0.020551,-0.122135,-0.037809,-0.122207,-0.111231,-0.052692,0.028779,-0.047300,-0.053247,-0.109031,0.084238,0.001586,-0.167249,-0.104838,-0.006270,0.199778,0.027205,-0.002546,-0.049447,-0.207056,0.007730,-0.047869,-0.001048,0.015696,-0.071229,0.005729,0.277640,-0.081947,0.041431,-0.042598,-0.006579,-0.011640,0.072032,-0.144566,-0.034046,-0.081992,-0.162754,0.232335,-0.053433,0.066120,-0.031228,-0.185143,0.050833,0.130442,0.061616,0.112093,0.147463,0.041333,-0.134362,-0.118605,0.000924,0.019063,-0.085860,0.083730,0.051029,-0.130333,0.030466,-0.022168,0.049917,-0.034567,0.031652,0.051449,0.093178,0.003962,-0.143017,0.127492,-0.147612,-0.049893,-0.031360,0.070138,0.097411,0.044903,-0.027718,-0.064168,0.106800,-0.083422,-0.050974,-0.114061,0.028767,0.022203,0.047585,0.048344,0.052020,0.047906,0.072448,-0.064785,-0.211591,-0.046015,0.014922,-0.031150,-0.083432,-0.053196,-0.030674,-0.050779,0.028142,0.060774,0.011192,0.018421,0.036749,0.098745,-0.050773,-0.012770,-0.125826,0.059328,0.075017,-0.037233,-0.018538,-0.008219,0.069279,0.003164,-0.097248,-0.234965,0.103674,0.021060,0.071190,0.066596,-0.097917,-0.046577,-0.094770,0.123132,0.184850,-0.015049,0.085956,0.129894,-0.108816,-0.044199,0.098504,-0.063064,0.068339,0.092747,-0.047592,0.014549,0.119762,0.089554,0.068835,0.002425,0.030320,-0.063917,0.122628,0.020986,-0.086441,0.056170,0.070106,-0.096545,-0.137903,0.201245,-0.102330,-0.070370,-0.063966,0.032231,0.073216,0.165141,0.024648,-0.031163,-0.024380,-0.082145,0.055575,0.005994,0.049408,0.122813,0.059318,-0.143842,-0.055933,0.066365,-0.014836,0.014221,0.052545,0.050013,-0.103420,-0.004577,-0.062546,0.003449,0.100546,-0.004163,-0.091872,-0.071931,0.184616,-0.132167,0.031588,-0.032870,0.056900,-0.021242,0.054682,-0.053057,-0.062164,-0.013278,0.060021,0.029517,-0.003945,-0.090181,0.060159,0.025751,0.162250,-0.003809,-0.135529,0.020167,-0.024298,-0.035441,-0.096605,0.102882,-0.089379,0.082943,-0.114568,-0.090338,-0.026824,0.002368,0.097357,-0.043971,-0.010862,-0.102065,-0.025501,-0.075040,-0.012170,0.015754,-0.041070,-0.024226,0.110543,0.018524,-0.131658,-0.062575,0.012126,0.025843,-0.104021,0.026402,0.002213,-0.061086,-0.100286,-0.010696,-0.015051,-0.107172,-0.189058,0.041527,-0.028643,0.007678,0.092833,0.210337,-0.012544,0.073054,0.007617,0.007160,0.027828,-0.152723,-0.042138,0.091139,-0.045681,0.017297,0.020198,0.070753,-0.132519,-0.055729,0.193772,-0.022162,-0.018351,-0.079849,0.057477,0.119705,-0.043757,-0.132110,0.069035,-0.036442,0.041841,0.034405,0.053798,0.139498,0.019482,0.023251,0.029523,0.099495,0.043713,-0.034052,-0.055909,-0.007325,0.118551,0.012159,-0.002172,-0.011133,-0.137754,0.074358,0.165665,0.094714,-0.008122,-0.038700,0.186044,-0.003764,0.090951,0.100477,0.076491,0.040837,-0.042420,-0.166721,0.030843,0.048870,0.230041,0.128038,0.132073,0.040042,0.074842,0.103617,-0.014060,0.153059,-0.119949,0.047299,-0.051595,-0.061036,0.046331,0.013644,0.002265,0.021010,0.055571,-0.082047,0.040419,-0.136362,0.091295,0.033578,-0.051338,0.075259,-0.006236,0.056751,0.103426,0.015398,0.038352,0.094488,-0.040853,-0.064449,0.067932,-0.059287,-0.224235,0.070512,-0.090351,-0.096770,0.183211,-0.040721,0.059481,0.058314,-0.077367,-0.135040,0.001169,0.094533,-0.076704,0.005550,-0.086495,0.017893,0.012225,-0.013272,0.098876,-0.052749,-0.207933,0.033213,0.043642,-0.007504,0.013055,-0.157516,-0.088632,-0.066117,0.034075,-0.038027,0.064986,0.122955,-0.020269,0.046434,0.016644,-0.080148,0.127402,-0.016776,-0.099256,-0.025422,-0.081093,0.081797,0.046287,-0.097592,0.058205,0.001800,-0.005601,0.067737,-0.094027,0.043970,-0.022118,-0.111653,0.038202,0.198061,0.027586,-0.107454,0.167243,0.008905,-0.071472,-0.038911,-0.143808,-0.071910,0.011751,-0.089388,0.153408,-0.025271,0.091540,0.118294,-0.142721,0.033741,-0.138531,0.052074,-0.087418,-0.024198,-0.004415,-0.105929,-0.029394,0.047198,-0.239827,0.045769,0.115380,0.017229,-0.024524,-0.047312,-0.007829,-0.008217,-0.045026,0.087658,-0.049922,-0.118946,0.010698,0.123442,0.110225,0.004830,-0.092938,0.143277,0.061567,0.067388,-0.070375,-0.037899,0.054522,0.101046,0.082821,0.034539,-0.076979,0.007540,-0.051871,0.079451,-0.101092,0.068892,-0.120842,0.045492,0.174307,0.011501,-0.103453,-0.005567,0.007217,0.065819,-0.100372,0.021396,0.133396,0.113465,-0.112149,-0.018421,0.171563,0.057847,0.076260,-0.060844,0.036485,0.061032,0.103413,-0.014566,0.026287,-0.100829,0.037535,-0.010199,-0.016782,-0.040006,-0.008568,-0.018036,0.061930,-0.098269,-0.033338,0.033447,-0.062612,-0.004498,0.060457,-0.064973,0.124907,-0.000532,-0.089971,-0.086136,0.059830,-0.027217,-0.100067,-0.002734,0.049304,-0.062955,0.018144,-0.093445,0.006097,0.098163,0.035449,-0.085535,0.078462,0.165140,0.131310,0.051408,-0.006135,0.084477,0.087157,-0.002396,-0.063512,-0.041062,-0.058954,-0.053553,-0.057792,-0.068557,-0.054170,0.001184,0.145003,-0.084028,0.033229,-0.005876,0.050395,-0.055739,0.017835,-0.005624,-0.013095,-0.152133,0.082943,0.114287,0.102378,-0.107875,-0.034657,0.013446,-0.022188,0.078065,-0.075941,0.158417,-0.029146,0.102688,0.050692,0.086916,-0.089190,-0.025127,0.122782,-0.110170,0.088778,-0.069185,0.113650,0.030828,-0.067979,0.031648,-0.045969,0.215208,0.021499,-0.088591,0.131912,0.057648,-0.054304,-0.095079,-0.024254,0.021820,0.056712,0.087042,0.118392,0.089607,-0.048926,0.101112,0.038263,-0.000569,0.023286,-0.071049,-0.094686,0.012949,0.021902,0.069732,-0.092538,-0.003114,-0.147012,0.046237,-0.076744,0.056376,0.039645,0.123378,0.083734,-0.024273,-0.194330,0.170895,-0.061866,-0.044596,-0.087046,-0.003244,-0.079415,0.148401,-0.036838,0.055795,-0.047528,-0.005558,0.026965,0.096603,-0.118861,-0.082343,0.047752,-0.121239,-0.010453,-0.121629,0.005995,0.005733,-0.014939,-0.023438,-0.008449,0.065878,0.019347,-0.011378,0.109318,0.140081,0.082448,-0.031154,-0.026945,-0.055946,0.001827,-0.056880,-0.026490,0.191996,-0.052302,0.045687,-0.095863,0.082130,0.073493,-0.026155,-0.000400,0.127105,-0.014156,-0.007638,-0.055542,-0.108148,0.115262,0.001607,0.007156,-0.145257,0.011244,-0.054522,0.113872,-0.024296,0.013259,0.015190,-0.003069,-0.051300,-0.125910,0.050981,-0.018643,-0.017642,0.106037,-0.054454,-0.004142,0.006268,0.002465,0.191191,0.165652,-0.034361,-0.002217,0.171907,0.005477,0.010163,0.025639,0.124429,-0.113258,-0.042793,-0.081079,0.095111,-0.058792,0.014175,0.061103,-0.167260,0.008646,0.054474,-0.011239,-0.024210,0.121015,-0.044808,-0.054497,-0.041238,-0.020922,0.117850,-0.134933,0.006881,-0.168071,-0.074368,0.094706,-0.084319,-0.104121,0.085810,0.179183,0.104021,-0.048353,0.168827,0.029707,-0.046876,-0.051306,0.045650,0.011054,-0.057067,-0.114611,0.003434,-0.067024,0.018305,0.088142,-0.004969,-0.056591,0.041216,-0.035357,-0.028628,-0.011949,0.189519,-0.121285,-0.181332,0.128662,-0.093348,-0.163588,-0.083490,0.050914,0.031769,-0.054328,0.004999,0.068074,0.005206,-0.013761,-0.120806,-0.007059,-0.022473,-0.071437,0.120483,0.076139,-0.122645,0.224269,-0.036588,-0.041293,-0.139087,-0.072122,0.197570,0.016058,-0.054342,-0.033923,0.004541,-0.073847,0.028674,-0.039807,-0.011663,0.124399,0.098937,0.147141,0.137163,0.042292,-0.019012,-0.007015,0.181573,-0.012903,0.054999,-0.029350,0.030474,-0.095521,-0.058115,-0.060480,0.110416,0.024530,0.080050,-0.062417,-0.056745,-0.122596,0.051967,-0.027808,0.066896,-0.153528,-0.101738,0.015812,-0.165891,-0.031922,0.103162,0.036411,0.088863,-0.101775,0.123193,0.128315,0.154936,0.045704,-0.059597,-0.209367,-0.047820,0.095245,-0.034959,-0.024644,0.081474,0.130957,0.191317,0.036470,0.033063,-0.022179,-0.109111,-0.019914,0.155318,-0.033789,-0.144761,-0.001647,-0.034052,0.033347,-0.098486,-0.017967,0.130228,0.007578,0.046887,0.352363,-0.039950,-0.046832,0.070130,0.037823,0.086372,-0.024508,0.045980,0.072586,0.025567,0.046599,-0.003747,-0.016623,0.118924,0.200150,0.091515,-0.028443,-0.012672,-0.150516,0.107263,-0.005630,-0.085025,0.076716,0.022998,-0.006813,-0.013115,0.000367,0.038711,0.036827,-0.187993,-0.078432,-0.070683,-0.095559,0.037827,0.064692,-0.045263,0.056245,0.027394,-0.013524,0.050224,-0.021025,-0.088614,-0.141099,0.076889,0.077577,-0.005678,0.060158,-0.116797,-0.076136,-0.064862,-0.035559,0.041802,-0.034902,-0.140721,-0.014436,0.021883,-0.081226,-0.091873,0.031631,0.105789,0.062713,0.089695,-0.106066,-0.001162,-0.072931,-0.014830,-0.009868,-0.267181,0.075587,-0.068028,-0.100824,-0.031493,0.008179,-0.007412,0.123957,0.065031,-0.058404,-0.104012,0.006283,0.060196,0.110735,-0.103326,0.138992,-0.173247,0.053250,0.046932,0.025897,-0.076225,0.037212,0.054719,-0.084733,-0.059214,-0.023646,-0.066365,-0.059428,-0.006108,0.017610,0.013435,-0.097352,0.044035,0.186141,-0.030874,0.044310,-0.018200,-0.026179,-0.170988,0.054051,0.012293,0.008712,0.057825,-0.091923,0.081296,0.108887,-0.122634,-0.150109,-0.046627,-0.124925,0.100297,-0.088882,-0.100955,0.085336,0.106197,0.012080,-0.168047,-0.110549,0.148309,0.022864,-0.056600,-0.096301,0.079306,-0.047146,-0.030544,0.074265,0.134125,0.195729,0.064234,-0.065988,0.129094,-0.170335,-0.075034,-0.027546,0.111849,-0.034560,0.057511,-0.112517,0.011833,0.018818,-0.048263,0.042254,0.002442,0.071786,-0.132837,-0.075748,0.031889,-0.007157,0.131082,-0.031267,0.045214,-0.172881,-0.197634,0.106629,-0.119240,-0.107498,-0.114101,-0.057130,-0.085945,-0.103255,-0.033908,-0.050929,0.004506,-0.141893,-0.003042,-0.093970,0.085129,0.186906,-0.178168,0.114090,0.063528,-0.052772,0.106973,-0.013287,-0.120230,-0.061772,-0.181448,0.100533,-0.038651,0.008560,-0.021432,-0.005925,-0.076796,-0.026158,-0.033759,0.087147,0.103954,0.014383,-0.007264,-0.028215
-0.000351,-0.009827,0.038075,-0.057833,0.069821,-0.006877,-0.008343,0.119268,-0.008660,-0.041163,-0.148308,0.094927,-0.020271,-0.062075,0.038950,-0.082549,0.087423,-0.064797,0.031364,0.003492,-0.188475,0.026990,-0.019114,0.008570,0.075261,0.008006,-0.143422,-0.069453,0.007266,-0.086964,-0.001311,0.063343,-0.011257,-0.091440,-0.132917,-0.067709,-0.118006,-0.064794,0.079750,0.073137,-0.052576,-0.126795,-0.005336,0.151936,0.226855,-0.000435,0.035945,0.037646,-0.060433,0.056029,0.027447,0.029141,0.132839,-0.015249,-0.028487,-0.055753,-0.072195,-0.130962,0.043895,-0.000518,-0.014128,0.024236,-0.032305,-0.010577,0.075816,0.035915,-0.036446,0.076742,0.023085,-0.009109,0.043455,-0.029878,-0.073466,-0.049599,0.070592,-0.036071,0.074053,0.047023,-0.088487,0.053426,0.070158,-0.009282,0.029852,0.033678,-0.095025,0.143060,-0.039233,-0.057097,0.061157,-0.021589,-0.008056,-0.007827,0.083976,0.001661,-0.014828,-0.100623,-0.249256,-0.020686,0.011883,-0.042558,0.055218,-0.052870,-0.111510,0.137023,0.115957,-0.075701,-0.066908,-0.015486,-0.044869,0.090545,0.120101,-0.076421,0.026787,-0.000510,0.061437,0.027560,0.063861,0.036651,-0.038888,0.096133,-0.087538,-0.164401,0.022206,-0.032417,-0.055098,0.050284,0.064039,0.040382,-0.026371,-0.065047,-0.014175,-0.009206,0.023291,0.004749,0.034470,0.053315,0.135465,-0.040594,-0.149043,0.052431,0.004413,0.055727,0.115747,0.160835,-0.074284,-0.113606,-0.039349,-0.118012,-0.133714,-0.113937,0.188983,0.049118,-0.004496,0.054162,0.019151,0.077914,-0.058995,-0.075792,0.005120,-0.049292,-0.023292,0.023865,-0.024360,0.025210,-0.130210,0.050521,-0.037104,0.023036,-0.116836,0.067312,-0.036353,-0.210607,0.010624,-0.000069,0.115767,0.060471,0.040838,0.082144,0.034540,-0.020113,0.121365,0.016012,-0.226415,0.096059,0.060730,-0.160266,-0.023309,0.035481,0.013213,0.046690,-0.044637,-0.055432,0.133673,0.091967,0.122440,0.090830,-0.115647,0.014629,0.019928,-0.003471,-0.010568,0.111340,0.068255,-0.030493,0.107590,-0.035857,-0.032418,0.224598,0.026025,0.017646,0.194993,0.009806,-0.088614,0.113359,-0.013965,-0.012649,0.089173,-0.191672,-0.034125,0.109686,-0.154990,-0.062051,-0.091265,-0.032913,-0.017442,0.026132,-0.062425,-0.145108,0.189370,-0.018949,0.079236,0.006536,0.033232,0.243613,0.038616,-0.014750,0.055262,0.050035,0.183955,-0.130670,-0.055780,-0.017989,0.042171,-0.123715,-0.014669,0.051401,0.126747,-0.180017,-0.008511,0.002020,0.113370,-0.112651,-0.048143,-0.113494,0.142652,-0.020674,0.006370,0.046296,-0.006471,0.067485,-0.042945,0.102300,0.051807,0.007690,-0.027410,-0.054892,0.027753,-0.019187,-0.120084,-0.088184,-0.035110,-0.097265,0.087620,-0.052664,0.121782,0.033167,0.010350,0.006301,-0.142842,0.096890,-0.097164,-0.060341,-0.124399,-0.034545,0.112034,-0.191415,-0.008059,-0.002715,0.009521,0.083347,0.040502,-0.092720,-0.066387,-0.072736,-0.103814,0.083042,-0.139025,-0.066455,0.170148,-0.019037,-0.166667,-0.027573,0.087420,0.170552,-0.121384,0.185883,-0.024559,0.066066,0.246901,0.028922,0.127263,0.018872,0.018256,0.049886,-0.118079,0.109347,-0.140824,0.062558,-0.166418,0.098716,-0.073245,0.013220,-0.096563,-0.090745,0.072570,0.011504,0.029331,0.024624,-0.114095,0.197770,-0.121879,0.015240,0.132352,0.027621,-0.030731,0.019202,-0.000678,0.170777,0.039984,0.037623,0.271692,0.008623,-0.027537,-0.031114,0.094056,0.027992,-0.097682,0.092034,0.050857,-0.043044,0.191273,0.014767,-0.033612,0.080693,-0.097196,0.077474,-0.112390,-0.090864,-0.054991,-0.203568,0.119727,-0.034343,-0.021051,-0.208111,0.024324,0.089466,0.095187,0.016371,-0.117901,0.025529,0.027573,0.122311,-0.164844,-0.136771,-0.042626,0.010466,0.062854,-0.048159,0.163253,0.027915,-0.081982,-0.107617,0.001760,-0.003420,0.008463,0.013781,-0.109338,-0.229077,0.183540,-0.083013,-0.027655,0.165557,0.075463,0.080686,-0.005538,0.071602,-0.053859,-0.048170,0.105538,0.061294,0.008645,0.075996,0.029889,0.042671,0.079289,0.034262,-0.104606,0.065249,-0.105992,0.084500,-0.118664,0.208745,-0.021788,0.089872,0.017009,0.049446,0.102546,-0.265317,-0.028911,-0.028753,-0.067746,0.017733,0.014400,0.194791,-0.130196,0.028281,-0.000238,-0.004715,-0.110742,-0.017117,0.127736,-0.114323,-0.230052,-0.072790,-0.020102,-0.097873,-0.106320,-0.078831,-0.045754,-0.051103,-0.067160,-0.105356,0.084497,-0.125770,0.055474,-0.036240,0.162252,0.052028,0.093247,0.100374,0.129004,-0.069761,-0.046640,0.037703,0.071131,0.015792,-0.034958,0.076916,-0.017653,0.036114,0.017084,0.095533,-0.054934,-0.011270,0.049964,-0.134563,-0.169591,0.122761,0.096558,-0.010240,-0.084760,-0.046873,-0.058948,0.063012,0.169657,-0.039487,0.063880,0.072734,0.040407,-0.104332,0.030304,-0.006600,-0.106832,-0.040940,-0.061431,-0.051790,-0.104880,0.050338,-0.020037,0.151026,-0.002111,-0.000149,0.007802,-0.011168,0.094751,-0.092979,0.059048,0.025379,0.188623,-0.025743,-0.041145,-0.025660,-0.117330,-0.000334,0.066836,0.135672,-0.123386,0.024905,0.140043,-0.051755,0.015826,0.068335,0.096541,-0.002984,-0.054830,-0.193036,0.117047,-0.070811,-0.001563,-0.078752,-0.050132,-0.010086,0.017449,0.033528,0.022083,0.078460,-0.155314,-0.000075,0.083354,0.134374,-0.041415,0.098263,-0.012357,-0.037644,-0.019694,-0.020583,-0.003930,0.199521,0.028375,0.082114,-0.187875,-0.070402,0.049575,-0.035920,-0.154024,-0.074539,0.082139,0.032806,0.163568,-0.104050,0.113505,-0.134752,0.004216,0.028871,0.018798,0.054871,0.104336,0.130354,-0.103302,0.093830,-0.012969,-0.033744,0.155189,0.043476,-0.105991,-0.015298,0.056316,0.142028,0.178210,0.007560,0.101999,-0.015452,0.097793,0.051217,0.081350,0.003992,-0.012271,0.099253,-0.023562,-0.071858,-0.026925,0.167183,0.016459,0.012557,0.039371,-0.067684,0.110744,0.050273,0.037065,-0.082348,-0.102234,-0.034327,-0.045595,-0.102379,0.018383,0.006512,0.055714,-0.060103,-0.026632,-0.090672,-0.076984,-0.026437,-0.072348,0.157450,0.008300,0.092925,0.121989,-0.046033,-0.039866,0.109033,0.062433,0.114140,-0.010701,0.088608,0.085628,0.161727,-0.004122,-0.067006,0.003004,-0.146068,-0.164567,0.010702,-0.013861,-0.083275,0.046518,-0.096195,0.071337,-0.178867,0.165291,0.015859,-0.103961,-0.018639,0.024914,-0.007576,-0.042847,0.073747,-0.037604,0.099143,-0.099290,0.128113,-0.148909,-0.103617,-0.042567,0.045495,-0.036213,-0.113481,-0.038319,0.163855,0.028740,0.017797,-0.021137,-0.096704,-0.124152,0.033705,0.139793,0.003417,0.001537,0.061722,0.180538,-0.098411,-0.016554,-0.085425,0.013299,-0.051753,0.025689,-0.102599,0.053272,-0.203619,-0.022571,0.062745,-0.168920,0.004637,-0.032269,0.171557,-0.076353,-0.055749,0.075286,0.046626,0.012842,0.018838,0.026587,-0.063315,-0.030523,0.050956,-0.009133,0.057651,0.159815,-0.104590,-0.027749,0.070221,-0.006437,0.026600,0.053952,0.062629,0.113202,0.056008,0.074834,-0.049638,0.115438,-0.142775,-0.011827,-0.043165,-0.158014,-0.007467,0.097699,-0.030143,0.009274,-0.083711,-0.071857,-0.005169,0.164187,-0.106595,0.038605,0.033497,0.151675,0.151968,0.087215,-0.078379,0.062396,-0.044606,-0.179324,-0.157536,-0.031552,0.113879,0.108488,-0.119404,-0.069853,0.027316,0.017043,-0.001074,-0.116274,0.047586,-0.036197,-0.216404,0.047076,-0.119653,-0.018343,-0.052005,-0.044253,-0.031662,0.067291,0.038240,-0.006535,0.049464,0.007631,-0.183799,0.024795,0.044318,-0.100569,-0.005013,-0.015319,-0.090720,-0.037638,0.067006,0.086422,-0.097612,-0.020068,-0.092194,-0.050206,0.160123,-0.134923,-0.131331,0.031156,0.055801,-0.056263,-0.104472,0.009968,0.105932,0.118484,-0.008523,0.027363,-0.138961,-0.098381,0.026915,0.083405,-0.081013,-0.072578,-0.063171,0.041618,-0.053562,-0.025562,-0.028144,-0.082606,0.045908,-0.030576,0.015461,-0.025405,0.010352,-0.086219,-0.051035,0.008004,0.041967,-0.055362,-0.046294,0.068238,-0.074883,-0.128613,0.022202,-0.141723,-0.037047,-0.031394,0.041461,-0.175977,0.005883,0.171055,-0.020911,0.015728,0.110011,0.007903,0.167184,-0.027426,-0.000963,0.117385,0.110076,-0.052219,-0.065284,0.116477,-0.051877,0.128941,-0.058765,-0.028565,0.132936,0.068789,0.053688,-0.042439,-0.006766,0.082897,-0.107420,0.107521,0.022096,-0.148720,-0.095327,-0.085539,-0.012685,0.067498,0.076092,0.080326,-0.039078,-0.064440,0.030349,-0.060198,-0.102884,-0.049043,-0.155679,0.053132,0.110333,-0.123193,0.138787,-0.031473,-0.065614,0.049269,0.054437,0.087029,0.061443,0.195880,-0.051681,0.025961,-0.023501,0.071867,-0.071052,0.039688,-0.011145,-0.056838,0.087326,-0.094410,-0.090389,-0.029494,0.055087,-0.071515,-0.043929,-0.000177,-0.007331,0.055807,-0.041057,0.059139,-0.014370,0.152106,-0.031621,-0.031768,0.036024,-0.175810,-0.034981,0.116720,0.076612,0.096537,-0.049953,0.046943,0.069280,0.084473,-0.121429,-0.018364,0.110703,-0.028625,-0.153687,0.056300,-0.054916,0.176468,0.082973,0.055221,-0.002237,-0.039521,0.024396,-0.087335,-0.053276,-0.198345,-0.065365,0.107591,0.013292,0.027716,0.055932,-0.197868,-0.040997,0.099314,0.057998,0.070989,0.000772,0.016216,-0.069636,0.029344,-0.112749,0.100891,-0.014310,0.080844,0.001946,-0.129716,0.016826,-0.009340,0.058478,0.023768,-0.048248,0.074863,0.003714,-0.029548,-0.053901,0.019588,-0.132698,-0.190199,0.038797,-0.079406,-0.090282,-0.064159,0.016784,-0.006188,-0.007787,-0.056648,0.010620,0.007841,0.027567,-0.018195,-0.088071,-0.054127,0.128793,-0.028666,-0.023912,-0.007639,-0.002726,-0.020908,0.052390,0.068278,-0.025034,0.005254,0.116301,0.098353,-0.015984,0.103519,-0.082667,0.073358,-0.139951,0.056257,-0.072920,-0.113431,0.037760,0.011936,0.009016,-0.037811,-0.157380,-0.050193,-0.049982,0.011920,-0.050880,-0.107879,-0.035252,-0.071830,0.105739,-0.033155,-0.028060,-0.002525,-0.105790,0.132645,-0.020345,-0.112571,-0.053292,-0.032371,0.012050,0.042630,0.303737,-0.035683,-0.032044,-0.062937,-0.047787,0.014610,-0.057012,0.044906,-0.154478,-0.087815,0.098569,-0.104041,0.017628,-0.082180,-0.002910,0.066995,-0.081946,0.150880,0.111075,0.116908,-0.084216,0.069957,-0.149652,0.099776,-0.015086,-0.065369,0.036928,-0.043095,-0.008314
0.116504,-0.014344,-0.042478,-0.043479,-0.124220,-0.015058,-0.074696,0.045625,-0.074554,0.022980,0.033503,-0.037050,-0.171519,-0.030964,0.112373,0.124943,-0.188170,0.139377,-0.072448,0.060351,0.003826,-0.126969,0.000290,-0.069004,-0.037223,0.101832,0.092758,0.011947,-0.137835,-0.084016,0.104975,-0.041443,0.009155,0.017655,0.072322,0.111382,0.054094,0.025421,0.004982,-0.105157,-0.088731,0.044564,-0.127724,0.015713,0.017404,-0.001901,-0.120609,-0.116940,0.009371,0.058420,-0.044532,0.087773,0.040462,-0.037205,0.019305,0.011195,0.072773,0.073974,-0.080134,-0.076208,-0.092868,-0.069746,0.014031,-0.184423,-0.065719,-0.113953,-0.145034,0.011961,-0.046753,-0.005132,0.098167,0.132353,0.105404,-0.146860,-0.047406,-0.155858,0.043838,-0.105946,-0.111720,0.110499,0.074387,0.021757,-0.092265,0.100909,-0.091902,-0.022015,0.043107,-0.078939,0.073115,-0.050428,0.147054,-0.043073,0.083920,0.071368,0.156105,-0.065290,0.097194,-0.046514,0.085501,0.054176,-0.019642,0.011261,-0.012415,-0.046912,0.026746,0.067404,-0.008508,-0.084095,-0.034040,0.145999,0.053046,-0.038502,0.084540,-0.132470,0.075993,0.076362,0.078438,-0.163573,-0.087128,0.106934,0.108526,0.094735,0.037292,-0.056530,0.127673,-0.099692,-0.006921,-0.052910,0.126468,0.006036,-0.022954,-0.031949,-0.316287,0.035694,0.013747,0.044529,0.048328,0.103463,0.074246,-0.130995,-0.063156,0.164260,0.078868,-0.019580,-0.041548,0.026271,0.083911,0.235029,0.014379,-0.133497,0.002237,-0.056623,-0.042803,-0.084195,-0.053475,-0.035718,-0.088692,-0.064296,-0.024149,-0.153732,-0.018500,-0.012304,0.074456,-0.078001,-0.068493,0.071348,0.023804,0.083446,-0.157001,0.026938,0.001351,0.069241,-0.005304,0.029460,-0.086248,-0.066990,0.045155,-0.080733,0.018891,-0.128427,0.032135,0.008914,0.097209,0.124218,0.098882,-0.045080,0.168313,-0.093388,0.029383,0.213231,-0.108994,-0.126354,0.005641,0.085475,0.101911,-0.092105,0.060111,0.046427,0.064250,-0.160657,-0.003783,-0.000984,-0.058134,0.125784,0.002104,-0.027768,-0.026313,-0.098158,-0.092913,0.012132,-0.080139,0.034059,-0.005703,-0.071690,0.058328,0.103222,0.075049,-0.167646,0.059447,-0.004660,-0.156781,0.019662,-0.059999,0.121900,0.048918,-0.145785,-0.091236,0.001450,0.131093,-0.067451,-0.039412,-0.013175,0.143807,-0.059119,-0.004018,-0.081705,0.003714,-0.131031,-0.054141,-0.006561,0.035472,-0.078500,-0.038650,-0.138594,0.081537,-0.230864,-0.047422,-0.093067,0.062863,0.089299,-0.059943,0.071720,0.015731,-0.062872,0.062161,-0.055132,-0.003042,-0.165679,-0.061672,-0.073932,-0.126079,0.090063,0.123773,0.081702,0.058788,-0.028179,-0.085458,-0.064312,-0.023999,0.053150,-0.050662,-0.149363,-0.164516,0.083395,-0.107985,-0.018736,0.001299,0.037975,0.013832,-0.110732,-0.010221,0.041306,-0.082930,-0.103138,-0.091837,-0.098834,-0.252865,-0.038046,-0.083538,0.040183,0.045111,0.037281,0.036367,0.120524,0.012238,0.055600,-0.042593,-0.023884,-0.079651,0.045595,-0.050898,0.118154,-0.005108,-0.047325,-0.180361,0.121728,0.163077,-0.078619,0.001136,0.060152,-0.017515,-0.117704,0.022839,-0.088117,-0.093784,0.096857,-0.020200,-0.080418,-0.004164,0.096907,0.097478,0.003013,0.063162,-0.027492,0.113512,0.075087,0.122598,-0.145792,0.005285,0.124977,-0.000191,0.140097,0.074731,0.074163,0.034279,-0.012361,-0.026505,0.019395,0.135060,-0.023173,-0.126601,-0.026902,0.056099,0.006258,-0.026045,0.043996,0.055320,-0.112901,0.052983,0.079661,0.001267,-0.006475,0.038506,-0.067069,0.188701,-0.024709,0.021583,-0.191989,-0.035984,-0.023300,0.006871,-0.033151,0.012443,0.030342,0.111708,0.157314,-0.054678,0.070701,0.018191,-0.019661,-0.074923,0.142502,-0.044488,-0.037533,-0.012279,0.000688,-0.020492,-0.146148,0.012985,-0.189164,-0.075253,0.123345,-0.172614,-0.032582,0.051260,0.045165,0.036794,-0.050291,0.054864,0.070977,-0.022561,0.056294,0.056904,-0.062438,0.040703,-0.029107,0.040189,0.113399,0.032320,0.052029,0.078065,-0.096908,0.085093,-0.022310,0.014480,-0.002030,-0.139136,0.004208,0.003377,0.045451,0.023284,-0.109498,0.013289,-0.114597,-0.137244,-0.072836,-0.010839,-0.059712,-0.077364,-0.074849,-0.121078,0.050091,-0.001825,-0.005699,-0.006764,-0.019127,0.030995,-0.106332,0.102104,0.170847,-0.169538,-0.045948,-0.008870,-0.053134,-0.071169,0.023084,0.127481,0.068289,-0.207087,0.032562,-0.076286,0.042761,0.026918,-0.011001,0.086643,-0.206233,-0.032875,0.089682,0.033008,-0.032786,0.032249,0.021475,-0.006466,0.163396,-0.144574,0.024847,0.052988,0.037893,-0.093265,-0.095894,-0.008779,-0.007943,-0.102137,0.045695,0.114195,0.047340,0.027896,-0.053975,-0.117090,0.022810,-0.047071,0.017779,0.108382,0.111200,0.066741,0.136679,0.011414,-0.155255,-0.033617,-0.009261,0.101126,0.071802,-0.005410,0.030342,0.043799,0.024722,0.004436,-0.043468,-0.117917,0.150022,0.033398,-0.001050,-0.051016,-0.035080,0.037081,0.110529,-0.005520,-0.027498,0.021807,0.115450,0.048952,-0.009457,-0.105953,-0.063979,0.041795,-0.189124,-0.187808,0.041919,0.000199,0.006448,0.036958,-0.070279,-0.125370,0.048391,0.108805,0.090849,-0.049636,-0.135646,0.051645,0.106847,0.047914,-0.001817,0.035351,-0.053711,-0.057922,0.043844,-0.068333,0.044705,-0.081174,-0.023762,0.162148,0.087329,0.041478,-0.004595,-0.073854,-0.044726,-0.026606,-0.165344,-0.023770,-0.078966,-0.086333,0.175674,-0.024959,-0.098874,0.193500,-0.035635,0.050100,-0.077008,0.173512,0.090301,-0.098322,0.022464,-0.056206,0.017839,0.049994,-0.085614,0.057201,-0.093507,0.134144,0.022939,-0.074266,-0.064443,0.064291,0.096914,-0.105825,0.011419,0.001064,0.094435,0.005390,0.034108,-0.062772,-0.064743,-0.053126,0.158970,-0.025511,0.011624,-0.023578,0.088298,0.059414,0.146102,-0.056017,0.028194,0.119884,-0.022370,0.049718,0.192589,0.015247,0.021298,-0.102044,-0.068079,0.067223,0.014464,-0.017084,-0.063728,-0.044567,-0.069189,-0.047165,-0.127040,0.123365,0.156602,0.131745,0.226453,-0.072040,-0.049407,-0.114173,0.124078,0.081892,-0.020481,0.021393,0.110257,0.072364,0.051447,0.193640,-0.029081,0.037562,-0.068506,0.059812,-0.063164,0.071566,0.059041,-0.044638,-0.030343,-0.118739,0.126700,0.155282,0.038871,0.026394,-0.154295,-0.184564,-0.140655,0.143429,-0.071091,0.105518,0.086580,0.153813,-0.007128,0.002409,0.034515,0.088957,0.002396,0.037525,0.004843,0.092020,-0.075200,0.136423,0.083166,0.006658,-0.129651,-0.024434,-0.087025,-0.152771,-0.071849,-0.231905,-0.091312,0.069769,0.070930,0.040553,0.043198,0.009554,-0.008494,-0.112716,0.076859,0.097825,0.075594,0.000065,-0.025794,0.026273,0.110066,-0.053166,0.126992,0.045047,-0.196792,0.108670,-0.020730,0.048423,0.111508,0.055450,0.037885,0.070133,-0.061569,-0.015618,0.082668,-0.016667,0.100953,0.058596,-0.037308,0.063549,0.026764,0.111018,0.033417,-0.016382,0.124104,-0.020782,0.103519,-0.003390,-0.051305,0.018121,0.032722,0.036339,-0.043564,0.023375,0.205015,-0.045803,0.136530,-0.086612,0.007638,0.017306,0.062837,-0.090891,-0.116502,-0.034530,-0.037218,-0.002192,0.054534,-0.154534,0.163843,0.025414,0.054942,0.098875,0.094002,0.139981,0.085214,-0.020336,0.058877,0.110942,-0.115975,0.006733,0.076799,-0.079110,-0.081732,-0.118021,-0.222120,-0.058034,0.091315,0.032498,-0.032615,0.088330,0.101793,-0.061429,0.035452,0.147201,0.143600,-0.140157,0.001512,0.000563,-0.115587,-0.049963,0.057199,0.001347,0.015227,0.012333,-0.184597,-0.144926,0.035464,0.012087,0.053930,0.041738,0.068127,0.005719,-0.077378,0.014005,-0.104783,-0.137163,0.127993,-0.066029,0.000825,0.040838,-0.137224,-0.004250,-0.004125,-0.004902,-0.078934,0.012922,0.070062,0.006983,-0.037550,-0.123414,0.112133,-0.115954,-0.027973,0.037729,0.147799,0.035615,0.012750,0.039587,0.105893,0.080291,-0.014472,0.006254,0.078100,0.058985,-0.109887,-0.016316,-0.084931,-0.156773,0.112877,0.009859,0.049834,0.017470,0.052318,0.028941,0.044022,-0.074085,-0.066017,-0.035541,0.080878,-0.059849,-0.068769,0.034009,-0.029282,0.065807,0.097247,0.155037,0.202654,-0.045661,0.026997,0.052115,-0.130513,0.020563,0.008070,-0.072160,-0.027931,0.041100,-0.048421,0.038301,0.130298,-0.092871,0.062715,0.071439,0.009754,-0.034666,-0.040314,-0.047294,0.048651,0.038788,-0.014933,-0.042192,0.153622,-0.058888,0.136038,-0.092499,-0.024399,-0.046292,-0.066698,-0.120875,0.162284,-0.043099,0.088104,-0.032991,0.015307,0.036266,0.079914,0.006911,0.056253,0.040750,0.017557,0.154310,0.179269,0.051897,0.006200,-0.066669,0.109652,0.059346,0.036588,0.010122,0.016740,0.022720,-0.053109,0.054054,-0.005553,-0.108927,0.090579,-0.001229,-0.023332,-0.080217,-0.105994,0.068116,0.120643,-0.110357,-0.049794,-0.169833,0.005736,0.071095,-0.098405,0.002750,-0.197728,-0.069755,0.063102,0.097173,0.062179,-0.058804,-0.052728,-0.020681,-0.091551,-0.014906,-0.086876,-0.194204,-0.134135,0.075814,-0.013861,-0.081094,0.082683,-0.000199,0.032496,-0.043867,-0.048853,-0.226987,-0.085396,0.068709,0.079688,-0.053267,-0.166115,-0.081416,-0.033617,-0.182161,0.018178,-0.023095,0.008394,0.073140,0.039467,-0.136254,-0.016532,-0.093272,0.028089,0.009334,-0.132247,0.092886,0.008867,0.086133,-0.024969,0.048522,-0.008640,0.037932,-0.114568,-0.123640,-0.062280,0.115987,-0.016935,0.021941,-0.074193,-0.165870,0.008144,0.038222,-0.042213,-0.011023,-0.039941,-0.021904,-0.049306,0.116175,0.054585,0.007066,-0.001818,0.061481,-0.100842,-0.037774,-0.000790,-0.005295,0.152713,0.008766,0.000211,0.029848,-0.091819,-0.044934,-0.001411,0.068606,-0.002018,-0.121863,-0.052559,-0.076107,-0.009384,0.014961,0.005298,-0.055291,0.087576,0.093387,-0.029944,0.035949,0.113852,0.064479,0.083074,-0.017171,0.066117,0.104576,0.043523,-0.032871,-0.067387,-0.082168,-0.154091,0.070355,-0.091686,-0.038566,-0.022864,-0.086565,-0.008168,-0.054738,0.052064,-0.064929,0.051458,-0.035863,0.156954,-0.055743,-0.080764,-0.003705,0.207775,-0.101776,0.009487,-0.180871,0.034133,-0.079079,0.104322,-0.000006,-0.120199,0.134107,0.002965,-0.022199,0.118934,-0.033987,-0.029146,0.136899,-0.028538,-0.007703,-0.067662,-0.101728,-0.066795
-0.076666,0.078611,0.045013,0.154621,0.041733,0.090045,-0.060115,0.077477,0.030080,0.099405,-0.019166,0.109703,0.043999,0.019111,-0.032351,-0.032909,-0.032169,0.093930,0.138682,0.071911,0.017232,0.083956,0.183856,-0.109765,0.126376,-0.084479,-0.087477,-0.083850,-0.111620,0.027971,0.048547,0.028687,0.035704,0.093817,0.237317,-0.023889,-0.124060,-0.083656,-0.020546,0.026060,-0.051752,0.071082,-0.062197,-0.095503,-0.063200,-0.004810,-0.010349,-0.148287,0.093093,-0.148857,0.047783,0.152622,0.006651,0.141233,-0.012456,-0.118497,0.017502,0.106220,0.046559,-0.073777,0.077429,0.086974,-0.012506,-0.147971,0.153959,0.090192,-0.174483,-0.168751,0.175582,-0.141854,-0.032162,0.134424,-0.081517,0.095084,-0.092109,0.113405,0.059182,-0.138045,0.101649,-0.009102,-0.053168,0.006574,-0.007438,0.000038,0.112043,0.014044,-0.089935,-0.060573,0.136724,0.046311,-0.135464,-0.011878,0.031709,-0.206044,-0.002331,0.082311,0.183517,-0.020891,0.081238,-0.076469,0.105169,0.002811,0.034738,-0.004779,0.021136,-0.006665,-0.126997,0.012023,0.128180,0.065127,0.052988,0.031382,0.045949,-0.151293,-0.031307,-0.101749,-0.051571,-0.058039,-0.105559,-0.044843,0.108276,-0.190404,0.006499,-0.092611,-0.138419,-0.110309,-0.019297,0.063866,-0.056751,0.153908,0.063689,0.005138,0.125520,0.042553,0.013419,-0.012979,-0.034351,0.099893,-0.115608,0.050611,0.003167,0.011439,-0.148300,-0.038638,-0.036336,0.046135,-0.013742,0.136548,0.041994,0.044761,-0.117540,-0.086607,-0.080999,0.051294,-0.005873,0.132186,-0.077685,0.078274,0.019409,0.059077,0.100335,0.119333,0.039739,-0.006447,-0.060893,-0.034878,0.013952,0.059140,0.177439,0.079165,-0.060695,-0.129875,-0.200316,0.061342,0.044562,0.036336,0.087422,-0.039747,-0.052332,0.003194,-0.111721,-0.179100,-0.010573,-0.158532,-0.169952,0.036999,-0.053825,0.011240,-0.110674,-0.240040,-0.069422,-0.053502,-0.007786,0.099823,-0.089670,-0.009872,0.090654,0.097487,-0.010728,0.019737,-0.000874,-0.099567,0.243433,-0.093109,0.128652,0.032171,-0.073269,0.119742,-0.022878,0.034598,0.140451,0.007187,-0.026236,-0.115943,-0.034706,0.063721,0.086330,-0.163814,0.109550,0.039418,-0.021769,0.053841,-0.024169,0.015738,-0.080554,0.045181,-0.016264,0.013339,0.051819,0.022277,-0.043740,-0.052410,0.034144,0.002757,-0.011525,-0.053624,0.081803,-0.048040,0.123109,-0.019576,-0.122098,0.172768,0.047278,0.099686,-0.137223,0.017306,0.186228,-0.067063,-0.011756,-0.122148,-0.065902,0.048615,-0.012082,-0.047151,0.004064,0.048177,0.074562,-0.071427,-0.011725,-0.003472,0.134717,0.023870,-0.154328,-0.071499,-0.080599,0.108514,0.007903,0.089704,0.036605,0.025803,0.045101,-0.030305,0.023834,0.012922,-0.046778,0.039317,0.041697,-0.051223,-0.068506,-0.103206,0.164922,0.014973,0.169328,0.054261,0.073444,-0.159469,0.032474,-0.014761,-0.065656,0.076588,-0.078947,0.010364,-0.020050,0.023682,0.059695,0.078428,0.111701,0.028670,0.061672,0.000308,0.167360,0.025845,0.036028,0.222751,0.051259,-0.017683,0.002235,-0.046202,-0.006393,-0.107466,0.036348,-0.104021,-0.054894,-0.055364,-0.024099,-0.028138,0.135275,0.056923,-0.043335,-0.058828,-0.106305,-0.007841,0.135804,0.069007,-0.095560,0.136717,-0.094869,-0.026336,-0.087473,-0.106203,-0.064957,0.019753,0.143176,-0.112444,0.110355,0.009451,0.019364,0.115872,-0.054659,-0.031989,0.093731,0.032408,0.206427,-0.061066,0.087016,0.061170,0.021114,0.076212,-0.059161,-0.021455,0.028640,0.040837,-0.021701,0.041813,0.008404,-0.121414,-0.049623,-0.149166,-0.028028,-0.061002,-0.056359,-0.013895,0.002553,-0.044422,-0.092372,-0.172779,-0.035781,-0.024368,-0.095712,-0.078924,0.098472,0.003835,0.041292,-0.112211,0.004908,-0.040060,-0.087752,0.181194,0.100431,-0.044241,0.036802,0.118032,0.195045,0.125426,0.063918,0.109677,-0.005476,-0.072718,-0.136242,-0.019501,-0.063830,-0.021369,0.035856,0.038924,0.025784,-0.060949,-0.068307,0.052309,0.134468,0.118614,-0.019712,-0.049084,-0.026355,-0.050718,0.014531,-0.056616,0.007324,0.036337,-0.085954,0.065228,-0.018014,0.039758,-0.185902,0.030484,-0.173303,-0.091271,-0.159132,0.014257,0.086377,0.119874,0.119038,-0.139766,-0.054900,-0.067486,0.070689,0.006151,-0.020489,-0.102861,0.057037,0.059300,-0.109328,0.210955,0.071632,0.077640,-0.097401,0.137624,-0.059787,0.039032,0.159931,0.110053,0.019374,0.000912,-0.006665,0.058779,-0.073889,0.008905,-0.099884,0.107668,-0.006437,-0.024361,-0.094579,-0.007511,-0.040087,0.123918,0.138154,0.033780,-0.085934,-0.057769,0.068992,0.131572,0.042593,0.106394,-0.029489,-0.026388,0.035822,0.044714,0.019528,-0.015112,0.094381,0.227312,-0.047952,0.024714,-0.045274,-0.044997,-0.062355,0.058959,-0.031604,-0.041923,-0.076396,0.044470,0.091411,0.076557,-0.144265,-0.022685,0.106903,-0.023237,0.164246,0.158343,-0.051176,0.007431,-0.098842,-0.084412,-0.061349,0.004274,0.009957,-0.052264,0.030431,-0.001252,-0.051241,-0.043624,0.007495,-0.024042,0.096196,0.006860,0.017187,-0.019263,0.046516,0.016854,0.039560,-0.074776,-0.132987,0.015685,-0.059857,0.026962,-0.039934,-0.012863,0.223639,0.057986,0.143494,0.078681,-0.036790,-0.015935,-0.037016,-0.021012,-0.047497,-0.115711,0.086402,0.069749,0.078210,-0.080154,0.121047,-0.032873,-0.064851,0.138015,-0.023939,-0.029066,0.011228,-0.061197,-0.152878,0.005437,0.013364,-0.019715,0.010114,-0.121152,0.078818,-0.018607,-0.026104,0.086147,0.095901,-0.021425,-0.054514,0.013532,-0.010419,-0.031412,-0.134540,-0.139296,-0.016869,0.037267,-0.111693,0.063053,-0.021837,0.159880,-0.033017,0.023384,-0.079576,0.089473,-0.156410,0.088129,0.047302,0.016180,0.113143,-0.097896,-0.058515,-0.090372,-0.163003,0.087117,-0.129942,0.095618,0.115349,0.091427,-0.036500,0.020746,-0.042211,0.047509,0.024851,0.116640,0.000393,0.025537,-0.010008,-0.017212,0.065414,0.042773,0.001077,-0.066816,0.161251,0.042374,-0.012884,-0.146400,0.053229,0.060103,0.052676,0.107415,0.079973,-0.074400,-0.051152,-0.038795,-0.093006,0.060143,-0.062542,-0.197630,0.068788,-0.030906,0.056415,-0.082574,-0.031680,0.017492,0.048109,-0.004840,0.036224,0.118348,-0.175836,-0.050891,-0.056834,-0.133423,0.124411,0.051578,0.054475,0.005555,0.038447,0.162903,-0.120208,-0.046244,-0.073723,0.195782,0.104456,0.018207,-0.082415,-0.133615,0.015043,0.114610,-0.001118,0.049555,0.122684,0.014900,-0.036993,0.088744,0.011711,-0.022386,0.003584,0.080248,0.001856,0.111645,0.051277,-0.052091,-0.023901,-0.011517,0.127622,0.036176,0.027308,-0.065583,-0.009941,0.083613,0.046639,0.043484,-0.001923,0.107373,-0.117300,0.067039,0.098900,-0.111553,-0.120909,-0.123584,-0.120333,-0.067249,0.008140,0.080411,0.020679,0.091322,-0.107834,-0.086993,0.093827,-0.101518,0.032817,-0.128725,0.036255,0.097962,0.080496,-0.132392,-0.163995,0.070432,0.029977,-0.080090,-0.081675,-0.079577,0.115426,-0.044420,0.018240,-0.024171,0.061957,0.205108,0.042972,-0.069415,0.006610,0.008072,-0.135305,0.039270,0.132463,-0.041241,0.021849,-0.032693,-0.015382,0.241434,0.157713,0.146812,-0.043464,-0.076083,0.067262,0.036959,-0.053661,0.051160,-0.009735,-0.058729,0.114168,0.075414,-0.038765,-0.006639,0.023373,0.084300,-0.070791,-0.044633,0.040888,0.001357,-0.164138,0.003470,-0.004911,0.041664,-0.129120,0.053638,0.057982,0.192096,0.269450,-0.102550,-0.004647,0.091304,-0.155925,0.104299,-0.021888,0.040334,-0.042537,0.002735,-0.167764,-0.102702,0.029759,0.121622,0.113717,-0.016123,-0.000898,-0.057076,0.009440,0.165100,0.010346,0.045137,-0.006915,0.130133,-0.020621,0.025362,-0.115692,0.108289,-0.035080,-0.072660,0.072481,0.079743,0.108330,-0.065577,-0.102111,0.143663,-0.021787,-0.147363,0.129574,0.074268,-0.010599,-0.148692,0.017896,0.062977,-0.040682,-0.032536,-0.037697,0.048064,0.022252,0.022183,-0.166041,0.032018,0.001685,-0.073088,-0.023008,-0.020619,-0.099429,-0.064202,0.033596,0.025699,-0.017562,0.001996,-0.134061,0.096204,-0.076711,-0.070107,0.058698,0.000167,0.030281,-0.024029,0.017777,0.047575,0.068036,-0.004245,0.108658,0.065935,0.034354,-0.154706,0.070912,-0.019035,-0.093125,0.096300,0.000908,-0.209001,0.133426,-0.080637,0.079410,-0.152077,-0.137275,-0.078647,0.050181,-0.038731,-0.011896,-0.050680,-0.126717,-0.118438,-0.157852,-0.160440,-0.013191,-0.078649,-0.027266,-0.267912,-0.056137,0.060887,-0.201775,0.083294,-0.104831,-0.006146,0.031951,-0.046379,0.009708,0.052210,-0.041429,-0.045946,0.065521,0.098467,0.136562,-0.054036,0.150220,-0.073186,0.023115,-0.060419,-0.051870,0.034152,0.011845,-0.024619,-0.008948,-0.057580,0.113601,0.246724,0.000948,0.102421,-0.016465,-0.168338,0.034149,0.074637,-0.017228,0.024956,0.106810,-0.000969,0.029069,-0.147328,-0.113734,0.000253,-0.182985,-0.014852,-0.053747,-0.108140,-0.075735,0.071968,0.007083,-0.067648,-0.159099,-0.063034,-0.041776,-0.087551,-0.038272,-0.087734,-0.077445,-0.001923,-0.052749,-0.041341,0.127395,-0.170926,-0.056904,0.002826,0.024136,0.003171,-0.012605,-0.046557,-0.023115,0.106372,-0.084847,0.077395,-0.092808,0.044394,-0.052135,-0.108439,0.038448,0.058804,-0.154485,0.002283,0.008783,-0.023016,0.151717,-0.044060,0.065308,-0.009024,-0.004347,-0.012863,0.046037,-0.022441,-0.024677,0.101350,0.036836,0.182316,0.120404,0.129307,-0.013534,-0.198769,0.089837,-0.024984,-0.015101,-0.066887,-0.145318,-0.018574,-0.111985,0.027941,0.032022,-0.195344,0.130308,-0.029620,-0.022372,0.047008,0.013735,0.084736,-0.120194,-0.138100,0.132043,-0.055040,0.077525,0.000100,0.040483,-0.037636,-0.157098,0.212903,-0.152643,-0.032589,0.079549,-0.034953,0.107343,-0.110496,-0.017527,0.143321,0.023128,-0.145956,0.111835,0.021627,0.010143,0.021728,-0.172883,-0.008911,0.015047,-0.160082,0.118677,0.147904,-0.069462,0.127066,-0.114137,0.087963,-0.011960,0.127130,0.037214,-0.091201,0.106197,-0.040629,-0.040526,-0.105739,0.000548,-0.097525,-0.122657,-0.094719,0.049245,-0.019275,-0.115553,-0.117985,-0.033657,0.021418,-0.012146,0.016453,-0.124794,-0.130174,-0.034505,-0.020280,-0.040018,-0.022124,0.056180,0.097475,0.007127,-0.079305,0.021793,-0.104819,0.024247,-0.034583
0.033472,-0.032197,-0.027404,0.034521,0.145354,0.112789,0.022855,0.038821,0.000956,-0.150571,0.029744,0.086481,-0.044388,-0.075705,0.019463,0.048198,-0.006593,0.043379,-0.021651,-0.017508,-0.133959,0.008498,0.071598,0.009847,-0.026128,0.037715,0.001810,0.048527,-0.090268,0.087321,0.017271,0.075000,0.019199,0.096259,-0.065492,0.083302,0.113372,0.089101,-0.047055,0.003852,0.052668,-0.038065,0.120065,-0.038346,0.129032,0.047821,0.098333,0.062138,-0.019195,-0.011226,0.149777,0.109664,-0.025350,0.005725,-0.039491,0.001551,-0.105829,-0.048142,-0.103690,0.095084,-0.070892,0.007427,0.000788,0.074100,-0.011583,-0.014920,-0.047486,-0.027456,0.050760,-0.028997,-0.096334,-0.011915,0.058126,-0.020473,0.002787,-0.092461,-0.038958,0.014089,-0.035423,-0.039074,-0.102410,0.010962,0.143897,-0.089047,0.084695,0.019336,-0.041593,-0.090065,0.061389,-0.148636,-0.095717,0.064325,0.065330,0.010131,0.061280,0.003603,0.152449,0.082228,0.019313,-0.054684,-0.043008,-0.100314,0.007250,0.090497,0.034879,0.035665,0.027130,-0.051171,-0.190120,-0.099583,-0.113670,-0.105618,-0.131039,-0.074301,-0.027712,-0.011210,-0.126984,0.047024,0.051956,-0.004488,-0.112872,-0.115524,0.106286,0.061723,-0.049787,0.075422,0.049646,-0.027829,-0.086996,-0.034706,-0.059408,0.054173,-0.057820,0.023744,0.065091,0.040316,-0.064964,0.037875,0.190350,-0.069418,0.026920,0.020894,0.183765,0.060722,-0.004979,0.078037,-0.076852,-0.103137,0.025542,0.029884,-0.026827,-0.026356,-0.104184,-0.082926,-0.152762,0.009170,0.069076,0.115060,0.041048,0.030273,0.029643,0.059092,-0.116017,-0.037878,0.161995,0.044756,-0.005118,0.098442,-0.055875,-0.046153,0.050375,0.034687,0.035543,-0.010527,-0.108204,0.037936,0.001413,0.076908,-0.184825,-0.095590,0.096698,-0.037458,0.014918,-0.104514,0.059057,0.037925,0.014634,0.059914,-0.125630,0.025660,-0.046867,0.027757,0.239331,-0.158176,-0.062330,-0.206240,0.017010,-0.059802,0.119373,-0.051773,-0.159172,0.055496,0.000651,-0.060003,0.010190,0.029356,0.102618,-0.010227,0.010738,0.147007,-0.169414,-0.108713,-0.108758,-0.018115,-0.030994,-0.102180,0.090370,0.008850,0.120068,0.083352,-0.130669,-0.103915,0.128448,-0.102984,0.047038,-0.060880,-0.082237,-0.133624,0.043144,-0.091272,0.174432,0.072961,-0.109480,-0.064076,0.123987,0.041261,0.047539,0.096766,0.090927,0.038856,-0.149342,-0.122347,-0.048242,0.068767,0.062310,0.056996,0.079194,0.077865,-0.133944,-0.001310,-0.138616,-0.092379,-0.028132,0.044589,-0.051712,0.079434,-0.005445,0.030732,0.037091,0.052797,-0.009080,-0.020496,0.064307,-0.055672,-0.008614,0.012608,-0.073653,-0.052197,0.027253,0.066776,-0.053779,-0.273899,-0.128890,-0.264499,-0.025786,-0.071439,0.146809,-0.061522,0.003568,0.177759,0.174598,-0.057922,0.042599,-0.163920,0.068030,-0.052237,-0.110043,0.009820,0.071917,-0.042391,-0.180180,0.050102,-0.100285,-0.053485,-0.072208,0.140619,0.016652,-0.050031,-0.129107,-0.252249,-0.080322,0.012734,-0.176920,0.050485,0.118442,0.139709,-0.050120,0.016452,-0.086962,-0.171153,-0.104617,-0.017631,-0.067224,0.033371,-0.010406,-0.140067,-0.059839,-0.008103,-0.018703,-0.055746,0.082195,-0.044434,0.101186,-0.045146,-0.091880,-0.022627,0.033984,0.140772,0.094385,0.015867,0.004933,-0.052952,-0.019961,-0.006776,0.058789,-0.090821,0.143777,0.128536,0.061792,0.097619,0.009430,0.124255,-0.097668,0.132317,-0.071810,0.158977,0.064098,-0.141183,-0.031736,-0.015953,0.184454,0.068098,0.055212,-0.177428,0.032550,0.132930,0.031171,-0.165614,-0.097188,-0.163831,-0.002467,-0.125479,-0.016417,0.122660,-0.001238,0.009083,0.037483,-0.039500,0.101081,0.001366,-0.048326,-0.082662,0.044394,-0.023073,-0.096807,0.022115,-0.133249,0.055803,-0.073109,0.016703,-0.136296,0.085571,0.018570,0.006509,-0.050134,0.077764,0.048088,0.118776,-0.007251,-0.127279,0.009427,0.282551,-0.043439,0.124401,-0.025825,-0.077034,-0.044711,-0.094930,-0.019029,-0.052870,-0.080904,-0.103762,0.041860,-0.017290,-0.018969,0.117377,0.030037,0.076027,-0.079848,0.030177,0.072668,-0.074013,0.149928,-0.078091,-0.016775,-0.114814,0.113394,0.028094,0.072143,-0.012351,0.070570,0.087963,-0.037515,0.131853,-0.077884,-0.084724,-0.066218,-0.095564,0.005010,-0.030489,0.070945,0.039788,-0.086075,-0.070620,0.010390,-0.165759,0.058133,0.020911,0.037944,0.053961,0.009878,-0.153640,0.076738,0.096591,-0.090139,0.127453,-0.020503,-0.093558,0.042048,0.034273,0.008549,0.056919,0.078360,0.058916,-0.044106,-0.069161,0.043904,-0.163328,-0.072635,-0.057889,-0.153546,-0.031182,0.103548,0.068604,-0.022358,0.056094,0.050422,0.016250,-0.044587,0.014221,0.106788,-0.035155,-0.064006,-0.084907,-0.102628,0.103713,0.083016,-0.050569,-0.038964,0.072708,-0.139444,0.164511,0.093244,0.097274,0.104708,0.014052,0.103626,0.120331,-0.148147,-0.052973,-0.118024,-0.006588,0.102495,-0.001878,-0.009993,0.065222,0.067174,0.104275,0.050583,-0.002094,-0.122080,0.066108,-0.062507,0.040801,-0.076430,-0.031626,0.048550,0.011545,-0.055851,-0.032703,-0.012464,-0.085134,-0.015864,0.100849,-0.071544,0.091283,-0.050034,-0.041428,0.030020,-0.099637,0.021643,0.027529,-0.079931,-0.033443,-0.211447,-0.030164,0.065286,-0.047861,0.004924,-0.089110,-0.168208,-0.008859,-0.009241,0.149856,0.009470,0.010359,0.051221,0.071348,0.037655,0.073459,0.098826,0.060618,-0.028936,0.109902,0.043719,0.033402,-0.155222,-0.030787,0.063066,-0.227250,0.069543,-0.077393,-0.040517,0.003363,0.113948,0.068151,0.028983,0.049969,-0.045511,0.033153,-0.037179,0.084883,0.137367,0.097200,0.114456,-0.098166,0.222943,-0.133091,0.009687,0.045820,-0.087297,0.019784,0.069394,-0.090219,0.024221,0.029040,0.132562,0.168849,-0.062662,0.014756,0.069131,-0.007846,-0.021296,-0.129451,-0.051650,0.084702,0.037125,0.047835,-0.028078,-0.022115,-0.017561,-0.063972,-0.095523,-0.007022,-0.151904,0.036562,-0.003966,0.044611,0.004061,-0.078095,0.242629,0.106045,-0.042331,0.023448,-0.066701,0.125394,0.056478,0.082905,-0.120321,-0.091759,-0.024852,0.102776,0.032014,0.042119,0.061195,-0.022075,-0.090113,-0.006067,-0.014156,-0.092998,0.107766,-0.015965,0.064153,-0.071139,0.072576,0.011423,-0.062617,0.008914,0.066963,-0.057928,-0.222863,-0.032444,0.091814,-0.006671,-0.062709,0.000719,-0.054159,-0.018551,0.110113,-0.068790,-0.037145,-0.037906,-0.011719,-0.036683,0.147929,0.027511,0.138033,0.018502,-0.050218,0.069607,0.011992,-0.018007,0.033293,-0.077372,0.046086,-0.050535,-0.064503,0.144460,0.118854,-0.081110,0.000377,-0.004896,-0.016515,-0.121439,-0.157645,0.062148,0.016895,-0.024559,0.082362,-0.098948,-0.075849,0.008786,-0.073753,-0.054613,-0.134500,0.051121,0.222298,-0.026035,0.007651,0.167435,-0.063581,-0.042273,-0.011622,-0.012060,-0.023701,0.036409,0.045477,-0.064029,-0.060574,-0.121995,0.142072,-0.103140,-0.061024,-0.110339,-0.133661,-0.069059,-0.060359,0.010604,-0.020861,-0.116027,-0.059214,-0.020905,0.111371,-0.133454,0.015797,-0.028422,-0.033424,-0.173572,0.011440,0.025775,0.022175,0.004696,-0.014062,0.027838,0.084319,0.093885,0.025443,0.097967,-0.124190,0.124094,-0.010336,0.107819,-0.018821,0.214387,0.015279,0.019695,-0.054178,-0.146584,-0.039838,-0.181420,-0.104483,-0.031625,0.085214,-0.105436,-0.025137,-0.121107,-0.019305,0.015152,-0.092982,0.049839,0.014781,-0.165988,-0.046263,-0.035010,0.169554,0.064849,-0.000278,0.135979,0.202218,-0.064314,0.019886,-0.000306,0.194012,0.135885,0.008937,0.028698,-0.066552,-0.099253,-0.087206,0.011638,-0.011239,0.014346,-0.079710,-0.056189,0.003987,0.047457,0.001456,0.039507,0.062870,-0.077246,-0.118759,0.073604,0.139556,-0.020726,-0.015756,0.044430,-0.015728,-0.088133,0.012420,-0.059618,-0.017360,-0.116618,-0.026621,-0.155351,0.095382,-0.106163,0.009172,0.094962,-0.064850,-0.032492,-0.061874,0.010989,-0.072328,0.244983,-0.009904,0.070741,0.203241,-0.016001,0.060527,0.146598,-0.072030,-0.014960,0.048396,-0.019209,-0.161982,-0.009718,0.073548,-0.084489,0.025062,-0.010093,0.086881,0.003317,-0.025208,0.040042,-0.058210,-0.066653,-0.102761,-0.029658,0.042426,0.170971,0.136994,0.073481,0.065299,-0.111675,0.147700,-0.085159,0.190941,-0.031657,-0.032624,-0.104862,-0.007862,0.028742,-0.008874,0.020460,-0.047071,0.012466,0.193193,-0.027235,0.177480,-0.070592,0.075704,-0.020367,-0.010993,-0.050714,0.083381,-0.022778,0.132762,0.147041,-0.022905,-0.012286,0.069172,0.095958,-0.158507,0.041931,-0.037238,0.005526,0.039988,-0.040465,0.144589,0.090426,0.058240,-0.071157,0.119573,0.025823,0.078122,0.032527,0.102185,-0.041359,0.000030,-0.036179,0.136526,0.036591,0.053981,0.010340,-0.050945,-0.012418,0.193218,-0.035939,-0.193345,-0.011670,-0.039826,0.162647,-0.009872,-0.006870,-0.019175,-0.081638,0.045971,0.010378,0.057129,-0.130764,-0.145575,0.070145,0.084305,0.104990,0.073208,0.074578,0.149839,0.013111,0.041154,-0.096433,0.146560,0.013379,-0.021831,0.067527,0.138784,-0.055627,-0.012927,0.154330,-0.020585,0.199113,0.022181,-0.089741,0.013438,0.115447,0.068536,0.058614,0.241712,-0.049672,0.018463,-0.107213,0.025319,-0.103360,-0.027623,-0.006623,-0.005508,-0.102425,-0.069606,-0.058279,-0.054446,-0.058298,-0.044819,-0.007085,0.019742,-0.033559,0.072764,0.027201,-0.034882,0.064623,0.127658,-0.051733,0.017000,0.020514,0.015448,-0.011536,-0.056970,0.054253,-0.156717,-0.065685,-0.139141,0.159362,0.092656,-0.058108,-0.062537,-0.033540,0.021963,-0.065537,0.080952,-0.098575,0.027092,-0.006561,-0.033421,-0.026635,-0.014680,0.025455,0.053885,0.023063,-0.010603,0.073454,-0.072217,0.058174,0.003209,-0.017749,-0.126170,0.107956,0.035778,0.161710,0.005770,0.146401,0.015701,0.030320,-0.090737,0.134457,-0.056757,0.082422,0.006082,-0.011391,0.049083,-0.018927,-0.016827,0.027468,-0.091144,0.015972,0.009092,0.083113,-0.054598,-0.004116,0.175688,-0.120346,0.014847,-0.074897,-0.077307,0.066930,0.080588,0.097449,-0.061406,-0.080801,-0.043654,0.239131,-0.049183,-0.115747,0.055119,0.014815,-0.174063,0.059420,0.011805,0.193219,-0.055241,-0.023870,-0.020433,0.075538,0.093890,0.026850,0.045467,0.050318
0.128434,0.191193,-0.086428,0.000522,0.080133,-0.066053,-0.078653,0.057200,0.109031,0.039073,0.125394,0.010253,0.050946,-0.071927,-0.012446,-0.005060,-0.121079,-0.135776,-0.159644,-0.027599,-0.000206,0.028669,-0.099901,0.095628,-0.035442,0.041495,-0.004388,0.031903,0.021865,-0.041871,-0.147825,-0.118686,-0.035661,0.017641,0.054100,0.173163,0.017349,0.059947,0.037361,0.021615,-0.099870,-0.004262,0.182381,0.233816,-0.091802,0.001066,-0.056860,0.053966,-0.062380,-0.092089,-0.120731,-0.029146,0.001511,0.010960,-0.108124,0.023006,-0.075167,0.119488,-0.082965,0.001892,0.039375,0.007721,-0.080050,-0.037225,0.133214,-0.080407,0.161934,0.141456,0.020806,0.076329,0.105896,-0.051762,0.016950,0.019050,0.019762,0.057788,0.057450,-0.015238,-0.116247,-0.020024,-0.003593,0.080143,-0.056256,0.109543,0.133418,-0.175224,-0.116195,-0.122551,-0.055316,0.001048,-0.016964,0.083680,0.005956,0.073043,0.049386,0.024747,0.070639,0.092621,-0.032404,-0.088992,0.185954,0.044767,0.052529,0.048932,-0.000331,0.095529,0.079268,-0.071702,0.053805,0.034460,-0.040971,-0.045005,0.026312,-0.051544,-0.088884,-0.186764,0.063268,0.142462,0.123198,0.013747,-0.035889,0.070870,0.011650,-0.013456,-0.065134,0.108509,-0.062517,0.023330,0.006687,-0.139209,0.016109,0.008562,-0.124197,-0.077083,-0.013676,-0.013684,-0.107595,0.119800,0.127913,-0.016921,0.005698,-0.045888,-0.011724,-0.133653,-0.117000,0.075503,0.100962,-0.030286,-0.075465,-0.046291,0.044950,0.007780,-0.076373,-0.103448,0.060678,-0.016012,-0.135656,-0.023601,0.144948,0.061924,-0.091907,-0.097871,0.094557,-0.082570,-0.166030,-0.090982,0.001381,0.001530,-0.033405,0.074451,0.008540,-0.019113,-0.085202,-0.086610,-0.041121,-0.066137,0.100608,-0.047916,-0.019552,0.131398,-0.057783,0.003167,-0.000033,-0.141213,0.057937,-0.008727,-0.143550,0.072712,-0.081484,-0.068900,0.070518,-0.030098,-0.027880,-0.103487,0.119857,0.092652,0.182897,0.029577,0.110245,0.007948,-0.006800,0.013197,-0.228286,-0.058966,0.021143,-0.096517,-0.122967,0.061445,0.081766,0.079952,0.149968,-0.024369,0.052162,0.097522,0.022601,0.027527,-0.039874,0.013069,0.023792,-0.044478,-0.096264,0.085562,0.071116,0.025113,0.075921,0.019077,0.032574,-0.003628,-0.126160,-0.160170,0.090602,-0.128775,0.114414,0.047252,-0.035236,0.055622,0.053297,-0.059923,-0.062881,0.052386,0.129162,0.068670,0.026474,0.091276,0.153890,0.140417,0.011150,0.153620,0.023424,0.026776,-0.027697,0.052699,-0.004496,-0.032512,-0.096024,-0.109288,0.025589,0.144780,0.140353,0.058802,0.045019,0.095934,0.001356,0.163555,-0.006118,0.140634,0.059812,-0.002581,-0.070870,0.065138,0.081744,0.172786,0.117540,-0.048087,0.132769,-0.131787,-0.001980,0.014175,-0.058912,-0.040300,0.013324,0.055182,-0.127666,-0.118802,0.016253,0.058681,-0.058225,0.043646,-0.040121,-0.072920,-0.024751,0.118032,0.150288,0.015217,0.002295,-0.020643,-0.087839,0.057244,-0.037642,-0.012406,-0.024599,-0.129230,-0.136871,-0.028585,0.061790,-0.028902,0.036587,-0.074063,-0.163915,-0.005277,0.056647,-0.122749,-0.030189,-0.079864,0.068047,0.011858,0.112515,0.233262,0.074963,-0.108528,0.098485,-0.028674,0.001119,0.058653,-0.030668,-0.017852,-0.152894,-0.038761,0.105183,0.070279,0.047528,0.003223,-0.032554,0.075294,0.059458,0.090830,0.032776,0.050091,0.146933,-0.145318,0.053798,0.088548,-0.156261,-0.058992,0.122053,0.099156,-0.085077,0.000115,0.020376,0.143718,0.025354,0.078109,-0.026621,-0.025459,-0.144162,-0.023703,0.036197,-0.010336,-0.220396,0.026304,-0.087743,0.009025,0.060661,-0.170197,0.094428,-0.003899,-0.034800,-0.080550,0.152544,-0.041715,0.224104,-0.000577,0.101757,0.080952,0.022757,-0.013915,-0.012897,-0.024252,0.046911,0.024423,0.080284,0.039126,0.066794,-0.109507,0.087961,-0.006696,-0.037628,0.025035,0.043576,0.010462,-0.131436,-0.003429,0.012244,0.091761,-0.080391,0.044712,-0.008192,-0.056811,0.024679,-0.002696,-0.001218,0.190061,0.040315,-0.096565,0.000554,0.042568,0.132129,-0.193617,0.162749,0.100078,-0.021675,0.171133,-0.027442,0.070539,-0.009437,-0.042166,-0.080541,0.085500,-0.010080,0.068763,-0.042344,-0.099514,0.065014,0.007989,0.074546,-0.254548,0.105206,-0.021915,-0.004507,-0.007873,0.061100,-0.012244,-0.012529,0.148019,-0.104446,0.070848,-0.108381,0.206128,-0.010036,-0.102132,-0.038390,0.017475,-0.024350,-0.240408,0.007668,-0.169707,0.063352,-0.047236,-0.204260,0.107721,0.081788,0.057103,0.046659,0.040365,-0.105605,-0.015510,-0.023365,0.085482,-0.036573,-0.022987,0.112970,-0.118268,0.105990,0.167101,-0.030272,0.036350,-0.100695,-0.163251,0.006431,0.065215,-0.008556,0.025673,-0.093405,0.050832,0.058509,-0.204082,-0.019456,-0.033313,0.036849,-0.048355,-0.001979,0.133918,0.067893,-0.068855,0.083527,-0.066835,-0.055364,0.044461,0.029028,-0.074461,0.089943,-0.199862,0.076746,-0.001507,-0.068770,-0.031016,-0.147783,-0.069714,0.015602,0.070071,-0.101437,-0.039399,-0.058957,0.224815,-0.077353,0.053761,0.009839,0.102173,0.134489,0.076026,-0.074803,-0.151443,0.035808,0.095214,-0.006631,0.053017,-0.014046,0.036436,-0.106677,-0.038026,0.071875,-0.112278,-0.043468,-0.069694,-0.045245,0.006818,-0.208595,0.024245,0.138984,0.029091,0.027319,-0.080802,0.078037,0.027675,-0.115837,-0.124601,0.032402,0.011616,-0.062600,0.028767,0.006123,-0.082977,0.071759,0.049005,0.032454,-0.116218,0.021408,-0.161714,-0.064938,0.104703,0.020282,0.009953,-0.027311,0.031442,0.083983,0.017020,0.078946,-0.023581,-0.076011,-0.002873,0.053426,-0.006727,-0.028807,-0.207229,0.013165,-0.005002,0.018140,0.037271,0.128397,-0.199703,0.019355,0.131154,-0.066535,0.032140,-0.034599,-0.062854,-0.001982,-0.123699,0.022207,-0.096218,-0.086186,-0.018164,0.049965,-0.009140,0.051787,0.038679,-0.032996,-0.178034,-0.072381,-0.111291,-0.052411,0.133863,-0.096773,0.048368,0.111819,-0.149984,-0.030276,-0.046179,-0.193497,0.053807,-0.019510,0.091991,0.021081,0.013646,0.048938,-0.056835,-0.110732,0.020996,-0.040408,0.031867,-0.082977,-0.027823,0.210445,0.013229,-0.133531,0.030439,0.004358,0.033496,-0.000646,0.061227,0.062050,-0.000904,-0.059777,0.211259,0.044812,0.081072,-0.039322,0.058527,-0.055776,0.131659,0.109529,-0.038722,0.018650,-0.061535,-0.001332,0.320678,-0.181181,0.004499,0.060222,-0.036479,-0.080686,0.116739,-0.045172,-0.052560,-0.128300,0.057374,0.001485,0.077859,0.160116,-0.045285,0.144050,-0.031166,-0.056220,-0.036585,0.045028,-0.071863,-0.060449,-0.097768,-0.031477,-0.134834,0.001407,0.021738,0.007436,-0.016472,-0.119429,-0.179230,0.034434,-0.126285,0.150549,0.011482,-0.003153,-0.128324,0.039881,0.073394,0.050052,-0.090225,-0.224788,0.137350,-0.057793,-0.051805,0.033508,0.014215,-0.047284,0.182208,-0.074626,-0.173748,0.210393,0.058121,-0.034636,-0.055258,0.017491,0.000597,0.046823,0.028363,-0.014919,-0.191666,-0.024961,0.101994,0.037800,-0.157802,0.033295,-0.038538,0.080195,-0.108182,0.083916,-0.022771,-0.096983,0.082594,-0.113682,-0.065421,-0.069764,0.079648,0.133757,-0.031201,-0.000296,-0.015167,0.004319,-0.192084,0.010359,0.005764,-0.023843,-0.078869,-0.077862,0.102695,-0.032175,0.161528,-0.043113,0.009492,-0.017514,0.107703,0.027444,-0.164975,0.042619,0.126944,0.076732,0.162753,-0.030152,0.012498,0.003091,0.109049,-0.080226,0.046840,-0.007641,0.099198,0.075414,0.111055,-0.004695,0.016414,0.082351,-0.005637,-0.054968,0.004752,0.115934,0.038776,-0.115911,0.081918,-0.047045,0.177309,0.162232,0.057115,-0.107249,-0.144564,-0.087653,0.075459,-0.037024,-0.136876,0.042051,-0.034014,0.027505,0.022259,0.148206,-0.020681,0.090184,0.099131,0.053006,0.062202,-0.058076,-0.043807,-0.066175,-0.036065,0.053196,-0.100632,-0.120688,0.098637,-0.122404,0.024425,-0.008018,-0.040320,0.009918,-0.097395,0.030665,0.026957,0.024587,-0.039882,-0.022767,0.064022,-0.003244,0.048232,-0.093649,-0.120530,-0.017508,-0.063056,0.060420,-0.176811,-0.023213,-0.038500,-0.041047,0.100334,-0.183095,-0.019711,0.060990,-0.061553,-0.026010,-0.053049,-0.092493,0.041524,-0.040704,-0.026858,0.028221,0.075340,0.099260,-0.112606,0.032799,0.136693,0.128345,-0.098582,-0.024141,-0.038137,-0.016010,-0.007239,-0.162038,0.029425,-0.004761,0.166349,-0.056728,0.150735,-0.005367,0.004198,-0.004549,0.109801,-0.129820,0.084266,-0.047233,-0.044441,-0.063592,-0.209252,-0.096785,-0.001710,0.083379,-0.052361,-0.031859,-0.097752,0.132108,-0.030533,0.015218,0.223657,-0.028914,0.181585,-0.332234,-0.028950,0.089414,0.125309,-0.097637,-0.067174,0.046645,0.005951,0.114519,-0.094377,-0.000197,0.013062,-0.049913,0.054329,-0.028453,-0.001143,-0.062132,-0.021919,0.001304,0.074370,0.113276,0.015918,0.070749,0.007749,-0.063225,0.035731,-0.014585,0.029885,-0.049375,-0.102643,-0.012939,0.043867,-0.025744,0.007162,0.000969,-0.030309,0.014013,0.055324,-0.058320,0.102128,0.002813,-0.102281,-0.044861,-0.114712,-0.037530,0.251433,0.036371,0.009005,-0.065689,-0.185206,0.000568,-0.068895,-0.096121,0.085666,-0.102379,-0.028585,0.025022,-0.074060,-0.094010,-0.068077,0.005319,-0.031775,-0.022893,0.004795,-0.111360,0.104470,-0.080146,-0.011316,0.018894,-0.019306,-0.004120,-0.001690,-0.068858,0.065402,-0.201484,-0.109343,-0.061129,-0.178161,-0.078295,0.169894,0.016850,-0.145708,0.006764,-0.023439,-0.008449,0.108511,-0.079528,0.058963,0.059348,-0.041165,-0.136218,0.109222,0.034856,0.002418,-0.136732,0.097034,0.064840,-0.082208,0.004118,0.092151,0.017435,0.060053,-0.042718,-0.074890,-0.054226,-0.011354,-0.063913,-0.011300,0.045533,-0.054097,0.037756,0.008699,-0.006723,-0.081062,-0.087779,-0.100976,0.070558,-0.065619,-0.082379,0.036469,0.115722,0.013223,0.008688,-0.206995,-0.148363,0.073491,-0.047117,-0.048195,-0.179296,0.119636,0.036905,0.033437,0.214116,0.024850,0.019333,-0.024863,0.090086,-0.125995,-0.126305,-0.008842,-0.052947,0.131242,-0.033219,-0.083724,-0.093755,0.068745,-0.049503,0.056576,0.150870,0.057658,-0.088132,-0.009250,-0.075305,0.139136,-0.017280,0.101059,0.088185,0.046253,0.059196,-0.199740,-0.148356,0.149956,0.032757,0.151334,-0.055680,0.100015
-0.195223,0.080449,-0.031503,-0.070038,0.005712,0.040512,0.040885,-0.030881,-0.040615,-0.110411,0.111761,-0.032518,-0.004451,0.068799,-0.033991,-0.030573,0.135698,-0.072175,0.097810,0.023411,0.108808,-0.055368,0.147609,-0.055848,0.009073,-0.012715,0.042426,0.034803,0.032939,-0.060444,0.066635,0.144635,-0.026866,-0.086322,0.015694,0.093992,0.150604,-0.001286,-0.003964,-0.078267,0.057608,-0.185500,-0.027714,-0.112537,-0.040564,-0.023173,0.046299,0.058648,-0.054541,0.071269,0.134186,-0.126688,-0.093519,-0.045859,-0.120937,-0.056798,-0.020798,0.133852,0.014313,-0.088503,-0.072835,0.007236,-0.083589,0.025983,0.079297,0.044994,0.029622,-0.034411,-0.133095,-0.015746,0.119681,0.004785,0.055495,-0.040193,-0.009791,0.109392,0.004962,0.107421,0.045078,-0.007984,0.034095,0.189219,0.027369,0.177446,-0.045808,-0.010625,0.043160,-0.011045,-0.006111,-0.038060,-0.046318,-0.077824,0.135926,0.173893,0.057489,0.010119,-0.055697,0.030825,-0.047537,0.081940,-0.083357,-0.004172,-0.031738,0.037064,0.048589,0.010520,-0.004583,-0.048686,-0.153461,0.163742,-0.017874,0.150019,-0.011301,0.099733,-0.004766,0.082756,0.066357,-0.069095,-0.120060,-0.048984,-0.231681,-0.070604,0.082346,-0.026542,0.068330,-0.032673,-0.078825,-0.105052,-0.045051,-0.037405,0.085526,-0.087601,-0.052728,0.120127,0.059454,0.183572,-0.071692,-0.006263,-0.066777,-0.105127,-0.100791,-0.069936,0.032855,0.068668,-0.029054,-0.012498,-0.109106,-0.019751,-0.090088,0.055393,-0.029248,0.198310,-0.148247,-0.039132,-0.129831,-0.153676,-0.052406,-0.127875,0.140633,-0.085744,0.105920,0.146740,-0.199342,-0.091084,0.133280,0.106855,0.172812,0.093525,0.019664,0.106200,0.144403,-0.102285,0.004544,-0.058497,0.046319,0.082949,0.066000,0.003409,0.037729,-0.058267,0.108644,-0.029761,0.015019,-0.106196,0.210304,-0.021386,-0.055514,-0.011246,0.079673,0.078377,0.069316,0.170831,-0.008143,0.009046,0.049917,-0.073018,0.085799,0.012501,-0.099719,0.220201,0.026664,0.010409,0.100726,-0.029241,-0.039081,-0.127176,0.012898,0.140010,0.054188,-0.042253,0.162620,-0.168809,0.006096,0.115846,0.116591,0.006908,-0.010375,0.021370,-0.068213,0.050973,0.108444,0.100442,-0.035017,0.051680,-0.039664,-0.038104,-0.052580,-0.037757,-0.004537,-0.065584,0.029774,-0.049744,0.039968,-0.077506,0.024385,-0.009971,0.040011,0.068989,-0.029613,0.021275,0.016680,0.036435,-0.034280,-0.055645,0.137011,0.110289,0.067887,-0.007148,-0.030093,0.130921,0.018637,-0.052454,-0.071053,-0.036550,-0.072471,0.019663,0.053992,-0.016673,-0.039072,-0.030499,0.092661,-0.082491,0.087338,-0.154358,-0.234562,-0.032467,0.023400,0.030820,-0.058953,-0.052687,-0.000792,0.016592,-0.015239,0.054521,0.237235,-0.046264,0.038113,0.071056,-0.087078,0.072304,-0.104767,0.155274,0.065033,0.073053,-0.068538,0.192089,-0.107562,-0.224305,0.166865,-0.016684,0.010999,-0.059162,0.020768,0.070646,-0.011285,-0.072694,0.038658,-0.086984,-0.023225,-0.036111,0.065776,-0.120594,-0.271078,0.105922,0.141287,-0.042699,-0.110877,0.053881,0.078127,0.093000,0.040823,-0.086155,-0.018706,-0.037761,0.075476,-0.032491,0.068077,0.070525,-0.012417,-0.019035,0.104646,-0.091470,-0.029236,-0.164012,-0.141839,-0.007187,-0.159218,0.020736,-0.076393,0.063606,0.002191,-0.000364,-0.058392,0.088944,0.145758,-0.003739,0.158146,-0.136154,-0.039853,-0.050875,0.108773,-0.015706,0.114121,0.011165,0.121306,-0.080003,0.003122,0.144692,0.190692,0.102728,-0.145797,-0.043825,0.039392,0.035696,-0.056231,0.033344,-0.041589,0.013186,-0.053769,-0.078117,0.017713,-0.049889,0.146833,0.003275,0.066625,-0.030836,-0.018037,0.042137,-0.027723,-0.084107,0.025059,0.026389,0.057134,-0.028033,-0.129329,0.044655,0.039240,-0.052381,-0.128108,0.070709,-0.008007,0.065035,-0.073093,0.034434,-0.045922,-0.039187,0.041833,0.063272,0.024657,-0.036934,-0.098132,-0.048020,0.113226,0.010282,-0.031351,-0.015915,-0.083747,-0.112104,0.122181,0.137153,0.104509,0.134246,-0.062873,0.006380,-0.124912,-0.052518,-0.183839,0.128417,0.016016,0.160708,0.039165,0.146253,-0.191257,-0.127308,-0.049153,0.057458,-0.127260,0.100041,0.032259,-0.099533,0.061044,0.052170,0.050316,-0.072722,-0.063770,-0.022540,-0.050317,0.047193,0.000667,-0.014525,0.084203,-0.018106,0.055675,0.254866,0.080496,0.104625,-0.063105,0.016712,0.032503,-0.101127,-0.088854,0.201793,-0.258885,-0.049198,-0.205931,-0.078250,0.010843,0.013308,0.011491,0.011121,-0.153237,-0.107328,-0.078205,0.068805,-0.048971,0.127932,0.049188,0.005152,-0.158431,-0.149591,-0.108396,0.038403,0.145190,0.042470,0.052769,0.046390,0.116156,0.080150,-0.137856,-0.049930,0.045205,0.062780,0.081638,-0.030395,-0.014821,-0.012749,0.029477,0.024725,-0.007991,-0.076530,-0.139512,0.032176,-0.095589,0.002857,-0.099952,-0.118396,0.142341,0.141113,0.045085,0.104324,0.064436,-0.107246,0.003523,0.021205,-0.082573,0.013104,-0.028116,-0.145608,0.066460,0.096892,-0.021255,-0.103452,0.041452,-0.118056,-0.138855,-0.084294,-0.062432,-0.015959,0.062928,0.005150,-0.042976,0.085005,-0.011372,0.046516,-0.103782,-0.043674,0.020723,-0.061477,-0.030478,-0.114974,-0.093626,-0.139133,0.088278,-0.079946,-0.193580,-0.005551,0.030939,0.055825,0.112191,0.004293,-0.082504,-0.009772,-0.017557,-0.036519,0.027690,0.022995,-0.143575,-0.022224,-0.010925,0.143622,-0.051661,0.023029,0.105684,-0.089503,0.159724,-0.026695,-0.130416,-0.012469,0.012230,-0.035594,0.101559,0.003382,0.097423,-0.003128,0.165922,-0.074523,-0.051123,0.013575,-0.088542,0.019122,0.026346,-0.178846,0.042024,0.093359,-0.018721,-0.039628,-0.007714,-0.072101,-0.081786,0.123186,-0.009813,-0.180448,-0.092139,-0.120208,-0.034959,-0.011160,0.004922,-0.083495,-0.059646,-0.023029,-0.004110,0.011296,0.142504,0.060778,0.044517,0.107494,0.047420,-0.133983,0.129915,-0.046704,0.191665,0.060734,0.040533,0.006973,0.063570,-0.083745,-0.122226,-0.162995,-0.091179,-0.019916,0.073820,0.062464,-0.103116,-0.080505,-0.081463,-0.021979,0.035783,-0.087524,0.034977,0.031429,0.020385,0.060791,0.159438,-0.075260,-0.057908,-0.023433,0.014491,-0.024410,0.018097,-0.001395,-0.066829,-0.128340,-0.025765,0.039187,-0.013053,-0.050765,-0.074346,0.018809,0.016810,0.085113,-0.136528,-0.072758,-0.003321,0.024757,-0.067523,0.098722,-0.163885,-0.067339,0.107362,-0.032099,0.054826,-0.121338,0.069742,-0.055734,0.003984,0.014101,-0.032541,-0.012556,-0.011067,0.007151,0.094778,-0.014710,-0.090871,-0.061443,0.163944,-0.187188,-0.082894,-0.027055,-0.028000,-0.127915,0.074698,0.071594,-0.053630,0.056743,0.130785,-0.005190,-0.079089,-0.110359,0.013981,-0.026254,0.083558,0.007161,-0.011116,0.092234,-0.037177,-0.018281,0.019711,-0.054465,0.061563,0.055296,0.079947,-0.057715,-0.065032,0.054010,-0.120121,0.002375,0.025532,0.050530,-0.239698,-0.044856,-0.168708,0.044973,0.128925,-0.094432,-0.108384,0.022085,0.137113,0.077888,0.035373,0.082080,-0.014024,0.009290,0.075978,-0.213628,-0.004537,-0.110940,0.131286,-0.069719,-0.025938,0.070239,-0.035880,0.087479,-0.107589,-0.062698,-0.003248,0.085584,-0.039459,0.067343,-0.113412,0.037771,0.007763,-0.082430,-0.098558,0.123305,-0.033570,0.124582,0.096291,-0.100454,0.000568,0.075557,0.044597,0.068570,-0.060835,0.098845,-0.000177,-0.044144,0.025492,0.041800,-0.052834,0.059102,0.035187,-0.039048,0.059609,-0.063696,0.004363,0.038284,-0.097240,-0.030861,-0.033010,0.102439,-0.039890,-0.000529,0.027434,-0.058647,-0.028469,-0.025117,0.011924,-0.021362,0.035348,0.031718,0.008013,-0.070460,-0.118151,-0.014136,0.181306,-0.000506,-0.045647,-0.013826,0.012092,0.092105,0.134710,-0.030812,-0.239823,0.068723,0.085327,0.059330,-0.050567,-0.035618,0.055757,-0.021283,0.086613,-0.025278,0.044822,0.002111,-0.073947,0.010872,0.029390,-0.061406,-0.202995,0.100211,-0.086763,0.002658,-0.020354,-0.005222,0.093206,-0.000375,-0.033004,-0.029871,0.106696,0.160501,-0.006106,-0.028692,0.086197,-0.105383,-0.059272,0.077076,0.164052,0.090930,0.030807,0.028128,-0.040150,-0.070098,0.180679,0.060163,-0.103171,0.053804,0.253547,-0.013238,-0.025540,-0.019828,-0.114025,-0.135430,0.066869,-0.080220,0.205022,-0.150064,0.059912,0.016302,-0.055981,0.014902,0.051366,0.149252,-0.070907,0.010510,-0.046106,-0.107610,0.002623,0.129610,-0.108177,0.088273,-0.000924,-0.045576,-0.108024,-0.018929,0.027210,0.095917,-0.018223,0.057471,-0.065916,-0.036399,0.040529,-0.031356,0.176333,0.019433,-0.001194,-0.019558,0.321609,-0.041807,-0.012220,-0.122343,-0.089244,-0.063006,-0.002890,-0.093045,-0.060473,0.012574,0.082153,-0.110932,-0.059943,0.073379,0.196130,-0.041703,0.235299,0.084317,-0.079920,0.025342,-0.004919,-0.090211,0.070275,0.001783,0.069181,0.018035,-0.074415,0.104046,-0.102707,-0.120567,-0.034610,0.017664,-0.060273,-0.163825,0.062509,0.016964,-0.020976,0.012881,-0.091886,0.037920,0.047290,0.000770,0.106171,0.034684,0.050994,0.112936,0.045034,-0.193603,-0.016349,0.084529,0.114950,-0.041945,-0.045102,-0.111429,0.221804,0.047088,0.023258,-0.091604,-0.084211,0.115377,-0.051415,-0.013158,0.032977,0.104020,-0.102898,-0.227666,0.004117,-0.121104,0.131332,0.028245,-0.006408,-0.012799,0.070288,0.056905,-0.132037,-0.141076,0.018661,-0.019946,0.057571,-0.077899,-0.080839,-0.004419,0.090490,0.236321,-0.133874,0.002862,0.013886,0.194151,0.153667,0.048206,-0.112886,-0.020406,0.120588,0.184705,-0.064911,0.034603,-0.014464,0.070021,0.081235,-0.051283,-0.051659,0.009361,0.005121,-0.039052,0.109728,-0.101919,0.070936,-0.000095,0.047621,0.018529,-0.072056,-0.027896,0.209224,0.097521,0.064749,-0.177610,-0.038990,-0.180454,-0.101179,0.050075,-0.002014,-0.151848,0.104039,-0.051801,0.072484,-0.039074,0.045118,0.002449,0.012712,0.097675,-0.154959,-0.000330,0.021143,0.127063,0.075449,0.097947,0.091717,-0.021981,-0.108250,0.016854,-0.092038,-0.093909,0.008310,-0.048049,-0.071582,-0.055914,-0.074911,0.140387,0.063676,0.103126,0.014095,0.054297,-0.065720,-0.007256,-0.120321,-0.035292,0.000515,-0.057459,0.002770,-0.018821,-0.057138,0.020174,-0.073595,-0.076059,0.175185,0.098396,0.005758,0.007234
0.128731,0.083243,-0.131092,0.053505,0.046489,0.014304,-0.166340,0.016818,0.028469,-0.032341,0.028329,0.066904,0.079407,0.040974,-0.012340,-0.016933,0.013987,0.001626,0.236516,-0.040516,-0.044739,0.034472,-0.000451,0.053702,-0.035674,-0.086041,-0.019584,-0.082366,0.140714,-0.066818,0.146347,-0.082051,0.022228,0.034008,-0.103327,-0.033638,0.068918,-0.048677,0.071171,0.135280,0.008798,-0.126430,-0.111813,-0.005540,-0.022436,-0.094184,-0.163754,-0.072580,-0.057339,0.100410,0.006514,-0.181563,0.127765,-0.142156,-0.026834,-0.092136,-0.042950,0.013895,0.016278,0.094964,0.005874,0.006335,0.006536,-0.031139,-0.029103,0.037251,-0.068920,-0.120993,-0.125623,-0.078191,0.096527,-0.176281,0.033299,-0.055294,-0.016866,-0.171322,-0.019448,0.102655,0.036257,0.072359,-0.030319,-0.014248,-0.060795,-0.079462,0.058998,0.049594,0.036963,-0.216894,0.052320,0.057631,0.087303,0.118907,0.187968,-0.096597,0.093920,0.070775,0.010769,0.014762,-0.006709,-0.099791,0.074408,0.084169,-0.035172,0.092261,-0.150071,0.039578,0.001348,0.094084,0.075657,-0.118209,-0.051587,0.025980,-0.036536,-0.039682,-0.019587,-0.024135,0.074303,0.004233,0.054563,-0.062686,-0.014370,0.140330,-0.091190,0.032343,0.066596,0.033880,-0.017819,0.051627,0.053354,-0.166749,0.125473,0.082874,-0.070270,-0.010870,-0.097057,0.119054,-0.025452,0.126795,-0.082416,0.006757,0.001654,0.014846,0.203336,-0.062411,0.031375,0.000051,0.072321,-0.004942,-0.091851,0.006857,0.053519,-0.066361,-0.001896,0.007713,0.042802,-0.135231,-0.036613,-0.105882,-0.172976,0.131350,0.010159,0.088934,0.050722,-0.083075,-0.033533,-0.010108,0.016728,-0.030950,-0.129170,0.019786,0.066816,0.011429,-0.021332,-0.093022,-0.154057,0.011550,-0.002576,0.098505,-0.053417,-0.049016,-0.120977,0.107481,-0.088905,-0.127796,-0.029332,-0.020508,0.004819,0.119292,-0.044001,0.026267,-0.045286,-0.089273,0.108291,0.005978,0.112412,0.120221,0.078071,0.017544,-0.111652,-0.075882,-0.014863,-0.159644,0.115532,-0.012307,0.040786,-0.150661,0.080065,0.057818,0.069184,0.067312,0.121311,-0.050860,-0.159856,-0.177433,-0.043830,-0.013010,-0.040715,-0.060279,-0.018243,0.100435,0.042524,0.055447,-0.037928,-0.026919,0.128130,0.009728,-0.082916,-0.070795,0.146531,-0.030648,-0.025849,-0.034823,0.040865,-0.018547,-0.040195,-0.122982,0.074064,-0.026668,-0.175651,0.090290,0.076135,0.070614,-0.151521,0.174053,0.076745,0.028424,-0.178565,0.149509,-0.034902,0.114209,0.003974,0.040796,-0.146982,0.101272,0.009929,-0.072394,0.102740,-0.039461,0.025946,0.185591,-0.257456,0.110959,0.049992,0.086494,0.004319,-0.025870,0.023312,-0.198765,-0.005730,0.072077,-0.046558,0.136015,0.032901,-0.051673,-0.007904,0.078668,0.110671,0.099523,0.115175,-0.009594,0.019820,0.065673,0.028673,0.048458,-0.099381,0.062767,0.074741,0.006158,-0.049671,0.001872,0.007604,0.053638,0.035598,0.035577,-0.005388,-0.224194,0.001137,-0.000576,-0.023650,-0.040422,-0.005994,0.103117,-0.075926,0.034266,-0.007318,0.105526,-0.005721,0.060828,-0.005550,0.065769,0.007510,0.074671,-0.069371,-0.008431,0.106824,-0.208570,-0.040745,0.007790,0.089592,0.176746,-0.012725,0.025363,-0.015328,0.003683,0.041322,-0.036591,-0.035105,0.000791,-0.018638,-0.100778,0.067590,0.093852,-0.030585,0.060554,-0.038674,0.170962,0.028672,-0.128453,0.077428,0.043009,-0.115701,-0.038862,0.033438,0.160288,-0.017817,-0.043041,0.114804,0.008978,0.073024,0.007618,0.118745,0.002259,-0.044439,-0.138849,0.034708,-0.065376,-0.006157,0.197833,-0.047239,-0.076496,0.088563,0.042637,-0.018686,0.011596,0.022515,0.003704,0.078082,0.094820,0.071154,0.043477,0.000071,-0.164192,0.090805,0.055091,0.135329,0.058018,0.048646,-0.090901,0.029766,0.138577,0.019238,0.010313,0.047834,0.072094,-0.210202,0.170045,-0.045350,-0.046531,0.047991,0.156284,0.117171,-0.135157,0.107926,0.091889,-0.126713,0.037420,0.064800,-0.045914,0.077884,-0.020084,0.090006,-0.066291,-0.013904,-0.142893,0.086041,-0.005720,-0.142157,-0.068471,-0.021589,0.054652,-0.121922,0.011599,-0.012593,-0.169338,0.014993,-0.120795,0.060669,0.129470,0.061112,-0.028794,-0.075872,-0.107425,0.057941,0.042772,0.032568,-0.119078,-0.043585,0.067480,-0.058451,-0.178385,-0.052703,0.013858,0.154486,-0.002555,-0.029515,-0.063012,0.103183,-0.157091,-0.115151,0.041288,-0.064480,-0.043789,-0.053600,-0.029443,0.078967,0.071628,0.029895,0.025497,-0.050751,0.087328,-0.053582,-0.038324,0.047046,0.056366,0.089335,-0.039108,-0.177146,0.083078,0.242040,0.023861,-0.048915,0.028472,-0.074445,0.095822,-0.036105,-0.012497,0.036798,-0.129092,-0.133737,-0.084948,0.085617,0.004853,0.041542,-0.029270,0.076904,0.023753,0.119617,-0.171376,-0.117224,0.102105,0.021146,-0.057962,0.055994,0.026150,-0.023809,-0.054025,-0.034159,-0.089251,-0.034757,0.026652,-0.057998,0.112536,0.066373,0.064802,-0.059068,-0.032598,0.022594,0.029930,0.052114,-0.102420,0.130356,-0.063459,0.061460,0.154618,0.070866,0.065168,0.055715,-0.055808,-0.098480,0.064139,-0.098675,-0.011589,-0.013275,-0.039578,-0.148733,-0.011277,0.084421,0.145099,-0.009046,0.046429,0.064333,-0.023539,-0.000741,-0.000938,0.030539,-0.031645,0.013131,-0.007624,-0.027169,0.056462,0.042526,-0.017061,-0.227038,-0.014130,-0.041505,-0.015342,0.018190,0.081468,-0.035374,-0.043871,0.063342,-0.018211,-0.110302,0.039605,-0.018028,0.067933,0.008985,-0.029820,-0.065695,0.033378,0.079553,-0.142860,0.095551,-0.104750,0.015503,0.069085,0.060642,0.089491,0.038694,0.085895,0.063152,-0.056328,0.080690,0.015131,0.089860,-0.074916,0.034252,-0.087863,-0.110034,-0.096962,-0.008221,-0.012045,0.084643,-0.067466,0.081148,-0.110312,0.017349,0.060869,-0.011178,0.004270,0.014730,0.080126,0.000362,-0.062089,-0.005312,-0.036754,0.017416,0.086617,0.067698,-0.014735,-0.071888,-0.166781,-0.042821,-0.085073,-0.123611,0.102800,0.093858,0.128656,-0.076054,-0.011113,-0.055814,-0.031081,-0.117025,0.090071,-0.016667,0.069178,-0.036954,0.026436,0.084862,0.116377,-0.014822,0.042725,0.059803,0.079850,-0.096805,0.029865,-0.025084,-0.155950,0.073949,0.013622,-0.033248,-0.190320,-0.111442,0.062123,-0.015321,-0.026968,0.088628,-0.062474,-0.051426,-0.046148,-0.021860,-0.043546,0.009403,0.137105,0.009144,-0.003266,-0.052937,-0.004598,-0.035921,-0.037870,0.008640,-0.054010,0.059207,-0.080780,0.040986,-0.069606,-0.010262,-0.115506,-0.061210,-0.047252,0.158237,0.079907,0.104060,-0.096654,0.015658,0.016523,-0.080843,0.005110,0.046271,-0.096416,-0.044071,0.111547,-0.075249,0.002474,-0.132948,0.010431,0.099010,-0.142958,0.203936,0.070797,0.030235,0.016580,-0.047326,0.069755,-0.046843,-0.073410,0.055932,0.054583,0.135467,-0.004194,0.205231,0.014491,0.063551,0.004912,0.076868,-0.041295,-0.013449,0.060967,0.120208,-0.020873,0.091126,-0.045124,-0.008530,0.090116,-0.217375,-0.096172,-0.105004,-0.122981,0.081698,-0.042305,-0.020133,-0.130688,0.093143,-0.090345,-0.018383,-0.139209,-0.024568,-0.097836,-0.022096,0.031294,-0.019992,-0.155247,-0.000367,-0.003025,-0.100425,-0.160166,0.108015,0.010086,-0.002484,-0.035005,0.019830,0.042963,-0.044010,0.084822,-0.067566,-0.031631,0.022341,0.019802,-0.085689,0.050036,0.100321,-0.056723,0.157364,0.019730,-0.025514,-0.030335,-0.065883,-0.019680,-0.092036,-0.056906,-0.008505,0.006671,0.021224,0.069559,0.042624,-0.018529,-0.051028,-0.028910,-0.047895,0.065191,0.106761,-0.049904,0.017660,-0.037510,-0.012097,0.010210,-0.002114,-0.022832,-0.044369,0.069125,-0.014283,-0.028608,-0.067539,0.006323,0.096938,0.046313,-0.018874,-0.025206,0.111122,0.039992,0.009190,-0.044573,0.031128,0.083065,-0.039201,-0.171139,0.027415,-0.035220,0.041999,-0.023540,0.111336,-0.130360,0.105032,-0.208618,0.003436,-0.002556,-0.133233,0.008611,0.087367,0.038780,-0.009804,0.081085,0.101784,0.093766,0.100356,0.058316,0.149472,-0.048318,-0.050917,-0.059338,-0.088265,-0.061821,0.021965,0.114322,0.079613,-0.010583,-0.085473,0.050258,0.058269,0.128909,-0.016229,0.010687,0.096368,0.042541,-0.071996,-0.016145,-0.070705,-0.029744,0.082818,-0.034411,-0.061826,0.019351,0.143590,0.137182,0.056139,-0.079386,0.072905,0.011982,0.083968,0.013031,-0.001554,-0.012265,-0.027066,0.139031,0.157295,-0.112567,0.015077,0.054601,-0.186506,0.050112,-0.001725,0.020025,0.082510,0.110040,-0.045365,0.025897,0.008669,0.077028,0.105925,-0.001217,0.049059,0.078439,0.011823,0.019294,-0.095550,0.017575,0.011613,-0.134529,0.037321,-0.060572,-0.027314,-0.094043,-0.119142,0.005393,0.040448,0.023336,-0.046196,0.081138,0.118064,0.154937,0.128036,0.025206,-0.020393,-0.076261,-0.140101,-0.067416,-0.070849,-0.128477,-0.078897,0.056207,0.128645,-0.018489,0.078491,0.011547,-0.030551,0.077797,0.019537,0.062247,0.037946,0.018455,0.052276,-0.043005,-0.014870,0.025446,0.020250,0.031547,-0.111889,-0.040775,0.020936,0.027408,0.037536,-0.113900,-0.090618,-0.066782,0.045997,0.077989,-0.057228,0.149279,0.092361,-0.068484,0.053582,-0.033458,-0.000593,-0.062323,-0.099932,-0.099474,0.019682,-0.222089,-0.046778,-0.143645,-0.080649,0.017457,-0.124403,-0.055231,-0.174995,0.108757,-0.013103,-0.017363,-0.129990,-0.048275,-0.009861,0.100613,-0.019825,0.020413,0.002183,-0.180655,0.038301,0.091566,-0.171575,0.052599,-0.019186,0.153116,-0.030782,0.050306,-0.058774,0.024094,-0.001993,-0.127123,-0.043331,0.018727,0.222005,-0.057554,-0.169325,-0.011244,0.028710,-0.007198,0.046390,0.168813,0.101272,0.018204,0.031756,-0.079057,-0.001167,0.026051,0.005388,0.014893,0.084741,0.143413,-0.007099,0.024818,0.080376,-0.064363,0.028986,-0.094426,0.065964,-0.062835,0.033522,0.055491,0.100467,-0.002199,0.147512,-0.047093,0.008905,0.023520,-0.056982,0.106069,-0.014717,0.040068,0.053307,-0.164153,0.143570,0.176630,-0.023987,-0.160887,0.010913,-0.016375,0.049119,0.056917,-0.027450,0.082609,0.063586,0.064058,0.091373,-0.124946,-0.075557,-0.067546,0.010163,-0.005343,-0.164983,0.128900,0.171759,0.089979,0.039765,-0.002559,-0.085553,-0.116697,-0.048011,0.114350,-0.163113,-0.002655,0.020748,0.002545,0.007861,-0.025554
